v g 0.0003130
v t 0.0000692
v r 0.0000559
v NULL 0.0051247
v o 0.0012567
v b 0.0007133
v R 0.0033898
v s 0.0002656
v T 0.0022727
v w 0.0028176
v c 0.0001169
v . 0.0007452
v v 0.9569657
v i 0.0001424
v V 0.0027624
v p 0.0008264
v d 0.0004983
" D 0.0011429
" s 0.0000664
" ' 0.0879121
" NULL 0.0011080
" * 0.0769231
" n 0.0000379
" " 0.7644231
S NULL 0.0019391
S ) 0.0384615
S E 0.0037975
S S 0.9628378
S H 0.0022701
S : 0.0125000
S K 0.0020661
S N 0.0054348
S G 0.0034602
S a 0.0002189
S r 0.0000559
d P 0.0092166
d T 0.0022727
d s 0.0003984
d n 0.0000759
d e 0.0000223
d , 0.0003718
d U 0.0027473
d w 0.0020492
d H 0.0034052
d # 0.0000140
d J 0.0028011
d V 0.0027624
d f 0.0019741
d S 0.0013514
d d 0.9753322
d i 0.0001424
d G 0.0034602
d g 0.0004696
d ö 0.0096154
d t 0.0003459
d D 0.0011429
d K 0.0041322
d k 0.0003751
d h 0.0007056
d ! 0.0024938
d b 0.0076082
d M 0.0076453
d z 0.0004054
d NULL 0.0289474
d o 0.0025135
( ( 0.5333333
B ü 0.0010911
B B 0.8720749
B F 0.0017065
B NULL 0.0005540
B p 0.0008264
B K 0.0020661
u e 0.0000447
u n 0.0302444
u u 0.8407630
u s 0.0000664
u ä 0.0007267
u l 0.0002266
u i 0.0006169
u w 0.0015369
u c 0.0004677
u . 0.0007452
u v 0.0036470
u h 0.0002117
u t 0.0004842
u g 0.0001565
u ü 0.0060011
u G 0.0011534
u a 0.0012402
u r 0.0001677
u W 0.0024038
u z 0.0020268
u m 0.0029959
u NULL 0.0307479
u o 0.0003591
u Z 0.0123967
u ! 0.0049875
NULL E 0.0126582
NULL b 0.0137898
NULL t 0.0147344
NULL ö 0.0208333
NULL ü 0.0098200
NULL v 0.0175055
NULL " 0.0056090
NULL S 0.0121622
NULL d 0.0147841
NULL B 0.0171607
NULL u 0.0136091
NULL ! 0.0099751
NULL : 0.0125000
NULL W 0.0228365
NULL m 0.0121413
NULL M 0.0214067
NULL ' 0.0659341
NULL h 0.0145347
NULL 1 0.2000000
NULL c 0.0167212
NULL # 0.0120376
NULL . 0.0320417
NULL U 0.0109890
NULL y 0.0677966
NULL L 0.0179372
NULL V 0.0082873
NULL l 0.0159719
NULL x 0.0238095
NULL T 0.0159091
NULL ; 0.0352113
NULL o 0.0111311
NULL R 0.0237288
NULL Z 0.0123967
NULL * 0.2307692
NULL r 0.0154328
NULL k 0.0138785
NULL ß 0.0089102
NULL K 0.0061983
NULL H 0.0124858
NULL f 0.0121263
NULL 6 0.1666667
NULL J 0.0084034
NULL 2 1.0000000
NULL s 0.0134776
NULL ä 0.0181686
NULL , 0.0219372
NULL n 0.0134335
NULL z 0.0158087
NULL ) 0.0769231
NULL C 0.0097087
NULL g 0.0169041
NULL D 0.0057143
NULL G 0.0126874
NULL a 0.0110155
NULL A 0.0074627
NULL F 0.0051195
NULL j 0.0085653
NULL - 0.0244565
NULL w 0.0099898
NULL i 0.0127645
NULL p 0.0157025
NULL P 0.0230415
NULL I 0.0044444
NULL e 0.0155719
b D 0.0011429
b g 0.0001565
b ö 0.0112179
b r 0.0000559
b G 0.0034602
b h 0.0019756
b z 0.0016214
b NULL 0.0062327
b b 0.9602948
b l 0.0002266
b B 0.0093604
b ä 0.0007267
b s 0.0001328
b P 0.0046083
b n 0.0000379
b u 0.0001072
b w 0.0002561
b L 0.0104634
b i 0.0000475
b d 0.0016611
b p 0.0016529
b V 0.0055249
b f 0.0008460
E G 0.0046136
E E 0.8620253
E S 0.0047297
E C 0.4174757
E W 0.0024038
E NULL 0.0020776
E L 0.0014948
E w 0.0002561
t r 0.0016216
t t 0.9677643
t ü 0.0016367
t ß 0.0013708
t k 0.0030008
t ; 0.0070423
t NULL 0.0353186
t o 0.0012567
t s 0.0018590
t ä 0.0007267
t n 0.0009866
t u 0.0009644
t , 0.0007436
t v 0.0029176
t H 0.0011351
t " 0.0016026
t 6 0.1666667
t f 0.0129724
t d 0.0008306
t G 0.0034602
t a 0.0003648
t g 0.0006261
t h 0.0001411
t : 0.0250000
t C 0.0097087
t z 0.0004054
t m 0.0011038
t W 0.0024038
t l 0.0159719
t e 0.0004915
t y 0.0084746
t 1 0.4000000
t c 0.0007016
t # 0.0000419
t i 0.0072601
ö NULL 0.0020776
ö o 0.0005386
ö ß 0.0006854
ö ä 0.0079942
ö ö 0.9326923
ö l 0.0001133
ö é 0.3529412
ü d 0.0001661
ü V 0.0027624
ü i 0.0004745
ü NULL 0.0026316
ü # 0.0000698
ü c 0.0003508
ü u 0.0006429
ü n 0.0000379
ü ' 0.0164835
ü T 0.0022727
ü A 0.0010661
ü ü 0.9710857
ü l 0.0001133
ü t 0.0000692
ü ä 0.0036337
c k 0.0003751
c a 0.0008754
c ü 0.0038189
c g 0.0003130
c t 0.0002075
c b 0.0002378
c o 0.0007181
c NULL 0.0283934
c m 0.0003154
c q 0.0571429
c u 0.0005358
c n 0.0007210
c e 0.0001787
c P 0.0046083
c l 0.0030585
c f 0.0002820
c L 0.0029895
c i 0.0002847
c y 0.0084746
c U 0.0027473
c # 0.0001117
c H 0.0011351
c c 0.9728718
# a 0.0002918
# r 0.0002237
# t 0.0001384
# g 0.0004696
# é 0.3529412
# NULL 0.2839335
# o 0.0003591
# n 0.0000379
# u 0.0002143
# e 0.0002681
# 0 0.2500000
# s 0.0000664
# l 0.0004531
# f 0.0002820
# d 0.0001661
# i 0.0004271
# . 0.0029806
# O 0.0114943
# c 0.0004677
# w 0.0005123
# # 0.9874178
. . 0.9329359
. y 0.0169492
. v 0.0007294
. H 0.0022701
. - 0.0135870
. Q 0.0952381
. " 0.0048077
. i 0.0001898
. L 0.0074738
. s 0.0000664
. n 0.0000759
. e 0.0000447
. , 0.0003718
. NULL 0.0062327
. m 0.0014191
. W 0.0024038
. a 0.0000730
. G 0.0023068
. A 0.0021322
. g 0.0001565
. t 0.0000692
. ß 0.0006854
. k 0.0007502
. h 0.0001411
U j 0.0021413
U n 0.0000379
U u 0.0001072
U I 0.0088889
U A 0.0053305
U ö 0.0016026
U t 0.0001384
U Z 0.0041322
U E 0.0012658
U Ü 0.7619048
U NULL 0.0005540
U W 0.0024038
U U 0.9780220
O Ö 1.0000000
O Q 0.5238095
O D 0.0022857
O a 0.0000730
O O 0.9540230
y y 0.7881356
y v 0.0007294
y NULL 0.0013850
y * 0.0769231
y J 0.0028011
y g 0.0001565
y h 0.0004233
y n 0.0001138
L H 0.0011351
L . 0.0007452
L NULL 0.0020776
L o 0.0003591
L L 0.9387145
L b 0.0004755
L R 0.0101695
L d 0.0000831
L s 0.0001328
L B 0.0046802
L l 0.0001133
L A 0.0021322
L I 0.0044444
L F 0.0017065
V w 0.0002561
V z 0.0004054
V NULL 0.0011080
V * 0.1538462
V V 0.9585635
V Z 0.0082645
V B 0.0702028
V G 0.0011534
V I 0.0044444
V e 0.0000223
Q u 0.0001072
Q Q 0.2380952
Q A 0.0010661
l ; 0.0985915
l : 0.0125000
l ! 0.0299252
l m 0.0012614
l W 0.0036058
l NULL 0.0303324
l M 0.0045872
l R 0.0033898
l ü 0.0005456
l g 0.0003130
l t 0.0044964
l r 0.0001677
l k 0.0011253
l ß 0.0020562
l # 0.0000279
l c 0.0001169
l 1 0.2000000
l i 0.0025624
l d 0.0006645
l 6 0.1666667
l f 0.0005640
l S 0.0013514
l l 0.9540100
l s 0.0008631
l T 0.0068182
l P 0.0046083
l I 0.0044444
l , 0.0001859
l N 0.0054348
l n 0.0007590
l u 0.0021432
T z 0.0004054
T NULL 0.0011080
T : 0.0125000
T T 0.9477273
x x 0.8333333
x r 0.0000559
x NULL 0.0002770
N R 0.0169492
N M 0.0015291
N N 0.8233696
! ! 0.9401496
! T 0.0022727
! g 0.0003130
! - 0.0054348
! ? 0.0050761
! R 0.0033898
: n 0.0003036
: x 0.0476190
: E 0.0025316
: o 0.0003591
: NULL 0.0018006
: v 0.0007294
: : 0.7625000
: ; 0.0070423
W M 0.0061162
W NULL 0.0016620
W m 0.0001577
W W 0.9302885
W o 0.0001795
W . 0.0014903
W H 0.0022701
W G 0.0034602
W l 0.0002266
m h 0.0002822
m k 0.0003751
m K 0.0020661
m ß 0.0006854
m D 0.0011429
m g 0.0004696
m r 0.0003355
m a 0.0010943
m G 0.0011534
m m 0.9553769
m NULL 0.0117729
m M 0.0015291
m , 0.0072504
m u 0.0017145
m n 0.0036050
m l 0.0002266
m s 0.0002656
m i 0.0000949
m d 0.0002492
m # 0.0000140
m w 0.0074283
m . 0.0081967
M G 0.0011534
M ' 0.0054945
M A 0.0010661
M D 0.0011429
M R 0.0033898
M b 0.0002378
M Z 0.0041322
M M 0.9403670
M W 0.0060096
M NULL 0.0022161
M N 0.0135870
M P 0.0046083
M B 0.0015601
M V 0.0027624
M U 0.0027473
M v 0.0014588
' " 0.1626603
' S 0.0006757
' f 0.0002820
' NULL 0.0040166
' - 0.0027174
' ß 0.0006854
' , 0.0001859
' ' 0.7307692
' s 0.0000664
h b 0.0123633
h NULL 0.0267313
h z 0.0141873
h ß 0.0027416
h h 0.9781274
h k 0.0015004
h r 0.0000559
h A 0.0021322
h a 0.0000730
h ? 0.0050761
h ö 0.0048077
h t 0.0003459
h d 0.0016611
h f 0.0005640
h 6 0.1666667
h i 0.0000949
h v 0.0007294
h w 0.0005123
h H 0.0068104
h n 0.0003036
h , 0.0040900
h l 0.0001133
h s 0.0001328
H h 0.0003528
H a 0.0000730
H S 0.0006757
H b 0.0004755
H i 0.0000475
H NULL 0.0016620
H ) 0.0384615
H . 0.0014903
H c 0.0001169
H H 0.9557321
f w 0.0002561
f v 0.0007294
f f 0.7980823
f " 0.0008013
f d 0.0000831
f p 0.0024793
f s 0.0288142
f ( 0.1666667
f T 0.0022727
f n 0.0000759
f q 0.0571429
f NULL 0.0121884
f t 0.0000692
f D 0.0011429
f ü 0.0016367
f G 0.0011534
f k 0.0003751
f F 0.0017065
f h 0.0000706
f ß 0.0020562
f j 0.0021413
J Z 0.0165289
J J 0.9439776
J i 0.0000475
J NULL 0.0006925
J L 0.0014948
J w 0.0002561
J ß 0.0006854
J I 0.0133333
J G 0.0011534
ä o 0.0005386
ä i 0.0000475
ä NULL 0.0029086
ä W 0.0012019
ä d 0.0002492
ä R 0.0169492
ä S 0.0006757
ä c 0.0003508
ä H 0.0045403
ä ü 0.0010911
ä ö 0.0048077
ä ä 0.9571221
ä P 0.0046083
ä a 0.0002189
s j 0.0149893
s h 0.0004939
s ' 0.0384615
s a 0.0000730
s g 0.0020347
s m 0.0004730
s z 0.0008107
s W 0.0024038
s e 0.0001117
s l 0.0010195
s i 0.0007592
s # 0.0000419
s c 0.0002339
s ß 0.0089102
s k 0.0003751
s r 0.0001118
s ü 0.0005456
s t 0.0001384
s Z 0.0041322
s b 0.0009510
s E 0.0012658
s o 0.0007181
s NULL 0.0270083
s n 0.0001518
s u 0.0001072
s , 0.0003718
s ( 0.2000000
s ä 0.0007267
s s 0.9476165
s d 0.0010797
s S 0.0020270
s f 0.1661027
, " 0.0448718
, f 0.0005640
, d 0.0003322
, - 0.0027174
, w 0.0005123
, . 0.0014903
, v 0.0021882
, e 0.0000894
, , 0.9527793
, u 0.0005358
, n 0.0001138
, s 0.0001328
, m 0.0020498
, NULL 0.0134349
, ; 0.0070423
, ! 0.0024938
, h 0.0002822
, t 0.0001384
, g 0.0012522
, ? 0.0050761
n W 0.0036058
n m 0.0116682
n NULL 0.0463989
n o 0.0001795
n b 0.0009510
n t 0.0004842
n ö 0.0016026
n r 0.0010624
n h 0.0000706
n - 0.0027174
n w 0.0015369
n # 0.0000140
n v 0.0007294
n i 0.0003322
n V 0.0027624
n f 0.0005640
n d 0.0001661
n s 0.0001328
n l 0.0007929
n e 0.0000670
n , 0.0001859
n u 0.1336262
n n 0.9442547
; . 0.0007452
; : 0.1500000
; ; 0.7816901
; NULL 0.0002770
; e 0.0000223
o * 0.0769231
o R 0.0033898
o o 0.9601436
o i 0.0000949
o NULL 0.0096953
o O 0.0114943
o v 0.0043764
o H 0.0022701
o w 0.0012807
o u 0.0006429
o h 0.0000706
o e 0.0002904
o 0 0.2500000
o a 0.0027721
R ! 0.0024938
R K 0.0041322
R d 0.0000831
R N 0.1385870
R R 0.7796610
R o 0.0003591
R NULL 0.0004155
Z s 0.0001328
Z NULL 0.0001385
Z Z 0.8842975
Z J 0.0028011
? NULL 0.0001385
? Ü 0.0476190
? ? 0.9441624
? . 0.0007452
r e 0.0001117
r , 0.0005577
r N 0.0108696
r n 0.0028081
r u 0.0009644
r l 0.0003398
r B 0.0046802
r s 0.0003320
r x 0.0952381
r L 0.0014948
r i 0.0005694
r 6 0.1666667
r # 0.0000279
r w 0.0017930
r c 0.0003508
r y 0.0254237
r v 0.0014588
r h 0.0001411
r k 0.0015004
r t 0.0016602
r r 0.9771304
r a 0.0001459
r m 0.0031536
r NULL 0.0451524
^ z 0.0040535
^ m 0.0004730
^ W 0.0108173
^ ) 0.2692308
^ C 0.0194175
^ M 0.0091743
^ g 0.0018782
^ D 0.0045714
^ G 0.0057670
^ A 0.0010661
^ ' 0.0109890
^ F 0.0204778
^ h 0.0007056
^ 7 1.0000000
^ c 0.0003508
^ - 0.0407609
^ w 0.0010246
^ . 0.0044709
^ y 0.0423729
^ i 0.0000949
^ L 0.0044843
^ V 0.0055249
^ ﻿ 0.5000000
^ P 0.0138249
^ T 0.0113636
^ I 0.0044444
^ e 0.0003351
^ N 0.0027174
^ NULL 0.0081717
^ o 0.0001795
^ R 0.0305085
^ Z 0.0454545
^ E 0.0177215
^ * 0.3846154
^ ? 0.0304569
^ é 0.1764706
^ ü 0.0010911
^ r 0.0001677
^ k 0.0015004
^ K 0.0020661
^ H 0.0022701
^ 8 1.0000000
^ v 0.0029176
^ S 0.0108108
^ 6 0.1666667
^ " 0.0112179
^ J 0.0084034
^ d 0.0001661
^ ä 0.0007267
^ s 0.0008631
^ ( 0.1000000
^ B 0.0124805
^ 0 0.2500000
^ , 0.0046477
^ n 0.0003795
^ u 0.0002143
^ 5 1.0000000
k W 0.0012019
k NULL 0.0073407
k d 0.0000831
k f 0.0005640
k w 0.0002561
k h 0.0008467
k k 0.9711178
k K 0.0020661
k n 0.0000379
k l 0.0030585
k s 0.0001328
k t 0.0006918
k r 0.0001118
ß c 0.0001169
ß # 0.0000140
ß O 0.0114943
ß NULL 0.0026316
ß z 0.0012161
ß f 0.0014100
ß d 0.0000831
ß t 0.0002767
ß s 0.0004647
ß r 0.0000559
ß ß 0.9616175
K p 0.0008264
K C 0.0097087
K R 0.0949153
K i 0.0000475
K NULL 0.0005540
K ! 0.0024938
K K 0.9669421
K , 0.0001859
K k 0.0011253
- . 0.0007452
- # 0.0000279
- ; 0.0070423
- - 0.9076087
- b 0.0007133
- z 0.0004054
- NULL 0.1051247
- l 0.0001133
- s 0.0002656
- t 0.0002767
- n 0.0000379
- e 0.0000447
w r 0.0001677
w ? 0.0050761
w D 0.0011429
w Z 0.0082645
w W 0.0012019
w m 0.0058341
w NULL 0.0058172
w ) 0.0384615
w o 0.0003591
w u 0.0002143
w n 0.0000379
w e 0.0000223
w v 0.0021882
w y 0.0169492
w w 0.9659324
w J 0.0028011
w d 0.0008306
w i 0.0001898
i ; 0.0070423
i E 0.0012658
i R 0.0067797
i NULL 0.0418283
i m 0.0009461
i W 0.0012019
i z 0.0012161
i o 0.0001795
i a 0.0005107
i r 0.0002796
i t 0.0006226
i ß 0.0047978
i K 0.0041322
i j 0.0042827
i h 0.0002117
i y 0.0084746
i w 0.0005123
i H 0.0022701
i c 0.0001169
i f 0.0002820
i p 0.0008264
i i 0.9711018
i ä 0.0036337
i s 0.0010623
i l 0.0029452
i B 0.0031201
i u 0.0009644
i n 0.0002656
i e 0.0000447
p y 0.0169492
p w 0.0005123
p b 0.0004755
p p 0.9768595
p d 0.0003322
p i 0.0001424
p NULL 0.0023546
p P 0.0046083
p s 0.0001328
p B 0.0015601
p n 0.0003415
p , 0.0001859
p h 0.0001411
﻿ ﻿ 0.5000000
﻿ B 0.0015601
P e 0.0000223
P s 0.0000664
P P 0.9216590
P T 0.0022727
P NULL 0.0008310
P i 0.0000475
P M 0.0030581
P V 0.0055249
P Q 0.0476190
e E 0.0037975
e M 0.0015291
e NULL 0.0976454
e o 0.0017953
e G 0.0011534
e a 0.0015320
e A 0.0010661
e ' 0.0439560
e r 0.0024044
e t 0.0067100
e ö 0.0016026
e é 0.1176471
e k 0.0022506
e . 0.0096870
e 1 0.2000000
e c 0.0056127
e # 0.0001117
e f 0.0016920
e " 0.0024038
e d 0.0001661
e i 0.0008541
e L 0.0029895
e ä 0.0021802
e s 0.0002656
e l 0.0006797
e n 0.0003036
e u 0.0001072
e , 0.0048336
e e 0.9818811
I J 0.0280112
I F 0.0017065
I m 0.0001577
I I 0.9555556
I 3 1.0000000
z B 0.0015601
z , 0.0003718
z w 0.0005123
z # 0.0000140
z L 0.0014948
z t 0.0000692
z g 0.0006261
z D 0.0022857
z a 0.0001459
z ß 0.0006854
z j 0.0021413
z ; 0.0422535
z z 0.9558168
z m 0.0001577
z NULL 0.0051247
z b 0.0007133
z R 0.0033898
) ) 0.5384615
) ß 0.0006854
) : 0.0125000
C ! 0.0024938
C C 0.5242718
C E 0.0810127
g M 0.0015291
g m 0.0001577
g z 0.0012161
g NULL 0.0141274
g q 0.8857143
g ; 0.0070423
g ß 0.0020562
g F 0.0051195
g G 0.0057670
g A 0.0053305
g r 0.0001118
g g 0.9722961
g D 0.0022857
g d 0.0002492
g i 0.0000949
g L 0.0074738
g . 0.0007452
g c 0.0004677
g n 0.0001138
g s 0.0006639
g l 0.0001133
D O 0.0114943
D m 0.0001577
D NULL 0.0004155
D W 0.0036058
D L 0.0014948
D E 0.0025316
D " 0.0008013
D M 0.0015291
D ü 0.0005456
D D 0.9748571
D a 0.0000730
D T 0.0022727
D k 0.0003751
D , 0.0001859
D F 0.0017065
a ß 0.0006854
a A 0.0021322
a r 0.0001118
a G 0.0023068
a a 0.9789904
a ü 0.0010911
a g 0.0006261
a ö 0.0096154
a o 0.0161580
a NULL 0.0227147
a ! 0.0024938
a u 0.0017145
a n 0.0001897
a e 0.0002904
a , 0.0005577
a 0 0.2500000
a s 0.0003320
a ä 0.0036337
a f 0.0002820
a i 0.0002847
a # 0.0000140
a c 0.0004677
G g 0.0001565
G A 0.0010661
G G 0.9411765
G F 0.0051195
G K 0.0020661
G NULL 0.0024931
G C 0.0097087
G E 0.0088608
G V 0.0027624
G Q 0.0476190
G " 0.0008013
G S 0.0020270
A e 0.0000223
A g 0.0001565
A ? 0.0050761
A a 0.0001459
A r 0.0000559
A A 0.9669510
A i 0.0001424
A NULL 0.0009695
A o 0.0003591
A S 0.0006757
A Q 0.0476190
A E 0.0012658
A U 0.0027473
Ä Ä 1.0000000
Ä Ü 0.1904762
F F 0.9556314
F NULL 0.0005540
F K 0.0020661
F f 0.0002820
F l 0.0001133
F ö 0.0016026
j P 0.0046083
j T 0.0022727
j s 0.0007303
j g 0.0001565
j n 0.0000759
j j 0.9657388
j h 0.0000706
j f 0.0002820
j NULL 0.0008310
