▼ NULL 0.0000066
▼ S 0.0001971
▼ L 0.0003398
▼ 2 0.0008681
▼ P 0.0004263
▼ T 0.0001726
i L 0.0027183
i k 0.0037645
i Y 0.0060680
i - 0.0003584
i K 0.0098619
i A 0.0061055
i 4 0.0107692
i N 0.0007666
i z 0.0204499
i ﬀ 0.0075047
i u 0.0067959
i # 0.0004196
i I 0.0419001
i ﬂ 0.0141243
i h 0.0142429
i . 0.0016140
i ſ 0.0558659
i T 0.0039703
i S 0.0017741
i ﬁ 0.4608355
i C 0.0020166
i 8 0.0046083
i g 0.0012833
i ﬃ 0.3169165
i U 0.0040928
i n 0.0019969
i x 0.0107265
i e 0.0030408
i y 0.0014996
i , 0.0010437
i P 0.0029838
i B 0.0052691
i R 0.0026238
i c 0.0015274
i ¼ 0.0666667
i _ 0.0294118
i p 0.0026140
i 3 0.0144357
i s 0.0021327
i 1 0.0371854
i E 0.0049846
i 6 0.1015625
i O 0.0017928
i ⅞ 0.2000000
i ‐ 0.0014472
i G 0.0130101
i t 0.0022416
i é 0.1875000
i  0.1111111
i f 0.0055046
i 7 0.0066964
i r 0.0053537
i M 0.0051733
i m 0.0034530
i w 0.0012864
i NULL 0.0592390
i ' 0.0033956
i i 0.8862531
i ½ 0.0704225
i  0.0447761
i o 0.0054572
i l 0.0131111
i b 0.0016873
i H 0.0070612
i 2 0.0260417
i W 0.0019794
i v 0.0032528
i j 0.0100671
i d 0.0029450
i a 0.0084778
' ? 0.0242718
' . 0.0018158
' h 0.0003891
' I 0.0012180
' ! 0.0096618
' T 0.0055239
' ſ 0.0067039
' 8 0.0076805
' C 0.0035291
' S 0.0015770
'  0.4285714
' e 0.0005900
' x 0.0048757
' F 0.0038189
' n 0.0008558
' U 0.0040928
' g 0.0012833
'  0.5000000
' - 0.0005376
' Y 0.0012136
' k 0.0010267
' L 0.0003398
' 0 0.0006752
' z 0.0040900
' A 0.0013083
' ﬀ 0.0056285
' † 0.0769231
' # 0.0002966
' u 0.0015821
' M 0.0023280
' m 0.0009496
' r 0.0002427
' 7 0.0066964
' f 0.0020970
' t 0.0010725
' ' 0.8064516
' i 0.0007446
' NULL 0.0055744
' w 0.0014472
' l 0.0022716
' o 0.0004421
' ½ 0.0281690
' a 0.0005198
' d 0.0005610
' v 0.0018728
' W 0.0023753
' j 0.0022371
' 2 0.0052083
' H 0.0003362
' b 0.0006749
' B 0.0026346
' P 0.0098039
' y 0.0011247
' , 0.0031712
' s 0.0004107
' 3 0.0026247
' p 0.0005006
' c 0.0008728
' R 0.0009839
' E 0.0009494
' 1 0.0074371
' q 0.0040268
' 9 0.0057637
' O 0.0007171
' 6 0.0062500
' ď 1.0000000
X T 0.0003452
X p 0.0001112
X X 0.8129032
X s 0.0001738
X ſ 0.0011173
X NULL 0.0004983
X w 0.0000536
X N 0.0042162
X D 0.0008282
X ? 0.0048544
X . 0.0003026
X L 0.0010194
X I 0.0002436
X P 0.0004263
X W 0.0003959
X O 0.0003586
X a 0.0000124
X x 0.0009751
X ﬃ 0.0021413
X H 0.0003362
X U 0.0013643
X E 0.0009494
X q 0.0006711
X ﬀ 0.0018762
✓ NULL 0.0000066
✓ f 0.0000437
✓ F 0.0005456
✓ B 0.0003764
NULL 0 0.0708980
NULL z 0.0531697
NULL 4 0.0446154
NULL N 0.0502108
NULL A 0.0377235
NULL J 0.0318841
NULL k 0.0550992
NULL Y 0.0327670
NULL - 0.4473118
NULL K 0.0552268
NULL L 0.0346585
NULL # 0.0205947
NULL u 0.0540793
NULL ﬀ 0.0337711
NULL Z 0.0370370
NULL T 0.0248576
NULL D 0.0567288
NULL ſ 0.0815642
NULL ? 0.0145631
NULL . 0.0485221
NULL h 0.0368422
NULL ﬂ 0.0423729
NULL ! 0.0144928
NULL I 0.0299635
NULL x 0.0706972
NULL e 0.0498926
NULL F 0.0458265
NULL ☞ 0.1052632
NULL U 0.0613915
NULL n 0.0466352
NULL g 0.0687423
NULL ﬃ 0.0278373
NULL 8 0.0307220
NULL ﬁ 0.0280679
NULL C 0.0423494
NULL S 0.0376503
NULL  0.1428571
NULL Q 0.0797101
NULL s 0.0580095
NULL £ 0.0740741
NULL 3 0.0446194
NULL 5 0.0663176
NULL _ 0.6470588
NULL p 0.0670745
NULL R 0.0364054
NULL c 0.0608772
NULL B 0.0323673
NULL P 0.0528559
NULL , 0.0237235
NULL y 0.0522172
NULL 9 0.0461095
NULL V 0.0480000
NULL O 0.0462531
NULL ⅞ 0.2000000
NULL ‐ 0.1360347
NULL G 0.0384388
NULL ⅝ 0.2500000
NULL 6 0.0296875
NULL E 0.0446238
NULL 1 0.0394737
NULL q 0.0798658
NULL X 0.0129032
NULL ' 0.0713073
NULL i 0.0607866
NULL w 0.0448089
NULL r 0.0548411
NULL m 0.0560687
NULL M 0.0328505
NULL 7 0.0446429
NULL t 0.0406375
NULL f 0.0345129
NULL  0.2222222
NULL a 0.0438372
NULL v 0.0508625
NULL W 0.0399842
NULL j 0.0715884
NULL d 0.0494577
NULL H 0.0359785
NULL b 0.0448134
NULL 2 0.0303819
NULL o 0.0454896
NULL l 0.0623704
NULL  0.0298507
NULL ½ 0.1267606
® f 0.0000874
® C 0.0002521
® ﬁ 0.0006527
® t 0.0000429
® l 0.0000247
® m 0.0001295
® E 0.0002374
® h 0.0000846
® NULL 0.0000797
® e 0.0000378
® T 0.0001726
® d 0.0000234
® F 0.0010911
® ' 0.0012733
w t 0.0035715
w f 0.0033202
w r 0.0014863
w . 0.0003026
w M 0.0007760
w m 0.0035825
w h 0.0010657
w ﬂ 0.0028249
w D 0.0049689
w w 0.8603205
w NULL 0.0105841
w i 0.0005927
w o 0.0004927
w l 0.0006914
w H 0.0003362
w b 0.0018897
w n 0.0005570
w g 0.0017855
w x 0.0004876
w a 0.0006559
w e 0.0001967
w v 0.0052242
w W 0.0166271
w F 0.0070922
w d 0.0017997
w P 0.0021313
w J 0.0057971
w k 0.0041068
w Y 0.0012136
w - 0.0003584
w , 0.0014451
w y 0.0004820
w c 0.0018910
w s 0.0013902
w p 0.0034483
w u 0.0017978
w # 0.0000820
• s 0.0003791
• z 0.0020450
• p 0.0001669
• 4 0.0015385
• c 0.0003637
• A 0.0004361
• B 0.0003764
• k 0.0001711
• J 0.0009662
• L 0.0003398
• , 0.0003211
• O 0.0003586
• ‐ 0.0014472
• # 0.0000032
• u 0.0002877
• 6 0.0015625
• E 0.0002374
• q 0.0006711
• ' 0.0016978
• i 0.0002735
• T 0.0003452
• D 0.0008282
• w 0.0003752
• NULL 0.0009767
• r 0.0000758
• . 0.0005044
• m 0.0000863
• M 0.0012933
• h 0.0001861
• t 0.0002252
• f 0.0000874
• x 0.0004876
• a 0.0001733
• e 0.0002723
• v 0.0001971
• W 0.0003959
• d 0.0000935
• b 0.0002700
• H 0.0010087
• 2 0.0008681
• n 0.0002445
• g 0.0002232
• o 0.0003663
• l 0.0001235
•  0.0298507
• C 0.0002521
• Q 0.0072464
• S 0.0011827
m u 0.0037036
m # 0.0001420
m O 0.0010757
m q 0.0020134
m E 0.0011868
m c 0.0030548
m p 0.0034483
m z 0.0081800
m s 0.0012480
m , 0.0008831
m L 0.0033979
m y 0.0020887
m - 0.0001792
m k 0.0049624
m P 0.0012788
m B 0.0003764
m g 0.0014507
m n 0.0058141
m H 0.0013450
m U 0.0054570
m b 0.0027671
m d 0.0008414
m j 0.0033557
m W 0.0027712
m v 0.0068014
m e 0.0003101
m a 0.0006683
m S 0.0023655
m ﬁ 0.0006527
m l 0.0016543
m o 0.0003916
m ſ 0.0022346
m NULL 0.0159459
m w 0.0049847
m D 0.0008282
m i 0.0007750
m ' 0.0004244
m I 0.0036541
m f 0.0015291
m t 0.0017589
m h 0.0015901
m M 0.0144853
m m 0.8491454
m . 0.0001009
m r 0.0040190
M G 0.0005914
M # 0.0000032
M O 0.0003586
M 9 0.0057637
M 1 0.0028604
M E 0.0007121
M c 0.0002182
M A 0.0015264
M R 0.0022958
M N 0.0030663
M 4 0.0046154
M p 0.0000556
M 5 0.0069808
M 3 0.0052493
M s 0.0005845
M y 0.0002678
M , 0.0004014
M L 0.0013592
M - 0.0001792
M K 0.0039448
M J 0.0086957
M P 0.0038363
M B 0.0022582
M n 0.0003532
M 2 0.0026042
M H 0.0026900
M b 0.0018222
M F 0.0027278
M d 0.0004675
M W 0.0039588
M v 0.0016757
M e 0.0000378
M a 0.0002723
M Q 0.0144928
M S 0.0031540
M ½ 0.0281690
M C 0.0025208
M ﬁ 0.0019582
M  0.0149254
M 8 0.0015361
M l 0.0003210
M o 0.0002148
M ſ 0.0078212
M NULL 0.0045579
M w 0.0008576
M D 0.0008282
M T 0.0025893
M i 0.0002128
M ' 0.0016978
M I 0.0012180
M ! 0.0048309
M f 0.0003058
M t 0.0002681
M h 0.0002368
M M 0.8437662
M m 0.0015107
M . 0.0006053
M r 0.0007583
° E 0.0009494
° B 0.0007527
° o 0.0000126
° r 0.0000303
° L 0.0003398
° S 0.0001971
° I 0.0002436
° p 0.0000556
° a 0.0000371
° e 0.0000378
° V 0.0020000
° NULL 0.0000997
° c 0.0001818
° n 0.0000272
r p 0.0035039
r z 0.0286299
r s 0.0028278
r 3 0.0052493
r c 0.0048731
r A 0.0010903
r R 0.0616596
r N 0.0076658
r B 0.0052691
r L 0.0006796
r , 0.0020071
r y 0.0036418
r - 0.0023297
r k 0.0075291
r P 0.0025575
r J 0.0077295
r ⅞ 0.2000000
r # 0.0002587
r G 0.0023655
r O 0.0017928
r 9 0.0028818
r V 0.0080000
r † 0.0769231
r u 0.0022653
r E 0.0035604
r q 0.0026846
r 1 0.0005721
r ﬀ 0.0037523
r T 0.0039703
r i 0.0009422
r NULL 0.0502628
r w 0.0046631
r D 0.0016563
r h 0.0035523
r M 0.0043973
r m 0.0110066
r ? 0.0048544
r . 0.0018158
r r 0.8850704
r I 0.0031669
r f 0.0069463
r t 0.0025633
r d 0.0043474
r F 0.0076378
r v 0.0127156
r W 0.0023753
r j 0.0145414
r e 0.0007640
r x 0.0043881
r a 0.0009159
r g 0.0028457
r n 0.0102154
r 2 0.0060764
r H 0.0043712
r b 0.0065465
r  0.0149254
r l 0.0042469
r o 0.0007832
r S 0.0005914
r ﬁ 0.0006527
r C 0.0022687
7 u 0.0002157
7 O 0.0003586
7 # 0.0000032
7 9 0.0028818
7 1 0.0022883
7 E 0.0002374
7 4 0.0015385
7 5 0.0017452
7 _ 0.0294118
7 0 0.0027009
7 L 0.0003398
7 , 0.0002408
7 P 0.0008525
7 b 0.0002700
7 n 0.0001494
7 2 0.0008681
7 W 0.0003959
7 F 0.0016367
7 e 0.0000303
7 ½ 0.0140845
7 C 0.0002521
7 8 0.0030722
7 o 0.0000379
7 l 0.0001235
7 ſ 0.0011173
7 NULL 0.0009501
7 ¾ 0.0833333
7 T 0.0005179
7 t 0.0000107
7 f 0.0000874
7 7 0.8147321
7 h 0.0000507
7 . 0.0002018
7 ? 0.0048544
7 m 0.0000432
é e 0.0006429
é NULL 0.0000399
é c 0.0000364
f p 0.0047275
f s 0.0020379
f 3 0.0052493
f c 0.0018547
f R 0.0068875
f B 0.0075273
f , 0.0069444
f y 0.0016602
f P 0.0055413
f G 0.0118273
f 6 0.1000000
f q 0.0026846
f i 0.0010030
f ' 0.0021222
f NULL 0.0200985
f w 0.0032160
f  0.5000000
f 7 0.0156250
f m 0.0037120
f M 0.0033626
f r 0.0023963
f  0.1111111
f f 0.8376147
f t 0.0037967
f d 0.0031554
f v 0.0044357
f a 0.0017203
f ô 0.1666667
f b 0.0047918
f H 0.0010087
f  0.5671642
f l 0.0020741
f o 0.0003158
f ½ 0.0140845
f 0 0.0067522
f A 0.0010903
f 4 0.0030769
f L 0.0054366
f Y 0.0109223
f - 0.0012545
f k 0.0041068
f J 0.0067633
f # 0.0002335
f † 0.0769231
f u 0.0022653
f ﬀ 0.8846154
f T 0.0022441
f ﬄ 1.0000000
f ſ 0.5162011
f D 0.0053830
f ﬂ 0.4689266
f h 0.0028926
f . 0.0002018
f I 0.0056029
f ☞ 0.1052632
f F 0.0207310
f e 0.0005900
f ç 0.2500000
f x 0.0019503
f ﬃ 0.6209850
f g 0.0026783
f n 0.0035319
f 8 0.0076805
f S 0.0094619
f C 0.0085707
f ﬁ 0.4549608
t l 0.0054815
t o 0.0006822
t  0.0149254
t a 0.0017079
t d 0.0129254
t W 0.0079177
t j 0.0067114
t v 0.0074914
t 2 0.0130208
t b 0.0085712
t H 0.0057162
t m 0.0057838
t M 0.0075013
t r 0.0060665
t 7 0.0066964
t  0.2222222
t f 0.0245959
t t 0.8952477
t i 0.0016412
t ' 0.0038200
t NULL 0.0612056
t w 0.0161870
t E 0.0014242
t 1 0.0091533
t q 0.0020134
t 9 0.0144092
t G 0.0017741
t 6 0.0031250
t B 0.0116673
t P 0.0076726
t , 0.0100755
t y 0.0023029
t s 0.0069510
t £ 0.0111111
t 3 0.0078740
t p 0.0039488
t _ 0.0588235
t 5 0.0139616
t ¼ 0.0666667
t c 0.0093098
t R 0.0013119
t 8 0.0076805
t C 0.0042854
t ﬁ 0.0202350
t S 0.0019712
t Q 0.0072464
t e 0.0015733
t x 0.0151146
t F 0.0163666
t n 0.0033689
t g 0.0078674
t ﬃ 0.0085653
t ? 0.0097087
t . 0.0009079
t h 0.0020468
t I 0.0041413
t ! 0.0048309
t T 0.0391852
t ſ 0.0491620
t ﬀ 0.0234522
t † 0.2307692
t # 0.0001988
t u 0.0023372
t - 0.0010753
t K 0.0177515
t Y 0.0194175
t J 0.0164251
t k 0.0078713
t L 0.0122324
t 0 0.0168805
t z 0.0020450
t N 0.0030663
t 4 0.0123077
t A 0.0002181
► B 0.0003764
► e 0.0000076
► NULL 0.0000133
a o 0.0131883
a l 0.0010617
a 8 0.0076805
a C 0.0025208
a S 0.0072935
a a 0.8841199
a x 0.0078011
a e 0.0064446
a ā 1.0000000
a v 0.0004929
a W 0.0019794
a F 0.0038189
a d 0.0016361
a H 0.0030262
a U 0.0122783
a b 0.0054667
a n 0.0035863
a 2 0.0147569
a g 0.0017297
a r 0.0006976
a . 0.0033290
a M 0.0015520
a m 0.0010791
a h 0.0016746
a 7 0.0200893
a â 1.0000000
a t 0.0005577
a f 0.0013980
a I 0.0002436
a i 0.0070512
a ' 0.0237691
a T 0.0003452
a D 0.0012422
a w 0.0022512
a а 1.0000000
a NULL 0.0503093
a ſ 0.0011173
a E 0.0049846
a 1 0.0011442
a q 0.0006711
a ä 1.0000000
a 9 0.0057637
a à 0.5000000
a # 0.0002145
a u 0.0180504
a 6 0.0125000
a B 0.0026346
a k 0.0015400
a P 0.0008525
a J 0.0009662
a - 0.0007168
a , 0.0051381
a L 0.0010194
a y 0.0019280
a s 0.0070616
a 5 0.0069808
a z 0.0040900
a p 0.0016129
a N 0.0007666
a R 0.0013119
a c 0.0012001
a A 0.0612734
d m 0.0018992
d . 0.0015132
d r 0.0027603
d ﬂ 0.0084746
d h 0.0017931
d f 0.0044124
d t 0.0043330
d I 0.0002436
d ! 0.0048309
d ' 0.0016978
d X 0.0193548
d i 0.0008054
d D 0.0376812
d NULL 0.0270681
d ſ 0.0011173
d w 0.0011792
d l 0.0102716
d o 0.0006443
d ﬁ 0.0013055
d S 0.0025626
d e 0.0007488
d a 0.0003218
d d 0.8706760
d j 0.0055928
d v 0.0050271
d n 0.0013584
d 2 0.0052083
d b 0.0028346
d H 0.0010087
d g 0.0079790
d B 0.0037636
d  0.5000000
d - 0.0003584
d J 0.0009662
d k 0.0075291
d P 0.0038363
d L 0.0006796
d y 0.0060518
d , 0.0090318
d s 0.0028594
d £ 0.0111111
d 3 0.0052493
d p 0.0021691
d c 0.0023638
d ﬀ 0.0009381
d # 0.0002271
d à 0.2500000
d u 0.0007551
d 6 0.0093750
v f 0.0004369
v t 0.0008687
v I 0.0019488
v m 0.0022445
v r 0.0015166
v . 0.0007061
v ﬂ 0.0084746
v h 0.0012518
v D 0.0004141
v ſ 0.0044693
v NULL 0.0083982
v w 0.0054135
v T 0.0003452
v i 0.0001824
v S 0.0019712
v l 0.0006173
v o 0.0002779
v  0.0298507
v n 0.0007879
v b 0.0010124
v g 0.0013391
v e 0.0002647
v x 0.0014627
v a 0.0001980
v d 0.0007479
v F 0.0021822
v v 0.8468211
v Y 0.0084951
v - 0.0001792
v P 0.0004263
v k 0.0029090
v , 0.0003211
v y 0.0112468
v B 0.0018818
v N 0.0019164
v c 0.0016365
v R 0.0009839
v 0 0.0067522
v s 0.0010269
v p 0.0011123
v E 0.0004747
v u 0.0002517
v V 0.0520000
v # 0.0000789
v G 0.0023655
W E 0.0014242
W q 0.0006711
W V 0.0060000
W 9 0.0028818
W O 0.0007171
W u 0.0001798
W B 0.0011291
W K 0.0039448
W k 0.0001711
W J 0.0057971
W P 0.0034101
W L 0.0027183
W , 0.0006021
W 0 0.0027009
W s 0.0000474
W p 0.0001112
W N 0.0022997
W A 0.0002181
W R 0.0022958
W l 0.0001975
W o 0.0000505
W C 0.0032770
W S 0.0029568
W e 0.0000151
W a 0.0001609
W F 0.0027278
W d 0.0001169
W W 0.8068092
W v 0.0005914
W 2 0.0017361
W n 0.0002038
W H 0.0013450
W b 0.0006749
W g 0.0003348
W m 0.0007769
W M 0.0043973
W r 0.0004550
W . 0.0005044
W t 0.0005899
W I 0.0002436
W T 0.0003452
W i 0.0000152
W ' 0.0038200
W D 0.0024845
W NULL 0.0022258
W w 0.0030552
j . 0.0011097
j r 0.0001820
j m 0.0005611
j M 0.0005173
j h 0.0003214
j t 0.0001394
j f 0.0005679
j I 0.0004872
j i 0.0005775
j ¾ 0.0833333
j T 0.0020715
j w 0.0004824
j ſ 0.0346369
j NULL 0.0024716
j o 0.0001516
j l 0.0004691
j  0.0597015
j ½ 0.0563380
j C 0.0007562
j S 0.0029568
j x 0.0014627
j a 0.0003094
j ç 0.5000000
j e 0.0002421
j j 0.8266219
j F 0.0016367
j d 0.0000701
j b 0.0000675
j n 0.0003939
j g 0.0006138
j J 0.0222222
j , 0.0005620
j L 0.0006796
j y 0.0013925
j 3 0.0026247
j s 0.0001264
j £ 0.0111111
j p 0.0022247
j c 0.0004364
j A 0.0004361
j E 0.0002374
j 1 0.0022883
j q 0.0020134
j Z 0.0185185
j # 0.0000347
j G 0.0041396
j u 0.0002157
2 O 0.0003586
2 # 0.0000189
2 9 0.0086455
2 6 0.0015625
2 E 0.0002374
2 1 0.0057208
2 5 0.0104712
2 p 0.0006118
2 3 0.0104987
2 £ 0.0074074
2 s 0.0000948
2 0 0.0006752
2 R 0.0006560
2 B 0.0011291
2 , 0.0001606
2 d 0.0001169
2 F 0.0016367
2 a 0.0001609
2 e 0.0001740
2 n 0.0001223
2 2 0.7560764
2 8 0.0030722
2 o 0.0000632
2 l 0.0000741
2 ½ 0.0563380
2 NULL 0.0015614
2 D 0.0016563
2 7 0.0022321
2 h 0.0000507
2 . 0.0001009
2 r 0.0000455
2 t 0.0001180
2 f 0.0000874
Ë E 0.0002374
b c 0.0025093
b R 0.0052476
b N 0.0003833
b p 0.0035595
b 0 0.0013504
b s 0.0005529
b L 0.0040775
b y 0.0001071
b , 0.0006021
b - 0.0003584
b K 0.0078895
b P 0.0046888
b k 0.0015400
b B 0.0116673
b u 0.0005034
b # 0.0000284
b V 0.0100000
b 9 0.0115274
b q 0.0046980
b E 0.0066461
b ſ 0.0033520
b NULL 0.0102319
b w 0.0023048
b  0.1250000
b D 0.0008282
b T 0.0008631
b i 0.0005623
b ' 0.0050934
b f 0.0012669
b t 0.0008151
b 7 0.0066964
b h 0.0193853
b m 0.0028488
b M 0.0018107
b . 0.0008070
b r 0.0008796
b g 0.0012833
b 2 0.0008681
b n 0.0005298
b b 0.8310724
b H 0.0006725
b F 0.0032733
b d 0.0014024
b v 0.0046328
b j 0.0055928
b e 0.0000908
b a 0.0007426
b S 0.0039424
b ℔ 1.0000000
b C 0.0015125
b 8 0.0030722
b  0.0149254
b l 0.0018272
b o 0.0009222
H M 0.0028453
H m 0.0014244
H ? 0.0097087
H . 0.0001009
H r 0.0001820
H h 0.0019622
H t 0.0003003
H I 0.0017052
H T 0.0015536
H ' 0.0012733
H i 0.0002279
H D 0.0008282
H ſ 0.0033520
H NULL 0.0030098
H w 0.0003216
H l 0.0019012
H o 0.0000884
H 8 0.0015361
H C 0.0010083
H ﬁ 0.0019582
H S 0.0033511
H e 0.0001437
H a 0.0007055
H d 0.0004207
H W 0.0023753
H n 0.0003804
H H 0.8012777
H b 0.0002700
H g 0.0007254
H B 0.0079037
H K 0.0059172
H Y 0.0048544
H P 0.0055413
H k 0.0001711
H J 0.0067633
H L 0.0020387
H , 0.0001204
H s 0.0001738
H £ 0.0037037
H p 0.0000556
H N 0.0022997
H c 0.0008364
H A 0.0019625
H R 0.0055756
H E 0.0030857
H 1 0.0040046
H Z 0.0185185
H V 0.0060000
H G 0.0023655
H # 0.0000284
H O 0.0017928
H u 0.0001798
H 6 0.0015625
ô NULL 0.0000066
l l 0.8487160
l o 0.0006695
l  0.1044776
l ﬁ 0.0091384
l C 0.0007562
l S 0.0027597
l  0.1428571
l e 0.0006505
l a 0.0005941
l x 0.0053632
l d 0.0061939
l F 0.0065466
l j 0.0078300
l v 0.0031543
l W 0.0043547
l n 0.0031244
l H 0.0131137
l b 0.0110009
l g 0.0017297
l ﬃ 0.0085653
l m 0.0018992
l M 0.0046560
l ? 0.0097087
l r 0.0031394
l . 0.0012105
l ﬂ 0.4463277
l h 0.0163743
l  0.1111111
l f 0.0165574
l t 0.0049121
l I 0.0165652
l ! 0.0096618
l T 0.0056965
l i 0.0061698
l ' 0.0025467
l  0.3750000
l D 0.0066253
l ſ 0.0815642
l NULL 0.0321376
l w 0.0014472
l 1 0.0640732
l ﬀ 0.0140713
l q 0.0020134
l 9 0.0028818
l ⅞ 0.2000000
l # 0.0001798
l u 0.0012225
l B 0.0082800
l Y 0.0048544
l k 0.0037645
l , 0.0021676
l y 0.0029456
l L 0.0404349
l s 0.0016904
l 3 0.0104987
l p 0.0045050
l ö 1.0000000
l z 0.0040900
l 5 0.0017452
l N 0.0003833
l c 0.0020729
l R 0.0091833
o - 0.0010753
o y 0.0062661
o , 0.0038134
o B 0.0003764
o R 0.0019679
o c 0.0127646
o A 0.0078500
o s 0.0010585
o 3 0.0052493
o 0 0.0391627
o 5 0.0122164
o p 0.0019466
o q 0.0120805
o ō 1.0000000
o ó 1.0000000
o E 0.0018989
o u 0.0084139
o V 0.0020000
o O 0.0684833
o G 0.0065050
o # 0.0000852
o t 0.0005899
o f 0.0006553
o I 0.0014616
o r 0.0003337
o . 0.0013114
o m 0.0008201
o M 0.0018107
o h 0.0028249
o 7 0.0022321
o D 0.0004141
o w 0.0020904
o ſ 0.0033520
o NULL 0.0498309
o ' 0.0046689
o i 0.0057443
o T 0.0003452
o C 0.0005042
o S 0.0057165
o o 0.8849433
o l 0.0007654
o 8 0.0046083
o U 0.0040928
o b 0.0041844
o 2 0.0008681
o n 0.0024724
o g 0.0012275
o ô 0.5000000
o x 0.0009751
o a 0.0104704
o e 0.0126169
o W 0.0011876
o v 0.0010843
o j 0.0022371
o d 0.0010518
s f 0.0050240
s t 0.0038074
s I 0.0019488
s M 0.0031040
s m 0.0032372
s . 0.0002018
s r 0.0018806
s h 0.0016746
s ﬂ 0.0028249
s ſ 0.0022346
s NULL 0.0372536
s w 0.0024120
s T 0.0013810
s i 0.0005167
s ' 0.0033956
s Q 0.0072464
s S 0.0415927
s l 0.0017284
s o 0.0015538
s 8 0.0122888
s n 0.0034504
s 2 0.0121528
s b 0.0028346
s g 0.0083696
s ﬃ 0.0064240
s e 0.0028668
s a 0.0027104
s x 0.0063384
s d 0.0039267
s v 0.0021686
s j 0.0100671
s W 0.0035629
s Y 0.0012136
s K 0.0039448
s - 0.0014337
s k 0.0018823
s y 0.0113539
s , 0.0089114
s N 0.0003833
s ¼ 0.1333333
s A 0.0006542
s c 0.0032366
s 0 0.0067522
s 3 0.0013123
s s 0.8673460
s p 0.0025584
s 5 0.0069808
s z 0.0327198
s ﬀ 0.0018762
s 1 0.0017162
s q 0.0033557
s E 0.0023736
s u 0.0008270
s ‐ 0.0014472
s # 0.0001325
3 M 0.0010347
3 r 0.0000455
3 . 0.0002018
3 f 0.0000437
3 t 0.0000215
3 i 0.0000304
3 NULL 0.0009102
3 D 0.0004141
3 8 0.0153610
3 o 0.0000126
3 S 0.0027597
3 C 0.0005042
3 ½ 0.0845070
3 ☞ 0.0526316
3 d 0.0001870
3 v 0.0004929
3 W 0.0007918
3 e 0.0000681
3 a 0.0002847
3 g 0.0005022
3 n 0.0000679
3 2 0.0112847
3 U 0.0013643
3 B 0.0007527
3 , 0.0004014
3 y 0.0003213
3 p 0.0003893
3 5 0.0139616
3 0 0.0006752
3 3 0.7388451
3 s 0.0007899
3 A 0.0004361
3 R 0.0003280
3 4 0.0061538
3 ¼ 0.1333333
3 ﬀ 0.0009381
3 1 0.0028604
3 # 0.0000032
3 9 0.0086455
3 6 0.0062500
£ l 0.0000247
£ o 0.0000253
£ 8 0.0046083
£ E 0.0002374
£ ½ 0.0704225
£ e 0.0000529
£ a 0.0000248
£ ⅞ 0.2000000
£ d 0.0000234
£ # 0.0000032
£ 2 0.0008681
£ u 0.0000719
£ g 0.0002790
£ . 0.0002018
£ r 0.0000303
£ B 0.0007527
£ Y 0.0012136
£ t 0.0000215
£ , 0.0003613
£ 0 0.0020257
£ £ 0.7444444
£ 5 0.0017452
£ i 0.0000152
£ ¼ 0.0666667
£ D 0.0004141
£ 4 0.0030769
£ NULL 0.0003123
£ c 0.0001455
_ a 0.0000248
_ e 0.0000227
_ W 0.0003959
_ v 0.0002957
_ d 0.0000467
_ F 0.0005456
_ ‐ 0.0014472
_ n 0.0000272
_ 2 0.0052083
_ 6 0.0015625
_ 1 0.0040046
_ s 0.0000474
_ i 0.0000304
_ 5 0.0017452
_ T 0.0008631
_ p 0.0001112
_ N 0.0007666
_ A 0.0002181
_ NULL 0.0003721
_ . 0.0002018
_ m 0.0000432
_ h 0.0000507
_ J 0.0009662
_ t 0.0001609
_ - 0.0001792
_ L 0.0006796
_ y 0.0001071
_ , 0.0002408
_ I 0.0007308
p q 0.0013423
p ﬀ 0.0084428
p G 0.0029568
p # 0.0001546
p 9 0.0028818
p u 0.0009349
p B 0.0018818
p L 0.0010194
p , 0.0007225
p y 0.0004820
p P 0.0277067
p 5 0.0069808
p p 0.8473860
p s 0.0006793
p 0 0.0020257
p c 0.0029457
p A 0.0006542
p 4 0.0015385
p N 0.0007666
p 8 0.0015361
p o 0.0012127
p l 0.0008148
p S 0.0001971
p ﬁ 0.0013055
p ½ 0.0140845
p C 0.0073103
p W 0.0011876
p j 0.0078300
p v 0.0018728
p F 0.0032733
p d 0.0005610
p x 0.0019503
p a 0.0007302
p e 0.0005219
p g 0.0030689
p b 0.0043194
p n 0.0011818
p 7 0.0044643
p h 0.0008119
p r 0.0010920
p m 0.0019423
p t 0.0014372
p f 0.0012232
p i 0.0004407
p ' 0.0004244
p T 0.0001726
p w 0.0046631
p NULL 0.0145108
p ſ 0.0044693
5 ½ 0.0281690
5 ﬁ 0.0019582
5 8 0.0015361
5 l 0.0000741
5 o 0.0000632
5 g 0.0000558
5 2 0.0043403
5 d 0.0000467
5 ☞ 0.0526316
5 W 0.0003959
5 j 0.0033557
5 e 0.0000303
5 a 0.0000495
5  0.1111111
5 f 0.0017475
5 t 0.0001394
5 h 0.0001692
5 7 0.0022321
5 m 0.0000863
5 r 0.0002275
5 . 0.0016140
5 NULL 0.0007907
5 w 0.0004288
5 Z 0.0185185
5 1 0.0034325
5 6 0.0031250
5 u 0.0001438
5 9 0.0028818
5 , 0.0002007
5 K 0.0039448
5 P 0.0021313
5 J 0.0009662
5 N 0.0007666
5 4 0.0046154
5 p 0.0000556
5 5 0.7102967
5 z 0.0040900
5 0 0.0027009
5 3 0.0104987
5 s 0.0001106
c B 0.0007527
c y 0.0005891
c , 0.0004416
c - 0.0001792
c k 0.0029090
c P 0.0034101
c p 0.0025584
c 0 0.0087779
c s 0.0009953
c 3 0.0065617
c A 0.0004361
c c 0.8442069
c E 0.0007121
c q 0.0073826
c 1 0.0011442
c G 0.0041396
c # 0.0002335
c O 0.0003586
c 6 0.0062500
c u 0.0008270
c h 0.0009811
c ﬂ 0.0028249
c M 0.0036213
c m 0.0039710
c ? 0.0048544
c . 0.0003026
c r 0.0010465
c I 0.0002436
c f 0.0013543
c é 0.2500000
c t 0.0037538
c T 0.0015536
c ' 0.0021222
c i 0.0005319
c ſ 0.0145251
c NULL 0.0220253
c w 0.0048239
c D 0.0033126
c 8 0.0015361
c l 0.0013086
c o 0.0027160
c C 0.0322662
c F 0.0016367
c d 0.0018231
c W 0.0003959
c v 0.0049285
c j 0.0033557
c e 0.0064143
c x 0.0009751
c a 0.0008911
c g 0.0064167
c n 0.0013177
c U 0.0054570
c b 0.0020922
R m 0.0009064
R M 0.0015520
R . 0.0004035
R r 0.0005763
R h 0.0010149
R f 0.0000437
R t 0.0000536
R I 0.0002436
R T 0.0010357
R i 0.0000912
R D 0.0024845
R ſ 0.0022346
R NULL 0.0038137
R w 0.0003216
R l 0.0000247
R o 0.0001642
R 8 0.0030722
R C 0.0020166
R S 0.0035482
R e 0.0000605
R a 0.0001980
R d 0.0008882
R j 0.0011186
R W 0.0039588
R v 0.0009857
R n 0.0002309
R U 0.0040928
R H 0.0023537
R b 0.0008099
R g 0.0012275
R B 0.0086564
R K 0.0019724
R P 0.0017050
R J 0.0009662
R L 0.0023785
R , 0.0002007
R s 0.0003002
R 3 0.0039370
R N 0.0034496
R A 0.0006542
R R 0.7609052
R E 0.0056967
R 9 0.0057637
R # 0.0000820
R G 0.0011827
R O 0.0003586
R u 0.0002517
Ï l 0.0000494
Ï I 0.0002436
Ï A 0.0004361
B E 0.0163779
B # 0.0000032
B G 0.0047309
B O 0.0003586
B V 0.0080000
B 9 0.0057637
B u 0.0002157
B B 0.8069251
B L 0.0023785
B , 0.0010838
B K 0.0039448
B Y 0.0060680
B P 0.0093777
B J 0.0028986
B p 0.0012236
B s 0.0006161
B 3 0.0039370
B c 0.0004000
B R 0.0141030
B N 0.0019164
B 8 0.0046083
B l 0.0003457
B o 0.0002400
B S 0.0082791
B C 0.0012604
B F 0.0032733
B W 0.0011876
B e 0.0000076
B a 0.0003094
B ﬃ 0.0021413
B 2 0.0026042
B n 0.0005162
B b 0.0018897
B H 0.0053800
B h 0.0003383
B M 0.0020693
B . 0.0003026
B I 0.0004872
B f 0.0004806
B t 0.0006864
B i 0.0000456
B ' 0.0008489
B ſ 0.0011173
B NULL 0.0027042
B w 0.0006432
B D 0.0062112
P E 0.0018989
P ☜ 1.0000000
P O 0.0035855
P G 0.0070964
P 9 0.0086455
P V 0.0060000
P y 0.0004820
P L 0.0027183
P , 0.0012845
P J 0.0057971
P k 0.0010267
P P 0.7971014
P K 0.0078895
P B 0.0063982
P R 0.0055756
P c 0.0001455
P A 0.0010903
P N 0.0022997
P p 0.0016129
P 3 0.0039370
P s 0.0000632
P 0 0.0013504
P Q 0.0072464
P S 0.0015770
P  0.1428571
P C 0.0022687
P o 0.0000884
P l 0.0001235
P g 0.0001116
P b 0.0001350
P U 0.0013643
P H 0.0023537
P n 0.0000136
P W 0.0019794
P d 0.0000935
P F 0.0234588
P x 0.0004876
P a 0.0004951
P e 0.0000832
P I 0.0007308
P t 0.0005899
P f 0.0003495
P ﬂ 0.0028249
P h 0.0000677
P . 0.0002018
P r 0.0002123
P M 0.0023280
P m 0.0003453
P ſ 0.0089385
P NULL 0.0026045
P D 0.0037267
P i 0.0003951
P ' 0.0004244
P T 0.0012084
y I 0.0019488
y ! 0.0048309
y f 0.0021407
y t 0.0014372
y 7 0.0022321
y h 0.0014040
y m 0.0006043
y ? 0.0048544
y r 0.0006218
y NULL 0.0123780
y w 0.0013400
y T 0.0006905
y i 0.0007598
y ' 0.0033956
y S 0.0003942
y ½ 0.0140845
y l 0.0025926
y o 0.0009980
y g 0.0019529
y n 0.0017388
y b 0.0002025
y ☞ 0.0526316
y d 0.0023373
y v 0.0049285
y e 0.0017322
y x 0.0004876
y a 0.0003094
y y 0.8498822
y L 0.0016989
y , 0.0045761
y - 0.0021505
y Y 0.0728155
y k 0.0029090
y B 0.0003764
y c 0.0002909
y A 0.0002181
y 4 0.0030769
y p 0.0007786
y s 0.0022907
y £ 0.0037037
y q 0.0020134
y u 0.0005753
y # 0.0000379
y V 0.0040000
y 9 0.0086455
, W 0.0067300
, d 0.0034826
, ☞ 0.0526316
, x 0.0009751
, a 0.0018812
, e 0.0010665
, g 0.0029015
, ﬃ 0.0042827
, H 0.0033625
, b 0.0045893
, 2 0.0078125
, n 0.0010324
, 8 0.0138249
, o 0.0018570
, l 0.0006914
, S 0.0045338
, C 0.0035291
, ' 0.0016978
, i 0.0002583
, T 0.0039703
, w 0.0018224
, ſ 0.0178771
, NULL 0.0146636
, h 0.0015732
, . 0.0380309
, r 0.0013498
, M 0.0038800
, m 0.0026329
, I 0.0021924
, t 0.0046547
, f 0.0101791
, O 0.0025099
, G 0.0029568
, 9 0.0028818
, V 0.0020000
, 6 0.0078125
, u 0.0002157
, E 0.0009494
, q 0.0006711
, 1 0.0040046
, 5 0.0087260
, p 0.0034483
, _ 0.0294118
, 3 0.0013123
, s 0.0036493
, R 0.0022958
, c 0.0008364
, A 0.0030528
, 4 0.0215385
, ¼ 0.0666667
, N 0.0019164
, B 0.0060218
, L 0.0013592
, , 0.8479448
, y 0.0057305
, P 0.0034101
, J 0.0077295
, k 0.0037645
, - 0.0003584
, Y 0.0036408
V D 0.0008282
V NULL 0.0011561
V ſ 0.0022346
V w 0.0001608
V T 0.0008631
V i 0.0000912
V ' 0.0033956
V f 0.0003495
V t 0.0000751
V M 0.0015520
V r 0.0001062
V ? 0.0097087
V . 0.0008070
V h 0.0000338
V 7 0.0022321
V 2 0.0008681
V g 0.0001674
V e 0.0002042
V a 0.0000371
V F 0.0038189
V v 0.0011828
V W 0.0273159
V S 0.0003942
V l 0.0002222
V o 0.0001011
V N 0.0026830
V 4 0.0030769
V A 0.0013083
V c 0.0000364
V 0 0.0013504
V 3 0.0052493
V 5 0.0052356
V - 0.0001792
V Y 0.0194175
V k 0.0001711
V P 0.0038363
V , 0.0004014
V y 0.0003213
V B 0.0015055
V 6 0.0031250
V V 0.7900000
V † 0.0769231
V # 0.0000284
V G 0.0011827
V O 0.0025099
V 1 0.0005721
V q 0.0006711
9 m 0.0001295
9 h 0.0000338
9 t 0.0000536
9 L 0.0006796
9 , 0.0002007
9 3 0.0039370
9 s 0.0003160
9 0 0.0108035
9 5 0.0034904
9 4 0.0015385
9 ¼ 0.0666667
9 N 0.0015332
9 R 0.0006560
9 NULL 0.0005515
9 l 0.0001235
9 E 0.0002374
9 8 0.0092166
9 1 0.0005721
9 C 0.0005042
9 ½ 0.0140845
9 S 0.0011827
9 Q 0.0072464
9 9 0.7146974
9 e 0.0001286
9 O 0.0003586
9 d 0.0001169
9 F 0.0005456
9 2 0.0008681
9 6 0.0031250
G U 0.0054570
G H 0.0003362
G n 0.0000679
G g 0.0003348
G a 0.0000990
G e 0.0001362
G W 0.0023753
G v 0.0000986
G d 0.0001169
G F 0.0043644
G ﬁ 0.0006527
G C 0.0073103
G S 0.0009856
G o 0.0000632
G l 0.0001481
G w 0.0010720
G NULL 0.0020065
G i 0.0000760
G T 0.0003452
G t 0.0005899
G f 0.0000437
G I 0.0012180
G . 0.0007061
G r 0.0001972
G m 0.0001295
G h 0.0003721
G 7 0.0066964
G u 0.0002157
G 6 0.0093750
G V 0.0020000
G O 0.0010757
G G 0.7740982
G # 0.0000315
G 1 0.0005721
G E 0.0021362
G N 0.0007666
G R 0.0006560
G c 0.0006182
G A 0.0006542
G _ 0.0294118
G p 0.0010011
G P 0.0004263
G y 0.0002142
G L 0.0027183
G , 0.0005218
G B 0.0041400
O K 0.0019724
O - 0.0001792
O k 0.0001711
O , 0.0001204
O L 0.0013592
O y 0.0005356
O B 0.0011291
O c 0.0000727
O R 0.0026238
O 0 0.0303849
O 3 0.0013123
O s 0.0001106
O 1 0.0017162
O E 0.0021362
O 6 0.0031250
O 9 0.0115274
O # 0.0000757
O G 0.0224719
O O 0.8096092
O f 0.0001747
O t 0.0000858
O I 0.0004872
O M 0.0002587
O m 0.0000432
O . 0.0008070
O r 0.0000758
O h 0.0003721
O D 0.0053830
O NULL 0.0040463
O w 0.0006432
O T 0.0017262
O i 0.0003647
O C 0.0090749
O S 0.0021683
O l 0.0000741
O o 0.0014022
O 8 0.0046083
O n 0.0003124
O b 0.0008099
O H 0.0010087
O U 0.0040928
O g 0.0001116
O e 0.0007110
O a 0.0001114
O x 0.0014627
O ☞ 0.0526316
O d 0.0002104
6 NULL 0.0006644
6 c 0.0000364
6 w 0.0000536
6 4 0.0046154
6 ¼ 0.0666667
6 p 0.0006118
6 5 0.0366492
6 0 0.0020257
6 3 0.0013123
6 s 0.0006635
6 , 0.0000803
6 K 0.0019724
6 f 0.0001311
6 . 0.0001009
6 6 0.5562500
6 2 0.0017361
6 d 0.0000234
6 F 0.0005456
6 G 0.0017741
6 O 0.0010757
6 9 0.0057637
6 e 0.0000076
6 S 0.0009856
6 ½ 0.0422535
6 ﬁ 0.0006527
6 1 0.0005721
6 C 0.0005042
6 8 0.0138249
6 o 0.0002021
¥ B 0.0003764
~ A 0.0002181
~ c 0.0000364
~ NULL 0.0002392
~ £ 0.0037037
~ s 0.0001422
~ i 0.0001672
~ 5 0.0017452
~ ' 0.0008489
~ p 0.0000556
~ T 0.0003452
~ _ 0.0882353
~ t 0.0000536
~ f 0.0000437
~ Y 0.0012136
~ , 0.0002810
~ y 0.0002142
~ r 0.0000607
~ m 0.0001727
~ 7 0.0022321
~ h 0.0002199
~ u 0.0000360
~ n 0.0000815
~ 2 0.0026042
~ 6 0.0015625
~ e 0.0000454
~ v 0.0001971
~ ☞ 0.0526316
~ 1 0.0011442
■ - 0.0007168
■ Y 0.0012136
■ , 0.0001606
■ A 0.0006542
■ 3 0.0013123
■ s 0.0001422
■ £ 0.0037037
■ 1 0.0017162
■ 6 0.0015625
■ O 0.0007171
■ # 0.0000095
■ t 0.0001180
■ f 0.0003495
■ . 0.0004035
■ r 0.0000758
■ 7 0.0022321
■ h 0.0000507
■ w 0.0001072
■ NULL 0.0005050
■ i 0.0000304
■ T 0.0005179
■ ½ 0.0140845
■ C 0.0007562
■ S 0.0003942
■ Q 0.0072464
■ o 0.0000758
■ b 0.0002025
■ 2 0.0008681
■ n 0.0001223
■ g 0.0001116
■ x 0.0004876
■ a 0.0000371
■ e 0.0000908
■ v 0.0001971
■ d 0.0002104
E Z 0.0555556
E E 0.7505341
E u 0.0019417
E O 0.0043026
E G 0.0023655
E # 0.0001010
E y 0.0004820
E , 0.0004817
E L 0.0037377
E P 0.0008525
E k 0.0010267
E J 0.0067633
E K 0.0039448
E B 0.0048927
E R 0.0059036
E c 0.0003273
E A 0.0032708
E N 0.0026830
E s 0.0001738
E S 0.0031540
E C 0.0002521
E ½ 0.0563380
E o 0.0007074
E l 0.0000988
E g 0.0005022
E H 0.0016812
E b 0.0008099
E 2 0.0017361
E n 0.0001766
E W 0.0015835
E v 0.0001971
E F 0.0087289
E d 0.0003272
E a 0.0005198
E x 0.0004876
E e 0.0005144
E I 0.0014616
E t 0.0002360
E f 0.0014854
E h 0.0002537
E ? 0.0097087
E . 0.0005044
E r 0.0011375
E M 0.0005173
E m 0.0010359
E w 0.0005896
E NULL 0.0056010
E ſ 0.0011173
E D 0.0020704
E ' 0.0008489
E i 0.0001672
E T 0.0015536
1 E 0.0004747
1 1 0.6882151
1 9 0.0144092
1 O 0.0014342
1 G 0.0011827
1 u 0.0002877
1 6 0.0015625
1 P 0.0012788
1 J 0.0038647
1 Y 0.0012136
1 K 0.0019724
1 y 0.0001071
1 L 0.0030581
1 , 0.0006021
1 £ 0.0111111
1 3 0.0104987
1 s 0.0001422
1 0 0.0114787
1 5 0.0034904
1 p 0.0006118
1 4 0.0292308
1 ¼ 0.1333333
1 R 0.0013119
1 c 0.0003273
1 o 0.0007074
1 l 0.0012346
1 8 0.0122888
1 ½ 0.0422535
1 S 0.0021683
1 a 0.0003342
1 e 0.0000908
1 W 0.0023753
1 d 0.0014491
1 H 0.0043712
1 U 0.0040928
1 b 0.0003375
1 2 0.0147569
1 n 0.0001766
1 g 0.0002232
1 r 0.0001820
1 ? 0.0097087
1 . 0.0015132
1 M 0.0012933
1 7 0.0044643
1 h 0.0001692
1 t 0.0005363
1 f 0.0011796
1 I 0.0246041
1 ' 0.0038200
1 i 0.0003343
1 ¾ 0.0833333
1 T 0.0032798
1 D 0.0020704
1 NULL 0.0031094
q p 0.0000556
q NULL 0.0013820
q c 0.0003637
q ſ 0.0011173
q m 0.0001295
q r 0.0000303
q . 0.0001009
q h 0.0000677
q f 0.0001311
q Y 0.0012136
q - 0.0005376
q t 0.0000536
q e 0.0001059
q a 0.0000248
q # 0.0000126
q d 0.0000701
q n 0.0002173
q u 0.0000360
q H 0.0003362
q g 0.0002790
q l 0.0000494
q o 0.0009095
q Q 0.0072464
q q 0.8436242
T e 0.0004387
T x 0.0004876
T a 0.0006931
T ☞ 0.1578947
T F 0.0027278
T d 0.0005843
T W 0.0027712
T v 0.0011828
T n 0.0008422
T U 0.0081855
T H 0.0020175
T b 0.0006074
T g 0.0004464
T l 0.0002469
T o 0.0002779
T C 0.0040333
T Q 0.0217391
T S 0.0009856
T T 0.8527533
T i 0.0000456
T D 0.0053830
T ſ 0.0011173
T NULL 0.0060462
T w 0.0017152
T M 0.0036213
T ? 0.0048544
T r 0.0004095
T . 0.0019167
T h 0.0003552
T 7 0.0022321
T f 0.0012232
T t 0.0024453
T I 0.0029233
T V 0.0120000
T 9 0.0057637
T G 0.0041396
T # 0.0001293
T O 0.0028684
T u 0.0001438
T E 0.0011868
T 1 0.0017162
T 0 0.0006752
T s 0.0005845
T p 0.0005562
T 5 0.0034904
T N 0.0026830
T ¼ 0.0666667
T A 0.0010903
T c 0.0013092
T R 0.0013119
T B 0.0056455
T Y 0.0145631
T K 0.0019724
T J 0.0086957
T k 0.0013689
T P 0.0029838
T y 0.0001607
T L 0.0030581
T , 0.0018866
D 9 0.0028818
D V 0.0020000
D O 0.0028684
D G 0.0059137
D 1 0.0005721
D q 0.0033557
D E 0.0035604
D N 0.0038329
D R 0.0019679
D c 0.0003273
D A 0.0019625
D 3 0.0013123
D s 0.0001738
D p 0.0008899
D k 0.0005133
D J 0.0009662
D P 0.0034101
D K 0.0019724
D L 0.0044173
D y 0.0001071
D , 0.0002408
D B 0.0045164
D H 0.0036987
D b 0.0020247
D n 0.0009509
D 2 0.0026042
D g 0.0003906
D x 0.0004876
D a 0.0000124
D e 0.0000303
D W 0.0015835
D d 0.0008648
D F 0.0005456
D C 0.0022687
D S 0.0005914
D o 0.0000758
D l 0.0000988
D D 0.8086957
D NULL 0.0029899
D ſ 0.0022346
D ' 0.0029711
D X 0.0064516
D T 0.0013810
D t 0.0002896
D f 0.0001311
D I 0.0012180
D . 0.0006053
D r 0.0003640
D M 0.0041386
D m 0.0006906
D h 0.0000507
ë e 0.0000151
ë ë 0.5000000
ë NULL 0.0000066
. l 0.0007901
. o 0.0021981
. ½ 0.0281690
. d 0.0029684
. W 0.0023753
. v 0.0007886
. a 0.0027104
. 2 0.0043403
. H 0.0006725
. b 0.0015523
. m 0.0018992
. M 0.0051733
. r 0.0011678
.  0.1111111
. f 0.0022280
. t 0.0024346
. i 0.0005319
. ' 0.0093379
. NULL 0.0175006
. w 0.0012864
. E 0.0045099
. q 0.0006711
. 1 0.0005721
. ‐ 0.0072359
. G 0.0047309
. O 0.0014342
. V 0.0040000
. 6 0.0156250
. ⅛ 1.0000000
. ⅝ 0.2500000
. B 0.0067746
. y 0.0013925
. , 0.0287010
. P 0.0012788
. p 0.0010011
. _ 0.0294118
. 5 0.0139616
. s 0.0026540
. 3 0.0052493
. £ 0.0037037
. c 0.0007273
. R 0.0026238
. ¼ 0.0666667
. 8 0.0046083
. Q 0.0072464
. S 0.0061108
. C 0.0032770
. F 0.0065466
. e 0.0015128
. g 0.0003906
. n 0.0028120
. h 0.0005920
. . 0.8625038
. ? 0.0048544
. I 0.0024361
. T 0.0050060
. ſ 0.0022346
. D 0.0037267
. # 0.0002051
. † 0.2307692
. u 0.0007551
. L 0.0074754
. - 0.0035842
. K 0.0059172
. Y 0.0048544
. k 0.0005133
. J 0.0057971
. z 0.0061350
. 0 0.0013504
. A 0.0030528
. N 0.0030663
? NULL 0.0004319
? ſ 0.0011173
? w 0.0000536
? I 0.0007308
? f 0.0006116
? t 0.0000536
? h 0.0000507
? 7 0.0022321
? m 0.0001295
? M 0.0002587
? ? 0.8252427
? r 0.0000303
? g 0.0002232
? 2 0.0008681
? n 0.0000136
? j 0.0011186
? W 0.0007918
? v 0.0001971
? e 0.0003177
? a 0.0000619
? S 0.0001971
? l 0.0000247
? o 0.0002274
? c 0.0000364
? N 0.0007666
? p 0.0004449
? z 0.0020450
? 0 0.0013504
? s 0.0002212
? , 0.0006423
? y 0.0002142
? P 0.0008525
? B 0.0015055
? 6 0.0015625
? u 0.0000360
? G 0.0005914
? q 0.0006711
? 1 0.0011442
â NULL 0.0000066
â a 0.0000619
â o 0.0000126
h E 0.0018989
h u 0.0025529
h # 0.0002145
h G 0.0059137
h k 0.0177960
h K 0.0019724
h Y 0.0048544
h L 0.0023785
h y 0.0041774
h , 0.0026895
h N 0.0003833
h R 0.0042637
h c 0.0020729
h s 0.0010585
h 0 0.0020257
h z 0.0102249
h p 0.0046719
h C 0.0022687
h S 0.0029568
h o 0.0016928
h l 0.0055556
h b 0.0276034
h H 0.0390047
h n 0.0049175
h g 0.0016739
h a 0.0015842
h x 0.0068259
h e 0.0004690
h j 0.0033557
h W 0.0007918
h v 0.0104485
h d 0.0015894
h t 0.0007186
h f 0.0041940
h é 0.0625000
h I 0.0014616
h r 0.0029271
h . 0.0001009
h M 0.0012933
h m 0.0029782
h h 0.8615457
h D 0.0016563
h w 0.0031088
h NULL 0.0321243
h i 0.0017780
h ' 0.0004244
♦ i 0.0000152
♦ V 0.0040000
♦ g 0.0000558
♦ NULL 0.0000266
♦ C 0.0002521
± NULL 0.0000066
I K 0.0039448
I Y 0.0024272
I k 0.0005133
I L 0.0125722
I 0 0.0013504
I N 0.0022997
I 4 0.0076923
I A 0.0039250
I ﬀ 0.0009381
I # 0.0000379
I u 0.0007191
I . 0.0017149
I h 0.0005920
I I 0.8204629
I ! 0.0193237
I T 0.0074228
I D 0.0066253
I 8 0.0076805
I C 0.0017646
I S 0.0027597
I e 0.0008472
I F 0.0021822
I ☞ 0.0526316
I n 0.0002717
I U 0.0054570
I g 0.0000558
I B 0.0041400
I P 0.0017050
I , 0.0014451
I y 0.0003749
I s 0.0001580
I 3 0.0078740
I p 0.0005562
I 5 0.0034904
I Փ 1.0000000
I c 0.0004364
I R 0.0095113
I E 0.0028483
I 1 0.0686499
I q 0.0013423
I V 0.0040000
I O 0.0028684
I 6 0.0015625
I M 0.0007760
I m 0.0000863
I r 0.0002730
I 7 0.0022321
I f 0.0007864
I t 0.0006328
I ' 0.0042445
I i 0.0044222
I X 0.0064516
I NULL 0.0048967
I w 0.0004288
I l 0.0012346
I o 0.0008843
I  0.0149254
I a 0.0006188
I d 0.0006311
I v 0.0003943
I W 0.0098971
I 2 0.0034722
I b 0.0015523
I H 0.0178211
! g 0.0001116
! n 0.0000408
! 2 0.0008681
! b 0.0001350
! d 0.0000935
! e 0.0000227
! a 0.0001114
! ⅜ 0.3333333
! ﬁ 0.0006527
! C 0.0005042
! 8 0.0015361
! l 0.0009136
! o 0.0000758
! NULL 0.0006511
! T 0.0003452
! ' 0.0004244
! i 0.0002583
! ! 0.9082126
! f 0.0001311
! t 0.0002360
! h 0.0003214
! m 0.0000432
! . 0.0008070
! r 0.0000303
! ? 0.0242718
! 1 0.0017162
! E 0.0002374
! c 0.0000364
! N 0.0007666
! p 0.0001669
! s 0.0001422
! y 0.0001071
! , 0.0004817
! - 0.0001792
ç c 0.0000364
e t 0.0008580
e f 0.0022280
e é 0.3125000
e I 0.0029233
e ë 0.5000000
e . 0.0007061
e r 0.0006521
e m 0.0009927
e ê 1.0000000
e h 0.0009642
e 7 0.0066964
e D 0.0012422
e w 0.0024120
e NULL 0.0805799
e ſ 0.0067039
e i 0.0056683
e ' 0.0059423
e T 0.0008631
e ﬁ 0.0019582
e o 0.0139589
e l 0.0015309
e b 0.0006749
e H 0.0013450
e n 0.0015622
e g 0.0054681
e a 0.0093070
e e 0.8931349
e W 0.0003959
e v 0.0010843
e d 0.0025711
e k 0.0030801
e P 0.0004263
e - 0.0021505
e , 0.0058606
e L 0.0010194
e y 0.0085690
e è 1.0000000
e R 0.0009839
e A 0.0037069
e c 0.0169467
e s 0.0108215
e 0 0.0114787
e p 0.0019466
e 1 0.0011442
e q 0.0033557
e ē 1.0000000
e E 0.0700214
e u 0.0057172
e 6 0.0031250
e 9 0.0028818
e à 0.2500000
e O 0.0060954
e # 0.0002650
e ‐ 0.0014472
x ſ 0.0011173
x NULL 0.0020132
x T 0.0005179
x X 0.1161290
x i 0.0000152
x f 0.0000874
x t 0.0000644
x h 0.0000507
x M 0.0002587
x m 0.0008201
x r 0.0005915
x g 0.0000558
x n 0.0003396
x H 0.0003362
x b 0.0001350
x F 0.0005456
x d 0.0001870
x e 0.0001135
x a 0.0004332
x x 0.8278888
x S 0.0001971
x C 0.0005042
x l 0.0002222
x o 0.0001516
x c 0.0004364
x N 0.0007666
x p 0.0007786
x z 0.0143149
x 0 0.0013504
x s 0.0007267
x , 0.0001204
x y 0.0000536
x P 0.0004263
x B 0.0003764
x u 0.0000360
x G 0.0005914
x # 0.0000221
x q 0.0026846
x 1 0.0028604
x E 0.0004747
F u 0.0003596
F G 0.0053223
F # 0.0000126
F E 0.0064087
F N 0.0007666
F R 0.0019679
F A 0.0004361
F s 0.0000948
F 3 0.0013123
F p 0.0002781
F J 0.0048309
F P 0.0110827
F - 0.0001792
F K 0.0059172
F y 0.0001607
F , 0.0005620
F B 0.0030109
F H 0.0036987
F b 0.0004049
F 2 0.0017361
F n 0.0000272
F g 0.0000558
F a 0.0001238
F e 0.0000605
F W 0.0011876
F d 0.0006545
F F 0.7785052
F C 0.0010083
F ﬁ 0.0032637
F S 0.0039424
F o 0.0000505
F l 0.0000247
F D 0.0012422
F w 0.0009112
F ſ 0.0022346
F NULL 0.0022125
F ' 0.0012733
F i 0.0000304
F T 0.0010357
F t 0.0000536
F f 0.0006116
F I 0.0009744
F r 0.0001517
F . 0.0002018
F m 0.0004748
F h 0.0001184
n G 0.0029568
n ‐ 0.0043415
n # 0.0002839
n u 0.0175470
n 6 0.0015625
n E 0.0035604
n 1 0.0028604
n ﬀ 0.0103189
n s 0.0039179
n p 0.0078420
n z 0.0061350
n N 0.0640092
n c 0.0018910
n A 0.0021805
n R 0.0098393
n B 0.0011291
n - 0.0014337
n k 0.0046201
n y 0.0028920
n L 0.0013592
n , 0.0035726
n e 0.0010968
n x 0.0063384
n a 0.0030075
n d 0.0028048
n F 0.0005456
n j 0.0011186
n W 0.0039588
n v 0.0039428
n 2 0.0060764
n n 0.8703507
n b 0.0030371
n H 0.0010087
n g 0.0014507
n l 0.0048148
n o 0.0014401
n 8 0.0076805
n ﬁ 0.0006527
n S 0.0015770
n Q 0.0144928
n T 0.0005179
n ' 0.0012733
n i 0.0010486
n D 0.0004141
n ſ 0.0256983
n NULL 0.0503491
n w 0.0041807
n m 0.0172652
n r 0.0074466
n . 0.0006053
n h 0.0074260
n f 0.0104849
n t 0.0016409
n I 0.0009744
U u 0.0008270
U # 0.0000095
U G 0.0100532
U O 0.0025099
U 9 0.0086455
U 1 0.0051487
U E 0.0009494
U A 0.0004361
U c 0.0000727
U R 0.0039357
U N 0.0003833
U 4 0.0076923
U p 0.0002781
U 0 0.0094531
U 3 0.0039370
U s 0.0002528
U L 0.0027183
U y 0.0002142
U P 0.0012788
U k 0.0005133
U B 0.0015055
U n 0.0000543
U b 0.0004049
U H 0.0026900
U U 0.7653479
U ☞ 0.0526316
U d 0.0002805
U e 0.0001664
U a 0.0002847
U C 0.0017646
U 8 0.0030722
U l 0.0078519
U o 0.0002400
U NULL 0.0014949
U w 0.0000536
U i 0.0004103
U I 0.0024361
U t 0.0003968
U 7 0.0022321
U h 0.0000338
U m 0.0000432
U M 0.0012933
U . 0.0005044
U r 0.0000455
ï b 0.0000675
ï c 0.0000364
ï NULL 0.0000399
ï l 0.0000741
ï v 0.0000986
ï j 0.0011186
™ M 0.0002587
™ 8 0.0015361
™ h 0.0000507
™ 1 0.0011442
™ t 0.0000107
™ I 0.0002436
™ 0 0.0006752
™ s 0.0000158
™ p 0.0001112
™ n 0.0000136
™ 4 0.0015385
™ NULL 0.0000465
g s 0.0021327
g p 0.0011123
g z 0.0040900
g 5 0.0034904
g c 0.0024002
g - 0.0003584
g k 0.0061602
g y 0.0054092
g , 0.0030507
g 9 0.0028818
g # 0.0001735
g ‐ 0.0014472
g G 0.0201064
g O 0.0007171
g u 0.0005394
g ⅝ 0.2500000
g i 0.0001672
g ' 0.0004244
g D 0.0008282
g ſ 0.0033520
g NULL 0.0126105
g w 0.0009648
g m 0.0014675
g r 0.0005157
g h 0.0003214
g f 0.0013106
g t 0.0018233
g e 0.0006127
g ç 0.2500000
g x 0.0039005
g a 0.0003837
g F 0.0016367
g d 0.0047915
g v 0.0011828
g n 0.0001223
g b 0.0002025
g g 0.8513559
g l 0.0006914
g o 0.0004295
g 8 0.0030722
g C 0.0002521
g S 0.0023655
8 # 0.0000032
8 9 0.0028818
8 6 0.0218750
8 u 0.0003236
8 E 0.0021362
8 Z 0.0185185
8 1 0.0005721
8 5 0.0017452
8 s 0.0000632
8 3 0.0196850
8 c 0.0001091
8 R 0.0003280
8 ¼ 0.0666667
8 y 0.0000536
8 , 0.0001204
8 k 0.0001711
8 F 0.0005456
8 d 0.0001169
8 e 0.0001286
8 a 0.0000990
8 g 0.0000558
8 ﬃ 0.0021413
8 n 0.0004211
8 2 0.0104167
8 8 0.7465438
8 o 0.0000505
8 S 0.0126158
8 ½ 0.0422535
8 T 0.0003452
8 ¾ 0.3333333
8 i 0.0000152
8 ' 0.0008489
8 NULL 0.0009700
8 7 0.0111607
8 . 0.0001009
8 r 0.0004702
8 f 0.0000437
8 t 0.0000107
C R 0.0039357
C c 0.0040367
C A 0.0041430
C 3 0.0013123
C £ 0.0148148
C s 0.0000474
C 0 0.0013504
C 5 0.0104712
C _ 0.0294118
C p 0.0011123
C P 0.0051151
C J 0.0077295
C K 0.0019724
C , 0.0003211
C y 0.0002678
C L 0.0054366
C B 0.0056455
C u 0.0005034
C € 1.0000000
C 6 0.0109375
C O 0.0050197
C # 0.0000505
C G 0.0053223
C 1 0.0017162
C q 0.0006711
C D 0.0049689
C w 0.0008576
C ſ 0.0111732
C NULL 0.0048037
C ' 0.0012733
C i 0.0000912
C T 0.0027620
C t 0.0009116
C f 0.0007427
C I 0.0004872
C . 0.0001009
C r 0.0001062
C M 0.0020693
C m 0.0003453
C h 0.0001692
C b 0.0010124
C U 0.0040928
C H 0.0047075
C 2 0.0043403
C n 0.0000679
C g 0.0015623
C a 0.0002104
C e 0.0000756
C v 0.0008871
C j 0.0011186
C W 0.0043547
C F 0.0016367
C ☞ 0.1578947
C C 0.8124527
C Q 0.0217391
C S 0.0039424
C o 0.0002148
C l 0.0002716
C 8 0.0046083
S é 0.0625000
S f 0.0005242
S t 0.0009867
S I 0.0021924
S M 0.0082773
S m 0.0003453
S . 0.0009079
S r 0.0004550
S h 0.0002537
S D 0.0008282
S ſ 0.0033520
S NULL 0.0061059
S w 0.0018760
S T 0.0013810
S ' 0.0021222
S i 0.0001520
S C 0.0047895
S S 0.7809974
S l 0.0003951
S o 0.0006822
S 8 0.0291859
S n 0.0003668
S 2 0.0078125
S b 0.0026996
S H 0.0026900
S ô 0.3333333
S e 0.0000378
S a 0.0005569
S d 0.0006077
S F 0.0021822
S W 0.0027712
S - 0.0003584
S Y 0.0084951
S k 0.0001711
S P 0.0021313
S y 0.0009105
S L 0.0057764
S , 0.0013247
S B 0.0030109
S N 0.0034496
S 4 0.0015385
S A 0.0017444
S c 0.0009455
S R 0.0019679
S 3 0.0209974
S s 0.0017062
S p 0.0010567
S 5 0.0139616
S 1 0.0040046
S E 0.0045099
S u 0.0002877
S 6 0.0078125
S 9 0.0172911
S V 0.0020000
S # 0.0000505
S G 0.0059137
S O 0.0032270
Q t 0.0000536
Q P 0.0004263
Q m 0.0000432
Q M 0.0002587
Q 7 0.0022321
Q N 0.0007666
Q ſ 0.0011173
Q NULL 0.0003654
Q 0 0.0027009
Q C 0.0002521
Q S 0.0007885
Q q 0.0020134
Q Q 0.7826087
Q o 0.0000884
Q 6 0.0015625
Q F 0.0005456
Q d 0.0000935
Q G 0.0023655
0 f 0.0006116
0 t 0.0000965
0 y 0.0004820
0 , 0.0000803
0 r 0.0000303
0 D 0.0012422
0 NULL 0.0029633
0 0 0.7170831
0 s 0.0000316
0 3 0.0039370
0 p 0.0000556
0 5 0.0139616
0 i 0.0000152
0 C 0.0002521
0 q 0.0020134
0 l 0.0002963
0 o 0.0005685
0 8 0.0030722
0 n 0.0002717
0 Λ 0.5000000
0 u 0.0001798
0 b 0.0002700
0 U 0.0013643
0 6 0.0453125
0 9 0.0432277
0 e 0.0001210
0 a 0.0001114
0 # 0.0000126
0 d 0.0000935
0 ☞ 0.0526316
0 O 0.0082467
© NULL 0.0000133
© c 0.0000727
© t 0.0000107
© O 0.0003586
© e 0.0000227
© o 0.0000126
z g 0.0003348
z 2 0.0060764
z n 0.0000136
z d 0.0000234
z v 0.0001971
z e 0.0000151
z Z 0.0740741
z 8 0.0046083
z l 0.0000247
z o 0.0000126
z NULL 0.0005249
z c 0.0002909
z R 0.0006560
z w 0.0001072
z z 0.7750511
z 3 0.0013123
z s 0.0000474
z L 0.0010194
z k 0.0003422
z t 0.0000107
z h 0.0001353
z r 0.0000303
§ J 0.0009662
§ L 0.0003398
§ § 1.0000000
§ 2 0.0008681
§ NULL 0.0000066
§ ⅝ 0.2500000
§ 9 0.0028818
§ s 0.0000632
ü ü 1.0000000
N l 0.0001481
N o 0.0003916
N C 0.0015125
N S 0.0015770
N e 0.0003026
N a 0.0003589
N F 0.0016367
N d 0.0002571
N W 0.0023753
N v 0.0002957
N n 0.0006113
N H 0.0023537
N b 0.0008099
N g 0.0003348
N M 0.0028453
N m 0.0002590
N . 0.0012105
N r 0.0001213
N h 0.0013871
N f 0.0005242
N t 0.0000644
N I 0.0009744
N T 0.0013810
N X 0.0064516
N i 0.0003191
N D 0.0016563
N NULL 0.0034417
N w 0.0005896
N E 0.0007121
N 1 0.0022883
N # 0.0000473
N O 0.0032270
N u 0.0000360
N 6 0.0015625
N B 0.0007527
N K 0.0039448
N k 0.0005133
N J 0.0067633
N L 0.0003398
N , 0.0013247
N y 0.0015531
N s 0.0002212
N p 0.0003893
N N 0.8003066
N c 0.0003273
N R 0.0013119
4 B 0.0003764
4 J 0.0009662
4 y 0.0004284
4 , 0.0003211
4 0 0.0020257
4 s 0.0002370
4 £ 0.0777778
4 3 0.0078740
4 p 0.0002225
4 5 0.0052356
4 4 0.8015385
4 A 0.0006542
4 E 0.0009494
4 ﬀ 0.0009381
4 1 0.0005721
4 # 0.0000063
4 O 0.0007171
4 M 0.0002587
4 . 0.0004035
4 r 0.0000152
4 7 0.0022321
4 h 0.0000338
4 é 0.1250000
4 ' 0.0021222
4 D 0.0012422
4 NULL 0.0011893
4 ſ 0.0044693
4 w 0.0007504
4 o 0.0000758
4 e 0.0000454
4 a 0.0002352
4 F 0.0010911
4 d 0.0005610
4 v 0.0004929
4 W 0.0015835
4 n 0.0000136
4 2 0.0095486
4 b 0.0000675
4 H 0.0013450
A ' 0.0033956
A X 0.0129032
A i 0.0005623
A T 0.0020715
A w 0.0004824
A NULL 0.0059930
A ſ 0.0033520
A r 0.0003488
A ? 0.0048544
A . 0.0013114
A M 0.0072426
A m 0.0003021
A h 0.0002876
A 7 0.0089286
A t 0.0003110
A f 0.0010922
A I 0.0024361
A a 0.0016089
A e 0.0002345
A W 0.0039588
A d 0.0003973
A F 0.0054555
A U 0.0068213
A b 0.0010124
A H 0.0026900
A 2 0.0026042
A n 0.0001630
A o 0.0009601
A l 0.0004444
A  0.0149254
A ½ 0.0140845
A ﬁ 0.0032637
A C 0.0047895
A Q 0.0072464
A S 0.0011827
A s 0.0001580
A £ 0.0037037
A 0 0.0006752
A 5 0.0052356
A p 0.0007230
A N 0.0030663
A A 0.8334060
A c 0.0006910
A k 0.0003422
A J 0.0028986
A P 0.0021313
A K 0.0078895
A Y 0.0012136
A y 0.0008569
A L 0.0030581
A , 0.0012845
A 9 0.0028818
A O 0.0010757
A G 0.0047309
A # 0.0001357
A u 0.0010068
A Λ 0.5000000
A E 0.0028483
A 1 0.0005721
+ NULL 0.0000066
è _ 0.0294118
è e 0.0000151
î L 0.0003398
î k 0.0001711
î l 0.0001481
î a 0.0000248
- B 0.0007527
- P 0.0012788
- J 0.0077295
- - 0.4512545
- , 0.0008831
- L 0.0013592
- y 0.0011247
- s 0.0012638
- 3 0.0013123
- z 0.0020450
- 5 0.0017452
- p 0.0005006
- 4 0.0107692
- N 0.0019164
- R 0.0003280
- c 0.0010546
- A 0.0010903
- E 0.0011868
- 1 0.0017162
- † 0.0769231
- V 0.0040000
- O 0.0017928
- G 0.0053223
- ‐ 0.7959479
- # 0.0005773
- u 0.0006113
- r 0.0003488
- ? 0.0048544
- . 0.0031272
- m 0.0003885
- M 0.0010347
- h 0.0003721
- 7 0.0022321
- t 0.0002789
- f 0.0003058
- ! 0.0048309
- I 0.0004872
- i 0.0002279
- ¬ 1.0000000
- T 0.0013810
- D 0.0004141
- w 0.0002680
- NULL 0.0118132
- o 0.0005432
- l 0.0002222
- C 0.0022687
- S 0.0013799
- a 0.0004456
- x 0.0004876
- e 0.0013086
- v 0.0000986
- F 0.0005456
- d 0.0005610
- U 0.0040928
- 2 0.0017361
- n 0.0006656
- g 0.0005022
Y B 0.0007527
Y Y 0.7609223
Y , 0.0002007
Y y 0.0008033
Y L 0.0013592
Y s 0.0000158
Y N 0.0022997
Y A 0.0002181
Y c 0.0001091
Y E 0.0007121
Y V 0.0040000
Y # 0.0000221
Y r 0.0000910
Y M 0.0005173
Y m 0.0003453
Y h 0.0001692
Y t 0.0000322
Y f 0.0005679
Y X 0.0064516
Y w 0.0002680
Y ſ 0.0011173
Y NULL 0.0008239
Y o 0.0000253
Y l 0.0003210
Y C 0.0002521
Y a 0.0000619
Y x 0.0004876
Y e 0.0000832
Y W 0.0059382
Y v 0.0003943
Y H 0.0013450
Y 2 0.0008681
Y n 0.0002853
K 1 0.0005721
K ﬀ 0.0009381
K E 0.0175647
K G 0.0011827
K J 0.0019324
K k 0.0005133
K Y 0.0024272
K K 0.7850099
K , 0.0000401
K L 0.0010194
K B 0.0003764
K N 0.0042162
K R 0.0114792
K A 0.0008722
K 0 0.0020257
K C 0.0017646
K S 0.0007885
K o 0.0003158
K b 0.0000675
K H 0.0010087
K U 0.0013643
K g 0.0001674
K a 0.0000990
K e 0.0000605
K W 0.0015835
K d 0.0002571
K F 0.0060011
K t 0.0000322
K ! 0.0144928
K I 0.0002436
K r 0.0001972
K m 0.0001727
K M 0.0007760
K h 0.0004229
K D 0.0012422
K w 0.0005360
K NULL 0.0011229
K ' 0.0004244
K i 0.0001672
K T 0.0006905
k i 0.0004407
k w 0.0001072
k NULL 0.0046575
k D 0.0004141
k h 0.0016916
k r 0.0007886
k . 0.0006053
k m 0.0006474
k I 0.0007308
k t 0.0004612
k f 0.0001311
k v 0.0016757
k j 0.0011186
k F 0.0010911
k d 0.0015193
k a 0.0002352
k e 0.0004160
k g 0.0007254
k b 0.0027671
k n 0.0003532
k  0.0298507
k o 0.0002779
k l 0.0010370
k C 0.0005042
k ½ 0.0140845
k ﬁ 0.0013055
k z 0.0102249
k p 0.0005006
k 3 0.0013123
k s 0.0004581
k R 0.0006560
k A 0.0008722
k c 0.0001818
k N 0.0019164
k y 0.0013925
k , 0.0004014
k k 0.8394935
k - 0.0001792
k K 0.0374753
k # 0.0000063
k V 0.0040000
k u 0.0001438
k E 0.0033230
k q 0.0006711
J 2 0.0017361
J n 0.0000272
J U 0.0081855
J H 0.0040350
J b 0.0002025
J g 0.0005580
J e 0.0000076
J a 0.0002352
J d 0.0006545
J F 0.0021822
J j 0.0089485
J W 0.0019794
J ½ 0.0563380
J C 0.0042854
J S 0.0025626
J  0.1428571
J ⅜ 0.6666667
J l 0.0008889
J o 0.0001390
J  0.0149254
J D 0.0020704
J NULL 0.0018537
J w 0.0002144
J T 0.0025893
J ¾ 0.2500000
J ' 0.0008489
J f 0.0002184
J t 0.0001287
J I 0.0031669
J m 0.0000863
J M 0.0020693
J ? 0.0097087
J . 0.0010088
J r 0.0001062
J h 0.0001692
J 6 0.0031250
J 9 0.0057637
J † 0.1538462
J # 0.0000032
J G 0.0035482
J O 0.0007171
J 1 0.0051487
J q 0.0013423
J E 0.0021362
J N 0.0007666
J 4 0.0030769
J c 0.0000727
J A 0.0019625
J R 0.0009839
J 0 0.0013504
J 3 0.0026247
J £ 0.0074074
J s 0.0000474
J J 0.8057971
J k 0.0003422
J P 0.0021313
J L 0.0027183
J , 0.0007225
J y 0.0001071
J B 0.0037636
L g 0.0001674
L n 0.0003804
L U 0.0013643
L H 0.0050437
L b 0.0014173
L d 0.0000935
L F 0.0005456
L W 0.0011876
L e 0.0002421
L x 0.0004876
L a 0.0001485
L S 0.0023655
L C 0.0037812
L 8 0.0015361
L l 0.0006173
L o 0.0001642
L NULL 0.0038802
L ſ 0.0011173
L w 0.0005896
L D 0.0041408
L T 0.0020715
L i 0.0003495
L ' 0.0008489
L I 0.0017052
L f 0.0004806
L t 0.0005470
L h 0.0008965
L M 0.0025867
L m 0.0006474
L . 0.0009079
L r 0.0001213
L u 0.0000719
L G 0.0011827
L ‐ 0.0043415
L # 0.0000820
L O 0.0010757
L V 0.0140000
L 1 0.0011442
L E 0.0035604
L c 0.0004364
L A 0.0010903
L R 0.0036077
L N 0.0003833
L 4 0.0076923
L s 0.0001896
L y 0.0003749
L , 0.0006423
L L 0.7981651
L Y 0.0012136
L K 0.0059172
L P 0.0029838
L B 0.0018818
# q 0.0053691
# 1 0.0057208
# E 0.0011868
# 6 0.0109375
# u 0.0035238
# O 0.0021513
# ‐ 0.0434153
# G 0.0005914
# # 0.9734963
# , 0.0002007
# L 0.0003398
# y 0.0009105
# k 0.0011978
# - 0.0774194
# R 0.0022958
# c 0.0014910
# A 0.0019625
# N 0.0022997
# z 0.0061350
# p 0.0029477
# s 0.0023855
# 0 0.0054018
# S 0.0021683
# C 0.0010083
# ½ 0.0704225
# ﬁ 0.0032637
# o 0.0016675
# l 0.0020494
# g 0.0013391
# b 0.0004724
# U 0.0027285
# 2 0.0008681
# n 0.0016165
# v 0.0019714
# d 0.0009349
# F 0.0016367
# a 0.0018070
# x 0.0063384
# e 0.0020045
# t 0.0007937
# f 0.0003932
# h 0.0016239
# r 0.0017289
# . 0.0062544
# m 0.0022876
# w 0.0005360
# ſ 0.0156425
# NULL 0.1657642
# D 0.0008282
# ' 0.0050934
# i 0.0020971
# ¾ 0.1666667
# T 0.0005179
à a 0.0000248
u w 0.0018760
u ſ 0.0022346
u NULL 0.0205702
u ' 0.0004244
u i 0.0022643
u t 0.0003861
u f 0.0017475
u . 0.0002018
u r 0.0009555
u M 0.0002587
u m 0.0028056
u h 0.0014378
u U 0.0709413
u H 0.0003362
u b 0.0010798
u n 0.0149564
u g 0.0007812
u x 0.0058508
u a 0.0084778
u e 0.0016641
u v 0.0007886
u d 0.0008181
u F 0.0021822
u ﬁ 0.0006527
u o 0.0032971
u l 0.0009383
u N 0.0011499
u R 0.0022958
u c 0.0005091
u 3 0.0065617
u £ 0.0074074
u s 0.0006477
u 0 0.0087779
u 5 0.0017452
u p 0.0018354
u k 0.0015400
u - 0.0007168
u L 0.0037377
u y 0.0008569
u , 0.0008831
u B 0.0003764
u u 0.8523965
u O 0.0003586
u # 0.0001136
€ o 0.0000126
€ a 0.0000124
€ 4 0.0015385
€ 6 0.0015625
€ NULL 0.0000066
Z 7 0.0044643
Z E 0.0004747
Z B 0.0011291
Z Z 0.7592593
Z L 0.0013592
Z W 0.0003959
Z s 0.0000474
Z NULL 0.0000997
Z H 0.0003362
Z U 0.0013643
Z n 0.0000272
Z N 0.0007666
