Ô t 0.0000094
Ô î 0.0006978
Ô 9 0.0013063
Ô NULL 0.0000396
Ô v 0.0000668
Ô e 0.0000044
Ô O 0.0011368
Ô a 0.0000134
Ô r 0.0000146
Ô ô 0.0012158
Ô j 0.0000847
Ô l 0.0000060
Ô Ô 0.6250000
Ô 0 0.0006500
Ô D 0.0001565
Ô 5 0.0004847
õ õ 1.0000000
õ ü 0.0163934
Õ é 0.0000162
Õ . 0.0000298
Y E 0.0000830
Y l 0.0001371
Y û 0.0006863
Y f 0.0000313
Y Y 0.8445748
Y d 0.0000087
Y D 0.0003129
Y H 0.0003660
Y ' 0.0001423
Y y 0.0003115
Y V 0.0097338
Y n 0.0000093
Y N 0.0006525
Y x 0.0002836
Y S 0.0001286
Y q 0.0001139
Y i 0.0000093
Y O 0.0009473
Y a 0.0000045
Y K 0.0048544
Y NULL 0.0002176
Y 8 0.0005513
Y e 0.0000044
 E 0.0000830
è i 0.0001813
è h 0.0001279
è â 0.0011751
è è 0.9130123
è Y 0.0029326
è ê 0.0109389
è H 0.0014641
è à 0.0003482
è # 0.0000034
è l 0.0000239
è o 0.0000905
è p 0.0000728
è r 0.0000049
è a 0.0001563
è ë 0.0744186
è e 0.0007365
è é 0.0030549
è NULL 0.0024459
è s 0.0000399
è G 0.0004186
è È 0.0198675
è 7 0.0015540
è t 0.0000094
è c 0.0002243
è u 0.0000571
è ½ 0.0465116
è d 0.0000611
è Â 0.5000000
è 0 0.0003250
è - 0.0000429
è b 0.0002424
è T 0.0009301
L 3 0.0009390
L j 0.0002542
L 0 0.0003250
L - 0.0001288
L E 0.0010790
L T 0.0009301
L g 0.0004852
L b 0.0002020
L 4 0.0005907
L u 0.0002336
L V 0.0002863
L P 0.0017025
L D 0.0010953
L d 0.0006716
L s 0.0000519
L n 0.0001113
L t 0.0003906
L J 0.0034990
L N 0.0013051
L c 0.0001234
L M 0.0016535
L a 0.0000670
L q 0.0000570
L O 0.0003789
L A 0.0007484
L ! 0.0015077
L U 0.0027604
L v 0.0004901
L e 0.0000419
L é 0.0001462
L R 0.0010917
L NULL 0.0039556
L l 0.0012463
L o 0.0000724
L W 0.0081301
L I 0.0004490
L r 0.0002091
L p 0.0002668
L Y 0.0029326
L . 0.0010125
L B 0.0022063
L ' 0.0000474
L 1 0.0011086
L # 0.0000115
L à 0.0020198
L î 0.0006978
L L 0.9423847
L C 0.0007998
L S 0.0009000
L m 0.0002838
L i 0.0001116
L , 0.0003169
L h 0.0006820
ẽ e 0.0000044
ẽ ẽ 0.6666667
ö t 0.0000047
ö i 0.0000046
Î 1 0.0009239
Î û 0.0013727
Î 6 0.0007163
Î j 0.0000847
Î I 0.0008980
Î E 0.0003320
Î - 0.0000429
Î o 0.0000060
Î 2 0.0006547
Î 8 0.0005513
Î NULL 0.0001187
Î R 0.0001365
Î K 0.0048544
Î i 0.0000279
Î m 0.0000123
Î Î 1.0000000
Î t 0.0000235
Î N 0.0006525
Î 9 0.0006532
Î n 0.0000046
Î 7 0.0007770
Ë v 0.0000668
Ë e 0.0000066
Ë â 0.0005875
Ë d 0.0000174
Ë NULL 0.0000264
Ë É 0.0020833
Ë l 0.0000060
Ë ô 0.0006079
Ë E 0.0005810
m k 0.0035088
m è 0.0001025
m S 0.0006428
m L 0.0010444
m C 0.0012997
m h 0.0012361
m , 0.0002641
m X 0.0057582
m K 0.0145631
m i 0.0005671
m Q 0.0014663
m m 0.9297514
m ï 0.0025445
m r 0.0009433
m p 0.0013097
m l 0.0008885
m I 0.0012347
m o 0.0001568
m W 0.0121951
m 1 0.0007391
m ' 0.0009958
m y 0.0024922
m . 0.0000298
m B 0.0035852
m H 0.0010981
m à 0.0000696
m # 0.0000447
m Y 0.0146628
m f 0.0023806
m ç 0.0016129
m t 0.0003341
m J 0.0003499
m c 0.0009870
m M 0.0034907
m N 0.0003263
m x 0.0001418
m n 0.0022031
m s 0.0005032
m 7 0.0007770
m e 0.0000662
m U 0.0005019
m é 0.0001462
m v 0.0031632
m 2 0.0006547
m R 0.0006823
m NULL 0.0184527
m a 0.0002724
m O 0.0009473
m z 0.0015184
m q 0.0012245
m b 0.0012926
m g 0.0011091
m T 0.0009301
m 0 0.0003250
m û 0.0006863
m 3 0.0004695
m j 0.0033887
m - 0.0003006
m d 0.0014130
m P 0.0015715
m u 0.0016769
g e 0.0000507
g v 0.0007574
g é 0.0001625
g 2 0.0019640
g R 0.0002729
g NULL 0.0079243
g a 0.0001295
g q 0.0014239
g t 0.0003765
g c 0.0005047
g 9 0.0026127
g G 0.0037673
g s 0.0004593
g n 0.0000881
g ½ 0.0232558
g D 0.0003129
g d 0.0008897
g É 0.0010417
g u 0.0001298
g g 0.9239914
g b 0.0006463
g T 0.0013021
g û 0.0034317
g j 0.0002542
g E 0.0004150
g h 0.0004262
g , 0.0001056
g K 0.0145631
g m 0.0003825
g Q 0.0004888
g i 0.0002789
g k 0.0017544
g S 0.0002571
g î 0.0013957
g L 0.0000870
g ' 0.0001185
g B 0.0002758
g . 0.0001787
g # 0.0000069
g Y 0.0029326
g f 0.0012843
g F 0.0048562
g p 0.0008731
g r 0.0002431
g l 0.0002982
g W 0.0040650
g o 0.0003377
° . 0.0000298
° # 0.0000011
° u 0.0000052
° 0 0.0003250
° ° 0.6165049
° o 0.0000543
° e 0.0000507
° , 0.0000176
° ᵉ 0.1052632
° NULL 0.0000725
° a 0.0000045
° J 0.0003499
° c 0.0001122
° k 0.0017544
° n 0.0000046
° 7 0.0007770
¥ é 0.0000162
¥ NULL 0.0000066
¥ ¥ 1.0000000
Β B 0.0002758
- 2 0.0013093
- A 0.0004677
- e 0.0003683
- ! 0.0003769
- é 0.0001950
- v 0.0005792
- NULL 0.0526684
- a 0.0002099
- q 0.0002278
- z 0.0013015
- t 0.0004706
- x 0.0009219
- c 0.0003813
- M 0.0000919
- G 0.0016743
- n 0.0002690
- s 0.0005911
- 9 0.0019595
- ½ 0.0465116
- P 0.0002619
- d 0.0005321
- ‐ 1.0000000
- u 0.0001869
- T 0.0007440
- b 0.0005655
- g 0.0005199
- 4 0.0029533
- j 0.0004236
- 3 0.0046948
- 6 0.0007163
- 0 0.0003250
- - 0.8768200
- ° 0.0121359
- , 0.0008274
- i 0.0001580
- Q 0.0019550
- m 0.0004441
- S 0.0009000
- k 0.0052632
- L 0.0006092
- . 0.0015188
- B 0.0019305
- 1 0.0009239
- ê 0.0012762
- ' 0.0006876
- à 0.0006268
- # 0.0008518
- H 0.0003660
- f 0.0003446
- ç 0.0021505
- p 0.0004487
- r 0.0004182
- l 0.0002564
- o 0.0001749
6 C 0.0001000
6 i 0.0000790
6 p 0.0000485
6 r 0.0000097
6 f 0.0003132
6 1 0.0009239
6 y 0.0005192
6 . 0.0001489
6 B 0.0002758
6 H 0.0003660
6 à 0.0002786
6 s 0.0000559
6 n 0.0000046
6 G 0.0016743
6 7 0.0023310
6 t 0.0000094
6 N 0.0003263
6 Û 1.0000000
6 a 0.0000179
6 O 0.0007579
6 é 0.0004225
6 e 0.0000529
6 2 0.0016367
6 ᵉ 0.0263158
6 NULL 0.0009164
6 6 0.8302292
6 0 0.0003250
6 3 0.0014085
6 ° 0.0072816
6 b 0.0001616
6 T 0.0001860
6 4 0.0035440
6 u 0.0000104
6 5 0.0043626
6 D 0.0003129
6 d 0.0000087
j d 0.0006891
j D 0.0001565
j ½ 0.0465116
j u 0.0000623
j 4 0.0005907
j b 0.0004847
j g 0.0006932
j Í 1.0000000
j ° 0.0024272
j E 0.0006640
j 6 0.0007163
j j 0.8908844
j 3 0.0004695
j 8 0.0016538
j NULL 0.0038962
j R 0.0001365
j e 0.0000176
j é 0.0000325
j v 0.0004232
j 2 0.0003273
j A 0.0000935
j z 0.0004338
j q 0.0017371
j a 0.0000357
j c 0.0004038
j M 0.0010105
j N 0.0001631
j x 0.0000709
j t 0.0002071
j J 0.0055983
j s 0.0017612
j n 0.0002180
j # 0.0000069
j à 0.0002089
j ' 0.0000711
j 1 0.0011086
j y 0.0018692
j . 0.0001787
j B 0.0005516
j f 0.0013469
j p 0.0008125
j r 0.0002188
j F 0.0003736
j o 0.0001085
j W 0.0081301
j l 0.0004114
j , 0.0015316
j h 0.0008525
j m 0.0003208
j i 0.0003347
j è 0.0001025
j L 0.0003481
j C 0.0004999
€ 0 0.0003250
€ G 0.0008372
€ u 0.0000052
€ e 0.0000088
€ c 0.0000112
€ r 0.0000049
€ NULL 0.0000198
d D 0.0065717
d d 0.9332752
d P 0.0026192
d V 0.0014314
d 5 0.0009695
d u 0.0005348
d g 0.0013864
d b 0.0021408
d - 0.0000429
d _ 0.5000000
d j 0.0032192
d 0 0.0038999
d R 0.0015011
d NULL 0.0204898
d 2 0.0032733
d A 0.0005613
d é 0.0006337
d e 0.0001058
d v 0.0026954
d q 0.0044710
d a 0.0003126
d N 0.0003263
d x 0.0013473
d M 0.0028477
d c 0.0034880
d J 0.0024493
d t 0.0011294
d G 0.0046044
d È 0.0066225
d s 0.0009106
d n 0.0004777
d à 0.0050146
d # 0.0000080
d . 0.0003276
d B 0.0049641
d ê 0.0003646
d 1 0.0016630
d ' 0.0008298
d y 0.0037383
d ç 0.0075269
d f 0.0021613
d r 0.0009190
d p 0.0027891
d F 0.0003736
d o 0.0004281
d ô 0.0048632
d I 0.0007857
d l 0.0036732
d â 0.0041128
d , 0.0037323
d h 0.0020886
d i 0.0004090
d Q 0.0039101
d m 0.0014558
d S 0.0033428
d L 0.0019147
d C 0.0026995
Ο NULL 0.0000066
5 C 0.0001000
5 k 0.0035088
5 S 0.0002571
5 i 0.0000232
5 m 0.0000370
5 , 0.0002993
5 l 0.0000358
5 o 0.0000302
5 F 0.0014942
5 r 0.0000146
5 p 0.0000485
5 . 0.0002085
5 1 0.0009239
5 à 0.0002786
5 # 0.0000011
5 G 0.0004186
5 s 0.0000359
5 9 0.0026127
5 7 0.0023310
5 c 0.0001234
5 M 0.0003674
5 a 0.0000759
5 q 0.0000570
5 A 0.0007484
5 2 0.0029460
5 é 0.0002275
5 e 0.0000573
5 ᵉ 0.0263158
5 R 0.0005459
5 NULL 0.0016416
5 8 0.0011025
5 j 0.0002542
5 3 0.0145540
5 0 0.0042249
5 6 0.0007163
5 - 0.0000859
5 ° 0.0121359
5 T 0.0005580
5 b 0.0002424
5 4 0.0053160
5 5 0.8410082
5 u 0.0000363
5 V 0.0011451
5 P 0.0002619
5 d 0.0001919
5 D 0.0003129
u 6 0.0007163
u 3 0.0042254
u j 0.0001694
u ° 0.0024272
u - 0.0004724
u g 0.0020103
u b 0.0009694
u ? 0.0006456
u u 0.9411148
u d 0.0012909
u G 0.0004186
u 7 0.0007770
u t 0.0005224
u M 0.0006430
u c 0.0007739
u v 0.0198481
u 8 0.0016538
u NULL 0.0391074
u ï 0.0025445
u y 0.0036345
u L 0.0012185
u S 0.0002571
u è 0.0024590
u ē 0.1111111
u m 0.0025785
u 0 0.0035749
u û 0.0782430
u E 0.0004150
u 4 0.0029533
u ü 0.1967213
u V 0.0017177
u D 0.0007824
u s 0.0004193
u n 0.0059691
u ò 0.1000000
u ù 0.0309698
u N 0.0001631
u a 0.0024833
u z 0.0006508
u U 0.0195734
u e 0.0007365
u é 0.0012837
u l 0.0006500
u I 0.0028062
u o 0.0013869
u F 0.0033620
u p 0.0008246
u r 0.0006273
u ç 0.0010753
u f 0.0006265
u ê 0.0001823
u 1 0.0001848
u ' 0.0009721
u . 0.0000893
u # 0.0000676
u à 0.0013930
u î 0.0048849
u C 0.0008998
u ■ 0.1428571
u ū 1.0000000
u i 0.0015385
u h 0.0010656
u , 0.0011971
u â 0.0023502
~ o 0.0000543
~ l 0.0000596
~ p 0.0001819
~ r 0.0000535
~ β 1.0000000
~ F 0.0007471
~ f 0.0001253
~ à 0.0001393
~ # 0.0000275
~ ' 0.0001897
~ 1 0.0001848
~ ê 0.0001823
~ . 0.0002978
~ S 0.0003857
~ è 0.0001025
~ Q 0.0014663
~ i 0.0000465
~ m 0.0000740
~ h 0.0000426
~ , 0.0000704
~ - 0.0002577
~ E 0.0005810
~ j 0.0007625
~ g 0.0002080
~ T 0.0001860
~ u 0.0000727
~ ~ 0.7428571
~ d 0.0000698
~ P 0.0002619
~ D 0.0004694
~ V 0.0005726
~ 9 0.0019595
~ n 0.0000510
~ s 0.0001438
~ c 0.0000224
~ x 0.0001418
~ N 0.0003263
~ t 0.0000471
~ O 0.0005684
~ q 0.0001424
~ a 0.0000625
~ NULL 0.0013910
~ R 0.0006823
~ é 0.0000975
~ U 0.0005019
~ e 0.0000463
~ v 0.0003119
~ A 0.0001871
~ 2 0.0003273
c t 0.0018118
c x 0.0007091
c N 0.0013051
c M 0.0015616
c c 0.9267513
c s 0.0005791
c G 0.0054416
c n 0.0003200
c 2 0.0006547
c A 0.0000935
c U 0.0010038
c v 0.0021608
c e 0.0017664
c é 0.0022099
c NULL 0.0221116
c R 0.0001365
c a 0.0002367
c q 0.0022782
c z 0.0017354
c ë 0.0139535
c T 0.0001860
c b 0.0015349
c g 0.0017330
c j 0.0029651
c 6 0.0021490
c E 0.0002490
c - 0.0005154
c V 0.0025766
c É 0.0010417
c P 0.0026192
c D 0.0003129
c d 0.0031400
c u 0.0003634
c k 0.0017544
c S 0.0010285
c è 0.0022541
c Ê 0.0645161
c C 0.0080984
c L 0.0006963
c , 0.0008098
c h 0.0010656
c i 0.0003207
c Q 0.0014663
c m 0.0008636
c F 0.0026149
c r 0.0007051
c p 0.0019766
c l 0.0010793
c o 0.0011276
c B 0.0008274
c ê 0.0018232
c ' 0.0013514
c à 0.0004875
c # 0.0000367
c H 0.0010981
c f 0.0014722
c ç 0.0177419
x A 0.0005613
x , 0.0009331
x v 0.0003787
x e 0.0000970
x NULL 0.0035402
x X 0.0767754
x a 0.0000402
x q 0.0001424
x m 0.0002591
x i 0.0000697
x z 0.0019523
x t 0.0002729
x x 0.9191604
x k 0.0017544
x S 0.0001286
x c 0.0000673
x n 0.0001484
x s 0.0004633
x y 0.0012461
x à 0.0008358
x # 0.0000092
x d 0.0000959
x u 0.0000260
x 5 0.0014542
x g 0.0003119
x r 0.0007148
x p 0.0000606
x l 0.0001312
x w 0.0072727
x o 0.0000422
x I 0.0003367
ÿ s 0.0000040
ã a 0.0000045
ã n 0.0000046
9 , 0.0002641
9 h 0.0000426
9 â 0.0017626
9 C 0.0002000
9 è 0.0004098
9 S 0.0003857
9 . 0.0001787
9 1 0.0014782
9 # 0.0000046
9 à 0.0003482
9 l 0.0000179
9 ô 0.0006079
9 F 0.0003736
9 p 0.0000243
9 a 0.0000491
9 O 0.0001895
9 2 0.0009820
9 A 0.0000935
9 e 0.0000529
9 é 0.0000650
9 R 0.0008188
9 NULL 0.0009757
9 8 0.0033076
9 n 0.0000325
9 9 0.8184193
9 7 0.0023310
9 t 0.0000141
9 J 0.0010497
9 x 0.0009219
9 N 0.0004894
9 M 0.0004593
9 5 0.0004847
9 u 0.0000104
9 V 0.0011451
9 É 0.0020833
9 d 0.0000087
9 3 0.0014085
9 0 0.0025999
9 6 0.0021490
9 E 0.0001660
9 g 0.0001386
9 4 0.0029533
Ç Q 0.0004888
Ç m 0.0000247
Ç a 0.0000089
Ç NULL 0.0000857
Ç C 0.0016997
Ç s 0.0000040
Ç G 0.0012558
Ç Ç 0.8723404
Ç N 0.0001631
Ç c 0.0000336
Ç ç 0.0005376
Ç # 0.0000023
Ç P 0.0001310
Ç ' 0.0000237
Ç o 0.0000060
Ç I 0.0001122
Ç 6 0.0014327
Ç p 0.0000243
§ s 0.0000040
§ § 0.8727273
§ 3 0.0004695
§ 6 0.0007163
§ J 0.0003499
§ # 0.0000011
§ NULL 0.0000396
§ ᵉ 0.0263158
§ 2 0.0006547
§ . 0.0000596
§ e 0.0000088
È O 0.0003789
È e 0.0000088
È NULL 0.0000923
È É 0.0031250
È â 0.0005875
È È 0.8741722
È Ê 0.0322581
È W 0.0040650
È E 0.0009960
È - 0.0000429
È L 0.0002611
È è 0.0002049
È S 0.0001286
8 S 0.0020571
8 , 0.0000176
8 h 0.0004689
8 i 0.0000418
8 m 0.0000123
8 o 0.0000302
8 à 0.0002786
8 1 0.0005543
8 . 0.0002382
8 f 0.0000940
8 N 0.0003263
8 ᶱ 0.1666667
8 t 0.0000047
8 7 0.0038850
8 9 0.0045722
8 s 0.0002117
8 n 0.0000093
8 8 0.8616318
8 R 0.0001365
8 NULL 0.0009032
8 e 0.0000331
8 2 0.0045827
8 4 0.0011813
8 g 0.0000347
8 ° 0.0097087
8 - 0.0017180
8 E 0.0000830
8 0 0.0016250
8 6 0.0050143
8 3 0.0051643
8 P 0.0007858
8 d 0.0000785
8 5 0.0024237
8 u 0.0000156
A â 0.0082256
A , 0.0005105
A i 0.0000883
A Q 0.0009775
A S 0.0015428
A L 0.0008703
A C 0.0012997
A H 0.0014641
A # 0.0000367
A à 0.0018805
A ' 0.0000711
A ê 0.0005469
A 1 0.0001848
A . 0.0003871
A f 0.0005951
A p 0.0003395
A r 0.0000632
A F 0.0022413
A I 0.0001122
A W 0.0121951
A ô 0.0012158
A o 0.0002291
A l 0.0000835
A R 0.0015011
A NULL 0.0051159
A v 0.0000446
A U 0.0012547
A é 0.0003900
A e 0.0000882
A A 0.9347989
A 2 0.0026187
A O 0.0015157
A a 0.0006655
A M 0.0013779
A N 0.0009788
A t 0.0000988
A n 0.0000325
A s 0.0000160
A G 0.0025115
A D 0.0001565
A d 0.0001396
A P 0.0005238
A É 0.0010417
A 5 0.0004847
A u 0.0001661
A ~ 0.0285714
A 4 0.0053160
A T 0.0011161
A - 0.0001718
A E 0.0000830
A 6 0.0007163
A 3 0.0018779
A w 0.0036364
ë ê 0.0012762
ë ī 0.5000000
ë # 0.0000011
ë 4 0.0005907
ë 6 0.0007163
ë o 0.0000362
ë E 0.0001660
ë I 0.0002245
ë , 0.0000176
ë é 0.0005200
ë e 0.0001698
ë NULL 0.0001912
ë 8 0.0011025
ë ë 0.6418605
ë è 0.0008197
ë c 0.0000112
ë S 0.0001286
ë s 0.0000280
q i 0.0000139
q m 0.0001234
q Q 0.0097752
q , 0.0001937
q h 0.0002984
q C 0.0002000
q f 0.0009710
q 1 0.0001848
q y 0.0003115
q ' 0.0005690
q à 0.0006965
q # 0.0000057
q l 0.0007036
q o 0.0017668
q p 0.0010914
q r 0.0001459
q a 0.0006030
q q 0.9270397
q A 0.0000935
q 2 0.0006547
q e 0.0001345
q v 0.0000891
q NULL 0.0075617
q s 0.0002476
q n 0.0000974
q G 0.0004186
q J 0.0017495
q t 0.0001412
q N 0.0001631
q c 0.0010991
q u 0.0000623
q 5 0.0004847
q d 0.0009507
q P 0.0002619
q j 0.0016943
q - 0.0000429
q g 0.0010051
r j 0.0032192
r 3 0.0023474
r E 0.0016600
r - 0.0012455
r b 0.0016157
r g 0.0014904
r T 0.0039062
r u 0.0007009
r V 0.0037217
r d 0.0015264
r D 0.0007824
r P 0.0007858
r É 0.0020833
r 9 0.0026127
r n 0.0028570
r G 0.0004186
r s 0.0015176
r ù 0.0032600
r t 0.0025365
r M 0.0003674
r c 0.0016150
r x 0.0061693
r a 0.0002814
r ë 0.0046512
r z 0.0073753
r q 0.0030471
r v 0.0027622
r ! 0.0007539
r U 0.0002509
r é 0.0005525
r e 0.0003198
r 2 0.0052373
r A 0.0000935
r NULL 0.0507763
r R 0.0102347
r l 0.0029219
r I 0.0004490
r o 0.0003497
r F 0.0048562
r r 0.9437545
r p 0.0009701
r Y 0.0029326
r ç 0.0010753
r f 0.0025998
r 1 0.0011086
r ' 0.0060458
r y 0.0018692
r . 0.0003574
r B 0.0005516
r H 0.0003660
r # 0.0000940
r à 0.0011144
r î 0.0006978
r L 0.0021758
r C 0.0014997
r S 0.0002571
r ē 0.1111111
r i 0.0007112
r m 0.0050089
r h 0.0012361
r , 0.0019013
F S 0.0001286
F L 0.0000870
F C 0.0001000
F , 0.0000528
F h 0.0002131
F i 0.0000232
F Q 0.0004888
F m 0.0000740
F F 0.8864400
F r 0.0001070
F p 0.0000364
F l 0.0003518
F o 0.0000302
F I 0.0003367
F . 0.0000298
F ' 0.0007350
F H 0.0003660
F f 0.0004385
F J 0.0010497
F t 0.0000047
F N 0.0003263
F M 0.0001837
F s 0.0000319
F n 0.0000093
F 9 0.0006532
F A 0.0002806
F U 0.0005019
F v 0.0000446
F é 0.0000487
F NULL 0.0014372
F ᵉ 0.0263158
F R 0.0009552
F 8 0.0022051
F a 0.0000223
F T 0.0011161
F b 0.0004443
F 0 0.0009750
F E 0.0010790
F V 0.0022903
F É 0.0010417
F P 0.0030120
F d 0.0001308
F ? 0.0006456
F u 0.0000363
W m 0.0000123
W h 0.0001705
W f 0.0000940
W . 0.0000298
W ' 0.0001185
W W 0.8739837
W I 0.0003367
W l 0.0000537
W p 0.0000121
W O 0.0001895
W a 0.0000268
W NULL 0.0010614
W R 0.0002729
W A 0.0000935
W 2 0.0003273
W U 0.0002509
W e 0.0000022
W v 0.0000446
W 7 0.0007770
W s 0.0000120
W 9 0.0019595
W x 0.0001418
W N 0.0004894
W M 0.0002756
W J 0.0003499
W u 0.0000260
W 5 0.0004847
W d 0.0000349
W V 0.0002863
W - 0.0000429
W E 0.0000830
W 3 0.0004695
W j 0.0000847
W 0 0.0013000
W 6 0.0021490
W 4 0.0011813
W g 0.0001040
W b 0.0002424
H S 0.0002571
H L 0.0002611
H C 0.0001000
H , 0.0000176
H h 0.0004689
H i 0.0000651
H m 0.0000617
H K 0.0145631
H p 0.0000728
H r 0.0000195
H F 0.0011207
H o 0.0000181
H I 0.0025817
H l 0.0003936
H # 0.0000023
H H 0.9037335
H B 0.0019305
H . 0.0000298
H 1 0.0012934
H ' 0.0000474
H f 0.0006265
H x 0.0002127
H N 0.0014682
H c 0.0000673
H M 0.0016535
H t 0.0000894
H 7 0.0007770
H n 0.0001345
H G 0.0004186
H s 0.0000559
H R 0.0064138
H NULL 0.0013383
H 8 0.0005513
H 2 0.0016367
H v 0.0000891
H U 0.0002509
H é 0.0000487
H e 0.0000088
H q 0.0001424
H O 0.0001895
H a 0.0000581
H 4 0.0017720
H T 0.0003720
H b 0.0002020
H E 0.0009960
H - 0.0000429
H ° 0.0024272
H j 0.0000847
H 3 0.0009390
H É 0.0031250
H d 0.0000698
H D 0.0010953
H P 0.0007858
H V 0.0008589
H u 0.0001661
# Y 0.0029326
# ç 0.0021505
# f 0.0004072
# H 0.0010981
# # 0.9853365
# ' 0.0114989
# 1 0.0009239
# y 0.0008307
# . 0.0020549
# I 0.0012347
# ô 0.0006079
# o 0.0004764
# l 0.0002982
# r 0.0006856
# p 0.0004608
# F 0.0007471
# Q 0.0019550
# i 0.0006740
# m 0.0005428
# h 0.0005115
# L 0.0000870
# C 0.0001000
# î 0.0006978
# S 0.0011571
# è 0.0010246
# u 0.0004309
# 5 0.0029084
# d 0.0000959
# É 0.0010417
# V 0.0011451
# ° 0.0072816
# E 0.0002490
# - 0.0130567
# 6 0.0014327
# 0 0.0042249
# j 0.0000847
# 4 0.0023627
# b 0.0006867
# g 0.0008665
# T 0.0001860
# z 0.0015184
# O 0.0011368
# q 0.0002563
# a 0.0004243
# ᵉ 0.0263158
# NULL 0.1417279
# R 0.0008188
# e 0.0003286
# U 0.0012547
# é 0.0011700
# v 0.0006237
# A 0.0010290
# 2 0.0003273
# 7 0.0062160
# 9 0.0013063
# n 0.0004638
# s 0.0005791
# c 0.0004486
# N 0.0011419
# x 0.0010637
# t 0.0005035
ê t 0.0000047
ê è 0.0034836
ê c 0.0000224
ê s 0.0000120
ê n 0.0000046
ê e 0.0001345
ê é 0.0013162
ê NULL 0.0016745
ê a 0.0000983
ê i 0.0000465
ê ë 0.0279070
ê F 0.0003736
ê r 0.0000146
ê û 0.0020590
ê o 0.0001206
ê E 0.0001660
ê ô 0.0018237
ê I 0.0001122
ê ' 0.0001423
ê ê 0.8902461
ê # 0.0000011
ê d 0.0000087
ê u 0.0000052
' s 0.0004753
' n 0.0002505
' 9 0.0039190
' 7 0.0015540
' J 0.0003499
' t 0.0003012
' ù 0.0024450
' N 0.0017945
' c 0.0006056
' M 0.0007349
' a 0.0003126
' q 0.0007974
' z 0.0010846
' 2 0.0036007
' e 0.0007895
' U 0.0002509
' é 0.0004387
' v 0.0013811
' ᵉ 0.0526316
' NULL 0.0183472
' 8 0.0022051
' j 0.0002542
' û 0.0006863
' 0 0.0016250
' - 0.0011596
' E 0.0003320
' ° 0.0242718
' T 0.0029762
' b 0.0003635
' g 0.0005546
' 4 0.0053160
' ? 0.0025823
' u 0.0002232
' P 0.0039288
' d 0.0006193
' î 0.0006978
' L 0.0004352
' C 0.0004999
' S 0.0006428
' m 0.0007402
' i 0.0001534
' h 0.0002984
' , 0.0007922
' l 0.0006142
' o 0.0005789
' I 0.0011225
' F 0.0033620
' p 0.0007397
' r 0.0009142
' f 0.0007204
' B 0.0002758
' . 0.0011614
' y 0.0003115
' ' 0.9165916
' 1 0.0031412
' # 0.0003175
' à 0.0009054
f N 0.0013051
f ﬁ 1.0000000
f ù 0.0008150
f J 0.0027992
f s 0.0120730
f n 0.0002597
f 2 0.0003273
f U 0.0007528
f ! 0.0003769
f e 0.0001477
f é 0.0004712
f z 0.0002169
f O 0.0007579
f a 0.0001251
f T 0.0013021
f E 0.0008300
f 0 0.0016250
f û 0.0013727
f É 0.0010417
f D 0.0001565
f ñ 1.0000000
f V 0.0014314
f C 0.0008998
f X 0.0095969
f â 0.0011751
f h 0.0014492
f , 0.0006162
f i 0.0003393
f p 0.0015643
f r 0.0006613
f F 0.0082182
f o 0.0001206
f ô 0.0024316
f I 0.0013470
f l 0.0009183
f # 0.0000160
f à 0.0001393
f ä 0.5000000
f . 0.0000893
f ê 0.0003646
f ' 0.0013988
f 1 0.0031412
f f 0.9126703
f ç 0.0005376
f x 0.0002127
f M 0.0020209
f c 0.0006617
f t 0.0009600
f G 0.0029301
f 9 0.0006532
f R 0.0020469
f NULL 0.0096054
f A 0.0000935
f v 0.0010024
f q 0.0013100
f b 0.0020196
f g 0.0011438
f j 0.0025415
f 3 0.0009390
f 6 0.0035817
f P 0.0031430
f d 0.0010816
f u 0.0001194
f 5 0.0014542
f ? 0.0045190
f è 0.0008197
f S 0.0002571
f L 0.0012185
f m 0.0007649
f B 0.0008274
f y 0.0002077
ç a 0.0000313
ç m 0.0000370
ç q 0.0002563
ç Q 0.0004888
ç z 0.0006508
ç , 0.0000176
ç v 0.0001337
ç é 0.0000975
ç e 0.0001588
ç NULL 0.0005867
ç s 0.0000280
ç t 0.0000847
ç c 0.0007402
ç k 0.0017544
ç ç 0.9043011
ç f 0.0001566
ç 5 0.0004847
ç . 0.0001489
ç d 0.0000436
ç l 0.0000298
ç o 0.0000844
ç E 0.0000830
ç b 0.0000404
ç g 0.0003813
ç p 0.0001091
ç r 0.0000486
£ 8 0.0005513
£ NULL 0.0001846
£ v 0.0000668
£ é 0.0000650
£ e 0.0000397
£ 2 0.0013093
£ q 0.0000570
£ a 0.0000089
£ c 0.0000336
£ x 0.0003546
£ t 0.0000094
£ 7 0.0007770
£ n 0.0000046
£ s 0.0000359
£ d 0.0000436
£ ½ 0.0232558
£ u 0.0000104
£ b 0.0000404
£ E 0.0002490
£ h 0.0002557
£ , 0.0000880
£ m 0.0000123
£ i 0.0000046
£ £ 0.6666667
£ L 0.0000870
£ à 0.0002089
£ 1 0.0005543
£ f 0.0001566
£ r 0.0000243
£ I 0.0002245
£ o 0.0000121
£ l 0.0000119
Ì ù 0.0008150
4 S 0.0002571
4 C 0.0002000
4 L 0.0000870
4 , 0.0000704
4 i 0.0000093
4 m 0.0000123
4 l 0.0001014
4 1 0.0134885
4 . 0.0000596
4 B 0.0002758
4 à 0.0013930
4 # 0.0000011
4 t 0.0000847
4 c 0.0000224
4 N 0.0006525
4 9 0.0013063
4 s 0.0000359
4 n 0.0000510
4 7 0.0007770
4 e 0.0000419
4 é 0.0001625
4 A 0.0008419
4 2 0.0022913
4 8 0.0011025
4 NULL 0.0017273
4 a 0.0001072
4 q 0.0004272
4 ¼ 1.0000000
4 T 0.0009301
4 4 0.8393385
4 û 0.0006863
4 0 0.0003250
4 3 0.0018779
4 ° 0.0194175
4 E 0.0001660
4 - 0.0000429
4 ¾ 0.6666667
4 ½ 0.0930233
4 D 0.0003129
4 P 0.0003929
4 d 0.0003140
4 5 0.0009695
4 u 0.0000156
Ü à 0.0000696
Ü Ü 1.0000000
Ü m 0.0000123
® c 0.0000336
® s 0.0000240
® NULL 0.0000396
® 8 0.0005513
® h 0.0000852
® e 0.0000110
® a 0.0000045
® r 0.0000049
® ® 1.0000000
® ° 0.0024272
® 6 0.0007163
® 0 0.0006500
® # 0.0000011
® . 0.0000298
® B 0.0002758
® Z 0.0075758
® 1 0.0001848
Ι NULL 0.0000066
_ S 0.0001286
_ s 0.0000120
_ Ç 0.0425532
_ L 0.0001741
_ A 0.0001871
_ e 0.0000176
_ R 0.0001365
_ NULL 0.0003099
_ a 0.0000134
_ T 0.0001860
_ F 0.0003736
_ _ 0.5000000
_ - 0.0001718
_ . 0.0001489
_ y 0.0001038
_ 1 0.0001848
_ # 0.0000321
_ P 0.0003929
E P 0.0006548
E D 0.0017212
E d 0.0001570
E É 0.0760417
E u 0.0001817
E 5 0.0004847
E 4 0.0011813
E b 0.0000404
E g 0.0003813
E T 0.0001860
E ° 0.0024272
E E 0.9242198
E - 0.0000859
E 0 0.0006500
E j 0.0006777
E 8 0.0005513
E NULL 0.0056696
E R 0.0002729
E U 0.0012547
E e 0.0005447
E v 0.0002228
E A 0.0018709
E 2 0.0003273
E O 0.0022736
E q 0.0000285
E a 0.0003662
E c 0.0002131
E N 0.0006525
E t 0.0001741
E J 0.0003499
E n 0.0001206
E s 0.0002556
E È 0.0463576
E H 0.0014641
E # 0.0000344
E 1 0.0007391
E ' 0.0000711
E y 0.0002077
E . 0.0002085
E B 0.0013789
E Y 0.0058651
E f 0.0002193
E p 0.0000485
E r 0.0001507
E F 0.0007471
E I 0.0016837
E o 0.0003015
E l 0.0000477
E , 0.0005105
E m 0.0000370
E i 0.0000790
E S 0.0005143
E C 0.0002000
E L 0.0000870
E î 0.0013957
E Ê 0.0645161
û ü 0.0327869
û u 0.0002855
û 5 0.0004847
û D 0.0003129
û d 0.0001221
û 6 0.0007163
û 0 0.0013000
û û 0.8380233
û g 0.0000347
û a 0.0000313
û e 0.0000441
û é 0.0000487
û NULL 0.0003164
û ᵉ 0.0263158
û n 0.0000788
û s 0.0000759
û t 0.0000094
û ù 0.0032600
û c 0.0000449
û f 0.0000940
û ê 0.0003646
û # 0.0000011
û à 0.0005572
û l 0.0000358
û o 0.0000844
û ô 0.0012158
û r 0.0000292
û m 0.0000493
û i 0.0001209
û h 0.0000852
û , 0.0000176
û â 0.0017626
û C 0.0002000
w i 0.0000186
w m 0.0000740
w a 0.0000670
w NULL 0.0006329
w R 0.0002729
w é 0.0000487
w v 0.0000446
w e 0.0000992
w , 0.0000176
w s 0.0000519
w n 0.0000649
w c 0.0000673
w S 0.0001286
w x 0.0001418
w t 0.0000141
w u 0.0002388
w P 0.0001310
w d 0.0000785
w . 0.0000893
w B 0.0008274
w o 0.0001387
w E 0.0000830
w j 0.0000847
w w 0.9090909
w r 0.0000195
w p 0.0000121
w g 0.0000693
w b 0.0000808
w F 0.0003736
D O 0.0013263
D a 0.0001072
D R 0.0004094
D NULL 0.0022547
D 8 0.0011025
D A 0.0003742
D v 0.0000668
D U 0.0020075
D e 0.0000198
D G 0.0016743
D s 0.0000599
D n 0.0003479
D 9 0.0026127
D N 0.0008157
D c 0.0001122
D M 0.0011023
D J 0.0010497
D t 0.0000141
D u 0.0000208
D ~ 0.0285714
D P 0.0011786
D D 0.9328744
D d 0.0004187
D E 0.0004150
D ° 0.0048544
D 3 0.0004695
D 0 0.0016250
D T 0.0018601
D b 0.0001616
D g 0.0004159
D i 0.0000325
D m 0.0002221
D K 0.0048544
D X 0.0019194
D h 0.0000852
D , 0.0001937
D L 0.0007833
D S 0.0014142
D f 0.0002193
D # 0.0000046
D H 0.0018302
D B 0.0033094
D . 0.0002382
D 1 0.0012934
D o 0.0000905
D ô 0.0006079
D I 0.0003367
D l 0.0000775
D r 0.0000778
D p 0.0004487
D F 0.0007471
Η NULL 0.0000066
ü NULL 0.0000066
ü d 0.0000174
ü Z 0.0075758
ü i 0.0000511
ü u 0.0000363
ü ü 0.5081967
ü f 0.0000626
ü o 0.0000181
ü l 0.0000358
ü n 0.0000093
ü û 0.0013727
Ñ U 0.0005019
· g 0.0000347
· x 0.0000709
· s 0.0000280
· 3 0.0004695
· 0 0.0006500
· 6 0.0007163
· - 0.0001718
· B 0.0002758
· , 0.0000176
· V 0.0002863
· 1 0.0003695
· e 0.0000044
· NULL 0.0000725
· # 0.0000011
´ 5 0.0004847
n d 0.0008897
n D 0.0025035
n P 0.0018334
n 5 0.0014542
n u 0.0059342
n ? 0.0006456
n b 0.0015349
n g 0.0006932
n - 0.0012885
n E 0.0002490
n ° 0.0024272
n j 0.0003389
n 3 0.0009390
n û 0.0034317
n R 0.0019105
n NULL 0.0481261
n 8 0.0016538
n 2 0.0026187
n A 0.0001871
n e 0.0003087
n v 0.0014034
n é 0.0005200
n U 0.0022585
n q 0.0013385
n O 0.0005684
n ë 0.0046512
n z 0.0032538
n a 0.0009603
n N 0.0094617
n x 0.0021983
n c 0.0013683
n M 0.0002756
n ù 0.0073350
n t 0.0006494
n s 0.0013459
n G 0.0012558
n n 0.9404480
n 9 0.0019595
n à 0.0017412
n # 0.0001135
n H 0.0003660
n . 0.0001489
n B 0.0033094
n y 0.0028037
n ' 0.0003793
n 1 0.0033259
n f 0.0018481
n p 0.0022313
n r 0.0033892
n o 0.0004040
n ô 0.0006079
n I 0.0028062
n l 0.0015683
n â 0.0005875
n , 0.0017253
n h 0.0034952
n m 0.0082783
n i 0.0012829
n è 0.0011270
n k 0.0035088
n L 0.0005222
n î 0.0104676
s î 0.0041870
s C 0.0009998
s k 0.0087719
s Q 0.0034213
s i 0.0005531
s , 0.0078166
s h 0.0011082
s â 0.0005875
s X 0.0019194
s l 0.0018843
s o 0.0002714
s W 0.0040650
s F 0.0044826
s r 0.0015366
s p 0.0012127
s f 0.0065153
s 1 0.0016630
s ' 0.0004979
s . 0.0007147
s à 0.0052236
s # 0.0000516
s s 0.9280451
s n 0.0014563
s J 0.0038488
s N 0.0022838
s a 0.0005940
s z 0.0123644
s ! 0.0003769
s e 0.0008711
s é 0.0012025
s 2 0.0019640
s 0 0.0016250
s V 0.0008589
s L 0.0002611
s S 0.0140139
s è 0.0003074
s m 0.0014311
s ï 0.0050891
s Y 0.0058651
s y 0.0022845
s 9 0.0013063
s 7 0.0007770
s t 0.0035671
s M 0.0012861
s c 0.0024562
s x 0.0122678
s ë 0.0186047
s q 0.0017941
s v 0.0016484
s A 0.0004677
s 8 0.0082690
s NULL 0.0503346
s R 0.0010917
s 6 0.0071633
s j 0.0005930
s 3 0.0037559
s ° 0.0024272
s - 0.0009449
s b 0.0009694
s g 0.0042631
s ? 0.0006456
s u 0.0006074
s 5 0.0048473
s ś 1.0000000
s d 0.0023027
s P 0.0014405
í i 0.0000093
! H 0.0007321
! . 0.0003276
! W 0.0040650
! I 0.0002245
! l 0.0006500
! p 0.0001455
! r 0.0000097
! i 0.0000046
! Q 0.0004888
! , 0.0006338
! î 0.0006978
! S 0.0006428
! u 0.0000052
! ? 0.0019367
! V 0.0002863
! E 0.0001660
! 4 0.0011813
! b 0.0000404
! q 0.0001139
! a 0.0000223
! NULL 0.0008966
! R 0.0001365
! A 0.0001871
! v 0.0001114
! ! 0.8300038
! e 0.0000353
! é 0.0000162
! 7 0.0007770
! n 0.0000696
! s 0.0000679
! N 0.0001631
! M 0.0002756
! c 0.0000336
! t 0.0000612
U O 0.0017052
U z 0.0002169
U a 0.0000670
U R 0.0023199
U NULL 0.0026107
U 8 0.0011025
U 2 0.0006547
U A 0.0016838
U U 0.8855709
U ! 0.0003769
U e 0.0000287
U é 0.0000975
U n 0.0000649
U s 0.0000120
U G 0.0025115
U 9 0.0032658
U M 0.0011942
U ᶱ 0.1666667
U t 0.0004000
U u 0.0005711
U 5 0.0009695
U É 0.0020833
U D 0.0010953
U P 0.0017025
U d 0.0000872
U V 0.0014314
U E 0.0006640
U 3 0.0023474
U j 0.0005083
U 6 0.0007163
U 0 0.0025999
U 4 0.0005907
U T 0.0003720
U b 0.0000404
U m 0.0000247
U Q 0.0014663
U i 0.0002882
U h 0.0002984
U , 0.0001056
U C 0.0006999
U L 0.0022628
U S 0.0011571
U Y 0.0029326
U # 0.0000103
U à 0.0002089
U H 0.0021962
U B 0.0013789
U . 0.0000298
U ' 0.0000711
U y 0.0002077
U 1 0.0022173
U o 0.0001749
U I 0.0035919
U l 0.0004651
U r 0.0000049
U F 0.0003736
é Z 0.0075758
é ' 0.0004505
é ê 0.0142206
é . 0.0000298
é à 0.0006965
é # 0.0000516
é ç 0.0026882
é f 0.0000626
é F 0.0018678
é p 0.0001455
é r 0.0001799
é l 0.0001729
é ô 0.0012158
é o 0.0006573
é , 0.0005105
é h 0.0001705
é â 0.0029377
é ē 0.2222222
é i 0.0004927
é m 0.0002097
é è 0.0100410
é S 0.0007714
é V 0.0011451
é d 0.0003227
é É 0.0052083
é u 0.0003634
é g 0.0004852
é b 0.0000404
é T 0.0007440
é 4 0.0011813
é 6 0.0064470
é 0 0.0016250
é j 0.0004236
é - 0.0004724
é E 0.0003320
é e 0.0030145
é v 0.0001782
é é 0.9116524
é A 0.0000935
é R 0.0001365
é NULL 0.0158157
é a 0.0005940
é O 0.0017052
é ë 0.0046512
é q 0.0004272
é t 0.0001741
é c 0.0011888
é s 0.0002077
é n 0.0002226
z u 0.0000260
z y 0.0003115
z Z 0.0075758
z l 0.0000119
z j 0.0002542
z E 0.0000830
z o 0.0000121
z - 0.0000859
z g 0.0002080
z r 0.0001459
z a 0.0000045
z m 0.0000617
z i 0.0000418
z q 0.0000285
z z 0.9091106
z 2 0.0009820
z , 0.0001232
z v 0.0001114
z é 0.0000162
z X 0.0038388
z NULL 0.0013449
z s 0.0000759
z n 0.0000093
z J 0.0003499
z t 0.0000800
z x 0.0004964
z c 0.0000561
z M 0.0000919
O ô 0.0060790
O o 0.0010372
O I 0.0002245
O l 0.0000239
O r 0.0000292
O f 0.0002506
O # 0.0000195
O B 0.0005516
O . 0.0002085
O y 0.0002077
O 1 0.0005543
O ' 0.0000474
O L 0.0002611
O C 0.0020996
O è 0.0001025
O S 0.0005143
O m 0.0000123
O i 0.0001069
O Q 0.0024438
O , 0.0000352
O - 0.0000429
O E 0.0007470
O ° 0.0048544
O 3 0.0004695
O 6 0.0050143
O 0 0.0204745
O T 0.0009301
O b 0.0002020
O u 0.0000623
O D 0.0015647
O P 0.0001310
O d 0.0003227
O V 0.0005726
O n 0.0000510
O G 0.0033487
O s 0.0000080
O 9 0.0013063
O N 0.0001631
O x 0.0000709
O M 0.0000919
O c 0.0001794
O t 0.0000282
O q 0.0000570
O O 0.9041304
O a 0.0000715
O R 0.0002729
O NULL 0.0035666
O 2 0.0013093
O A 0.0008419
O e 0.0000706
O é 0.0004225
O U 0.0050188
ï u 0.0000104
ï ½ 0.0232558
ï d 0.0000436
ï P 0.0003929
ï w 0.0036364
ï 0 0.0009750
ï û 0.0013727
ï - 0.0000859
ï T 0.0001860
ï b 0.0001212
ï g 0.0000347
ï 4 0.0005907
ï q 0.0000854
ï z 0.0004338
ï e 0.0000066
ï ! 0.0003769
ï R 0.0005459
ï NULL 0.0007779
ï n 0.0001345
ï s 0.0001438
ï 9 0.0006532
ï 7 0.0015540
ï t 0.0000329
ï J 0.0006998
ï x 0.0002836
ï c 0.0000561
ï f 0.0005951
ï B 0.0008274
ï . 0.0000893
ï 1 0.0001848
ï ' 0.0002134
ï y 0.0002077
ï # 0.0000011
ï à 0.0000696
ï H 0.0007321
ï l 0.0003101
ï I 0.0006735
ï F 0.0011207
ï ï 0.8524173
ï r 0.0001264
ï K 0.0048544
ï m 0.0000617
ï i 0.0002417
ï h 0.0003410
ï î 0.0027913
ï L 0.0000870
ï S 0.0001286
β G 0.0004186
β 9 0.0006532
β 6 0.0007163
ō ō 0.5000000
À À 1.0000000
À l 0.0000060
À 5 0.0004847
À # 0.0000011
À à 0.0004179
À d 0.0000174
À . 0.0000298
À B 0.0002758
À Z 0.0075758
À s 0.0000040
À x 0.0000709
À i 0.0000093
À K 0.0048544
À NULL 0.0000461
À â 0.0005875
À A 0.0019645
À e 0.0000066
y x 0.0001418
y c 0.0002019
y t 0.0000894
y 7 0.0007770
y n 0.0001670
y s 0.0001957
y 9 0.0032658
y NULL 0.0025645
y 2 0.0003273
y é 0.0000162
y v 0.0018935
y e 0.0000640
y q 0.0002278
y z 0.0002169
y a 0.0000670
y T 0.0009301
y g 0.0005546
y b 0.0000808
y E 0.0001660
y ° 0.0048544
y w 0.0036364
y 0 0.0003250
y d 0.0001221
y V 0.0014314
y 5 0.0004847
y u 0.0002232
y γ 1.0000000
y L 0.0004352
y , 0.0009683
y m 0.0001357
y i 0.0000744
y r 0.0001994
y p 0.0001576
y W 0.0081301
y o 0.0000302
y l 0.0000656
y à 0.0002786
y # 0.0000069
y H 0.0014641
y . 0.0000893
y ' 0.0000474
y 1 0.0001848
y y 0.9213915
y f 0.0000313
y Y 0.0146628
B R 0.0066867
B NULL 0.0020569
B í 0.2500000
B 8 0.0005513
B 2 0.0013093
B A 0.0004677
B é 0.0000325
B U 0.0012547
B v 0.0002673
B e 0.0000551
B a 0.0000447
B M 0.0014698
B c 0.0002355
B t 0.0000847
B G 0.0004186
B n 0.0001809
B s 0.0002276
B 9 0.0013063
B d 0.0002704
B D 0.0029729
B P 0.0017025
B V 0.0002863
B 5 0.0004847
B u 0.0001194
B 4 0.0005907
B b 0.0006867
B E 0.0040671
B j 0.0005930
B 6 0.0021490
B X 0.0019194
B , 0.0001408
B h 0.0002984
B i 0.0000511
B m 0.0001480
B S 0.0010285
B C 0.0001000
B L 0.0004352
B # 0.0000160
B H 0.0084187
B . 0.0000298
B B 0.8924435
B y 0.0001038
B 1 0.0022173
B f 0.0000940
B Y 0.0029326
B r 0.0000827
B p 0.0002547
B F 0.0007471
B o 0.0000603
B I 0.0006735
B l 0.0001014
B Ô 0.1250000
ú u 0.0000156
ú a 0.0000045
¢ V 0.0002863
S f 0.0004385
S . 0.0003574
S B 0.0030336
S ' 0.0000948
S ê 0.0007293
S Z 0.0151515
S # 0.0000172
S à 0.0006268
S H 0.0014641
S l 0.0002564
S o 0.0000844
S ô 0.0012158
S I 0.0003367
S F 0.0003736
S p 0.0001819
S r 0.0001070
S m 0.0001851
S i 0.0000697
S h 0.0000426
S , 0.0003345
S â 0.0017626
S C 0.0010998
S L 0.0006963
S S 0.9120597
S k 0.0035088
S u 0.0001454
S 5 0.0063015
S V 0.0020040
S É 0.0052083
S P 0.0011786
S D 0.0020341
S d 0.0002878
S j 0.0007625
S 3 0.0140845
S 6 0.0028653
S 0 0.0006500
S E 0.0015770
S - 0.0000429
S T 0.0013021
S g 0.0004159
S 4 0.0023627
S a 0.0000670
S O 0.0001895
S A 0.0007484
S 2 0.0045827
S é 0.0001950
S U 0.0015056
S e 0.0001632
S ! 0.0003769
S NULL 0.0046808
S R 0.0009552
S 8 0.0314223
S § 0.0363636
S G 0.0008372
S s 0.0008706
S n 0.0001067
S 9 0.0032658
S 7 0.0007770
S t 0.0002400
S x 0.0004255
S N 0.0026101
S M 0.0009186
S c 0.0002804
Á c 0.0000112
Á s 0.0000040
± M 0.0000919
 - 0.0015891
 Z 0.0075758
 y 0.0002077
 T 0.0001860
ı NULL 0.0000066
ı X 0.0019194
ı i 0.0000093
b m 0.0003825
b i 0.0001627
b h 0.0049018
b , 0.0001232
b S 0.0011571
b • 0.1250000
b ç 0.0005376
b f 0.0004699
b ê 0.0001823
b ' 0.0002608
b B 0.0030336
b . 0.0000893
b # 0.0000115
b à 0.0000696
b l 0.0001908
b o 0.0004945
b ô 0.0060790
b r 0.0001702
b p 0.0007276
b a 0.0001340
b q 0.0002563
b é 0.0001462
b v 0.0005569
b e 0.0000331
b NULL 0.0071464
b s 0.0002875
b n 0.0001113
b J 0.0003499
b ù 0.0008150
b t 0.0000988
b c 0.0004823
b M 0.0003674
b x 0.0006382
b u 0.0001402
b 5 0.0029084
b V 0.0011451
b ½ 0.0232558
b d 0.0004187
b P 0.0011786
b É 0.0020833
b 6 0.0014327
b û 0.0006863
b 0 0.0006500
b w 0.0072727
b E 0.0005810
b - 0.0000859
b b 0.9213960
b g 0.0010051
b 4 0.0011813
Í n 0.0000093
Í s 0.0000479
Í i 0.0000325
Í É 0.0010417
Í NULL 0.0000066
Í r 0.0000097
♦ é 0.0000162
♦ NULL 0.0000396
♦ a 0.0000045
♦ r 0.0000049
♦ x 0.0000709
♦ c 0.0000112
♦ ♦ 1.0000000
♦ o 0.0000060
3 S 0.0009000
3 m 0.0000123
3 h 0.0001279
3 , 0.0006514
3 l 0.0000537
3 o 0.0000121
3 p 0.0000243
3 r 0.0000292
3 . 0.0001489
3 B 0.0002758
3 ê 0.0001823
3 1 0.0022173
3 # 0.0000057
3 G 0.0012558
3 s 0.0001957
3 9 0.0019595
3 J 0.0024493
3 N 0.0008157
3 M 0.0005512
3 c 0.0000224
3 a 0.0001027
3 q 0.0000854
3 2 0.0078560
3 A 0.0003742
3 v 0.0000223
3 U 0.0017566
3 e 0.0000794
3 NULL 0.0017009
3 ᵉ 0.0263158
3 8 0.0060639
3 3 0.8483568
3 0 0.0019500
3 6 0.0007163
3 - 0.0000859
3 E 0.0003320
3 ° 0.0097087
3 4 0.0023627
3 5 0.0087252
3 u 0.0000052
3 V 0.0005726
3 ¾ 0.3333333
3 d 0.0000087
P 7 0.0007770
P G 0.0025115
P s 0.0000479
P n 0.0001160
P c 0.0001907
P M 0.0006430
P x 0.0001418
P t 0.0000141
P z 0.0002169
P q 0.0001139
P a 0.0000447
P NULL 0.0029205
P R 0.0024563
P v 0.0004901
P é 0.0000162
P e 0.0000573
P ° 0.0048544
P - 0.0000859
P E 0.0004150
P 6 0.0007163
P 0 0.0003250
P 3 0.0028169
P g 0.0002426
P b 0.0004443
P T 0.0011161
P u 0.0001298
P 5 0.0014542
P P 0.9091147
P d 0.0001744
P D 0.0031294
P V 0.0008589
P C 0.0011998
P L 0.0008703
P k 0.0035088
P S 0.0005143
P m 0.0002714
P i 0.0000046
P h 0.0003410
P , 0.0002641
P I 0.0002245
P W 0.0040650
P o 0.0000121
P l 0.0002862
P r 0.0000097
P p 0.0009095
P F 0.0070975
P f 0.0007831
P # 0.0000023
P à 0.0002786
P ê 0.0001823
P 1 0.0009239
P ' 0.0006876
P . 0.0000596
P B 0.0013789
Â i 0.0000139
Â A 0.0007484
Â e 0.0000022
Â Â 0.5000000
Â NULL 0.0000198
Â d 0.0000174
Â P 0.0001310
Â t 0.0000047
Â r 0.0000146
? s 0.0000998
? S 0.0003857
? c 0.0000112
? x 0.0001418
? t 0.0000047
? z 0.0004338
? q 0.0000570
? a 0.0000134
? 8 0.0022051
? NULL 0.0004483
? é 0.0000325
? e 0.0000617
? A 0.0000935
? 2 0.0006547
? , 0.0004577
? - 0.0000859
? E 0.0004150
? l 0.0000060
? p 0.0000121
? g 0.0000347
? F 0.0003736
? 5 0.0004847
? ? 0.9451259
? ç 0.0010753
? f 0.0000626
? d 0.0001221
? P 0.0002619
? à 0.0006268
? 1 0.0005543
? . 0.0001787
M ? 0.0012912
M u 0.0001350
M 5 0.0019389
M V 0.0005726
M P 0.0024882
M D 0.0003129
M d 0.0005495
M 3 0.0018779
M 0 0.0009750
M - 0.0000429
M E 0.0011620
M T 0.0005580
M b 0.0011310
M g 0.0006932
M 4 0.0011813
M a 0.0000447
M q 0.0000285
M z 0.0002169
M O 0.0001895
M A 0.0006548
M 2 0.0029460
M é 0.0003412
M U 0.0012547
M v 0.0001337
M e 0.0000772
M R 0.0002729
M NULL 0.0037380
M § 0.0181818
M n 0.0002133
M s 0.0000919
M J 0.0013996
M t 0.0001082
M x 0.0002836
M N 0.0029364
M M 0.9243983
M c 0.0000336
M f 0.0004699
M . 0.0002680
M B 0.0005516
M Z 0.0151515
M ê 0.0003646
M 1 0.0020325
M ' 0.0004031
M # 0.0000103
M H 0.0018302
M l 0.0005009
M o 0.0000543
M I 0.0007857
M F 0.0014942
M p 0.0001334
M r 0.0001507
M K 0.0145631
M m 0.0005675
M i 0.0001023
M h 0.0008951
M , 0.0004049
M L 0.0005222
M C 0.0012997
M S 0.0026999
t m 0.0016285
t S 0.0006428
t è 0.0024590
t L 0.0023499
t y 0.0020768
t B 0.0030336
t Y 0.0029326
t v 0.0040320
t A 0.0002806
t 8 0.0027563
t NULL 0.0493061
t R 0.0009552
t q 0.0013385
t t 0.9397080
t M 0.0012861
t c 0.0024786
t x 0.0070203
t 9 0.0006532
t È 0.0066225
t G 0.0050230
t P 0.0009167
t d 0.0035325
t ? 0.0058102
t u 0.0016614
t 5 0.0038778
t g 0.0014210
t b 0.0026659
t 6 0.0014327
t j 0.0021179
t 3 0.0028169
t - 0.0015462
t , 0.0042252
t h 0.0039640
t X 0.0019194
t i 0.0013340
t k 0.0035088
t Ê 0.0322581
t î 0.0090719
t C 0.0002000
t ê 0.0007293
t 1 0.0084996
t ' 0.0009247
t . 0.0002382
t à 0.0042485
t # 0.0000493
t f 0.0069538
t F 0.0003736
t p 0.0013097
t r 0.0021249
t l 0.0075552
t I 0.0017959
t o 0.0003558
t e 0.0008049
t ! 0.0060309
t U 0.0010038
t é 0.0012512
t 2 0.0081833
t a 0.0004734
t z 0.0078091
t J 0.0003499
t ù 0.0236349
t N 0.0022838
t s 0.0030472
t n 0.0009601
t V 0.0008589
t D 0.0010953
t É 0.0062500
t T 0.0072545
t 4 0.0005907
t û 0.0041181
t w 0.0109091
t E 0.0004150
™ É 0.0010417
™ NULL 0.0000396
™ P 0.0001310
™ A 0.0000935
™ e 0.0000088
™ L 0.0000870
™ O 0.0001895
7 t 0.0000047
7 è 0.0001025
7 9 0.0013063
7 n 0.0000371
7 s 0.0000080
7 7 0.8679099
7 é 0.0000650
7 e 0.0000287
7 ¡ 0.1428571
7 , 0.0000880
7 8 0.0022051
7 ᵉ 0.0526316
7 NULL 0.0009362
7 R 0.0001365
7 z 0.0004338
7 i 0.0000046
7 m 0.0000123
7 4 0.0029533
7 r 0.0000049
7 0 0.0006500
7 3 0.0014085
7 l 0.0000417
7 I 0.0003367
7 1 0.0012934
7 . 0.0004467
7 ? 0.0019367
7 ~ 0.0285714
7 ü 0.0163934
7 5 0.0014542
ó é 0.0000162
ó o 0.0000121
ó Q 0.0004888
G P 0.0011786
G D 0.0007824
G d 0.0001308
G V 0.0005726
G 5 0.0019389
G 4 0.0011813
G T 0.0005580
G E 0.0001660
G 6 0.0157593
G NULL 0.0012922
G R 0.0004094
G 8 0.0005513
G v 0.0000223
G e 0.0000375
G q 0.0000570
G O 0.0007579
G a 0.0000134
G N 0.0001631
G c 0.0002467
G M 0.0003674
G t 0.0000141
G J 0.0003499
G 7 0.0007770
G G 0.8765174
G s 0.0000958
G . 0.0000893
G B 0.0005516
G 1 0.0003695
G ç 0.0010753
G f 0.0000313
G p 0.0001819
G r 0.0000049
G I 0.0003367
G l 0.0000596
G X 0.0019194
G , 0.0001408
G h 0.0000852
G i 0.0000186
G m 0.0000617
G S 0.0007714
G C 0.0074985
G L 0.0003481
NULL ē 0.4444444
NULL m 0.0316699
NULL è 0.0304303
NULL S 0.0250707
NULL L 0.0118364
NULL y 0.0309450
NULL B 0.0292333
NULL Y 0.0175953
NULL ō 0.5000000
NULL ï 0.0432570
NULL v 0.0265978
NULL A 0.0264733
NULL 8 0.0385888
NULL R 0.0241539
NULL ᵉ 0.0789474
NULL ë 0.0511628
NULL q 0.0291898
NULL ᶱ 0.1666667
NULL t 0.0281178
NULL c 0.0318633
NULL M 0.0180048
NULL x 0.0245355
NULL 9 0.0574788
NULL È 0.0132450
NULL Ç 0.0425532
NULL G 0.0351612
NULL 7 0.0435120
NULL ½ 0.0465116
NULL d 0.0207676
NULL P 0.0199057
NULL ? 0.0206585
NULL ~ 0.0285714
NULL u 0.0260628
NULL 5 0.0373243
NULL b 0.0357475
NULL g 0.0376404
NULL 6 0.0315186
NULL j 0.0256693
NULL 3 0.0384977
NULL ° 0.0728155
NULL - 0.0845252
NULL h 0.0289843
NULL , 0.0188726
NULL â 0.0282021
NULL X 0.0364683
NULL K 0.0097087
NULL i 0.0339920
NULL Q 0.0161290
NULL k 0.0333333
NULL î 0.0237264
NULL C 0.0256949
NULL ê 0.0366454
NULL Z 0.0378788
NULL 1 0.0354767
NULL ' 0.0404002
NULL . 0.0310015
NULL H 0.0223280
NULL # 0.0117436
NULL à 0.0196406
NULL ç 0.0424731
NULL f 0.0295380
NULL F 0.0377288
NULL r 0.0316700
NULL p 0.0309953
NULL l 0.0249493
NULL I 0.0257043
NULL o 0.0302111
NULL W 0.0325203
NULL ô 0.0340426
NULL ! 0.0339239
NULL é 0.0340098
NULL U 0.0271016
NULL e 0.0235713
NULL 2 0.0320786
NULL a 0.0281289
NULL O 0.0272831
NULL z 0.0357918
NULL ù 0.0114099
NULL J 0.0174948
NULL N 0.0199021
NULL s 0.0265023
NULL n 0.0291591
NULL ★ 1.0000000
NULL V 0.0257658
NULL D 0.0153341
NULL É 0.0395833
NULL ü 0.0163934
NULL T 0.0251116
NULL 4 0.0307147
NULL 0 0.0542736
NULL û 0.0137268
NULL w 0.0254545
NULL E 0.0214143
R D 0.0017212
R d 0.0002093
R P 0.0015715
R V 0.0011451
R u 0.0000312
R 5 0.0024237
R 4 0.0011813
R T 0.0007440
R g 0.0004852
R E 0.0012450
R j 0.0002542
R û 0.0006863
R NULL 0.0036457
R ᵉ 0.0526316
R R 0.9035207
R 8 0.0011025
R A 0.0003742
R 2 0.0003273
R e 0.0000640
R é 0.0000325
R v 0.0001559
R O 0.0011368
R a 0.0000223
R x 0.0007800
R N 0.0006525
R M 0.0012861
R c 0.0000673
R t 0.0000282
R 7 0.0023310
R s 0.0001158
R G 0.0008372
R n 0.0001762
R 9 0.0039190
R # 0.0000138
R H 0.0014641
R B 0.0071704
R . 0.0002680
R ' 0.0002608
R 1 0.0016630
R y 0.0009346
R f 0.0001566
R r 0.0001751
R p 0.0001819
R F 0.0007471
R o 0.0000060
R I 0.0004490
R l 0.0000656
R , 0.0001584
R h 0.0003410
R Q 0.0004888
R i 0.0000139
R m 0.0000123
R K 0.0048544
R è 0.0001025
R S 0.0010285
R k 0.0017544
R L 0.0004352
R C 0.0009998
 E 0.0000830
v C 0.0002000
v L 0.0000870
v S 0.0001286
v è 0.0009221
v k 0.0017544
v m 0.0013694
v i 0.0000883
v h 0.0014918
v , 0.0004225
v l 0.0006440
v o 0.0001266
v r 0.0004571
v p 0.0017947
v f 0.0019107
v ç 0.0043011
v Y 0.0029326
v . 0.0000596
v ' 0.0009721
v y 0.0059190
v à 0.0006268
v # 0.0000103
v H 0.0014641
v n 0.0004916
v s 0.0002157
v 7 0.0007770
v J 0.0006998
v ù 0.0008150
v t 0.0004000
v x 0.0003546
v M 0.0017454
v c 0.0012449
v a 0.0000938
v q 0.0000570
v O 0.0001895
v z 0.0002169
v v 0.9153505
v ! 0.0003769
v é 0.0001137
v e 0.0000309
v R 0.0001365
v NULL 0.0097637
v j 0.0013555
v w 0.0036364
v - 0.0005583
v b 0.0013330
v g 0.0022182
v ? 0.0006456
v u 0.0027984
v V 0.0194675
v D 0.0003129
v P 0.0007858
v d 0.0010641
p ~ 0.0285714
p 5 0.0033931
p u 0.0003738
p V 0.0034354
p P 0.0112624
p D 0.0029729
p d 0.0018491
p 0 0.0003250
p j 0.0021179
p E 0.0003320
p - 0.0003865
p b 0.0025851
p g 0.0037432
p T 0.0003720
p a 0.0002724
p O 0.0011368
p z 0.0002169
p q 0.0014239
p é 0.0002762
p e 0.0003286
p v 0.0027177
p NULL 0.0186835
p R 0.0013646
p G 0.0083717
p s 0.0003594
p n 0.0005334
p 7 0.0007770
p t 0.0005176
p J 0.0003499
p M 0.0010105
p c 0.0022992
p N 0.0003263
p f 0.0033203
p ' 0.0013751
p y 0.0005192
p B 0.0030336
p . 0.0000596
p H 0.0025622
p à 0.0004179
p # 0.0000172
p l 0.0013417
p o 0.0009106
p F 0.0048562
p p 0.9340561
p r 0.0004279
p i 0.0003254
p m 0.0010857
p h 0.0012361
p , 0.0002817
p L 0.0006963
p C 0.0012997
p è 0.0006148
p S 0.0005143
I S 0.0001286
I è 0.0008197
I C 0.0003999
I L 0.0029591
I , 0.0001937
I h 0.0003410
I â 0.0017626
I X 0.0134357
I K 0.0097087
I m 0.0000987
I i 0.0009529
I F 0.0011207
I r 0.0000632
I p 0.0004366
I l 0.0013238
I I 0.8717028
I o 0.0000543
I ' 0.0001185
I ê 0.0001823
I 1 0.0136733
I B 0.0033094
I . 0.0003574
I H 0.0172035
I à 0.0011144
I # 0.0000481
I Y 0.0058651
I f 0.0004699
I t 0.0002071
I J 0.0041987
I c 0.0000336
I M 0.0024802
I x 0.0001418
I N 0.0029364
I n 0.0001299
I s 0.0002836
I U 0.0020075
I é 0.0001787
I e 0.0000992
I ! 0.0082925
I A 0.0001871
I 2 0.0009820
I R 0.0025928
I NULL 0.0049115
I a 0.0001340
I O 0.0009473
I q 0.0000285
I b 0.0004847
I T 0.0016741
I 4 0.0029533
I j 0.0002542
I 3 0.0004695
I ° 0.0048544
I - 0.0003436
I E 0.0010790
I V 0.0005726
I ½ 0.0697674
I P 0.0003929
I D 0.0014082
I d 0.0000262
I ? 0.0006456
I ~ 0.0571429
I u 0.0001038
I 5 0.0024237
Ï Y 0.0029326
Ï É 0.0010417
Ï d 0.0000087
Ï 1 0.0009239
Ï I 0.0004490
Ï Ï 1.0000000
Ï l 0.0000060
Ï ̅ 1.0000000
Ï g 0.0000347
Ï m 0.0000123
Ï i 0.0000232
Ï a 0.0000089
Ï NULL 0.0001253
Ï í 0.2500000
Ï R 0.0008188
Ï 2 0.0006547
Ï s 0.0000040
Ï 9 0.0006532
Ï t 0.0000094
ô â 0.0005875
ô NULL 0.0005340
ô é 0.0003575
ô e 0.0000684
ô h 0.0000426
ô ö 1.0000000
ô ē 0.1111111
ô a 0.0000715
ô S 0.0001286
ô è 0.0006148
ô x 0.0003546
ô t 0.0000094
ô ã 0.2500000
ô ò 0.3000000
ô Ê 0.0322581
ô s 0.0000120
ô d 0.0000349
ô # 0.0000023
ô à 0.0001393
ô ê 0.0051048
ô ' 0.0000237
ô u 0.0000467
ô 5 0.0009695
ô f 0.0000626
ô p 0.0000121
ô - 0.0000859
ô ô 0.8966565
ô o 0.0004824
ô 6 0.0021490
ô 0 0.0003250
o p 0.0006063
o r 0.0001459
o l 0.0003160
o o 0.9415135
o ô 0.0273556
o . 0.0000596
o y 0.0006231
o Z 0.0075758
o 1 0.0003695
o ê 0.0010939
o ' 0.0015648
o # 0.0000481
o H 0.0007321
o f 0.0006265
o è 0.0012295
o î 0.0006978
o h 0.0006394
o , 0.0000704
o Q 0.0009775
o i 0.0004462
o m 0.0002961
o T 0.0011161
o g 0.0010051
o b 0.0012118
o 3 0.0004695
o j 0.0006777
o û 0.0006863
o 0 0.0133247
o - 0.0009878
o E 0.0004150
o ° 0.0388350
o d 0.0002966
o P 0.0005238
o ? 0.0012912
o u 0.0009241
o 5 0.0077557
o J 0.0003499
o ᶱ 0.1666667
o t 0.0001976
o M 0.0000919
o c 0.0021982
o s 0.0002117
o G 0.0004186
o n 0.0002922
o ó 0.8000000
o ò 0.4000000
o A 0.0027128
o 2 0.0013093
o U 0.0012547
o e 0.0035680
o v 0.0002450
o é 0.0026324
o R 0.0008188
o ᵉ 0.0526316
o NULL 0.0369779
o 8 0.0011025
o a 0.0039348
o q 0.0059234
o O 0.0204623
o ë 0.0046512
o z 0.0002169
l n 0.0019758
l s 0.0031870
l J 0.0321903
l N 0.0014682
l a 0.0002456
l z 0.0004338
l U 0.0015056
l ! 0.0150773
l e 0.0001345
l é 0.0007150
l 2 0.0026187
l 0 0.0009750
l û 0.0013727
l E 0.0004980
l T 0.0007440
l 4 0.0005907
l V 0.0011451
l D 0.0017212
l É 0.0020833
l î 0.0118632
l C 0.0009998
l k 0.0333333
l Q 0.0029326
l i 0.0023334
l , 0.0024471
l h 0.0105281
l â 0.0011751
l X 0.0038388
l l 0.9293620
l I 0.0230104
l o 0.0003859
l F 0.0026149
l p 0.0026921
l r 0.0013567
l f 0.0075489
l ç 0.0016129
l 1 0.0271619
l ê 0.0009116
l ' 0.0008298
l . 0.0001191
l ä 0.5000000
l H 0.0073206
l à 0.0022287
l # 0.0000332
l G 0.0020929
l 7 0.0038850
l t 0.0070212
l M 0.0055117
l c 0.0010879
l x 0.0030492
l q 0.0033319
l v 0.0018266
l NULL 0.0346573
l R 0.0047762
l 3 0.0004695
l j 0.0060149
l ° 0.0072816
l g 0.0013517
l b 0.0042008
l u 0.0009034
l 5 0.0004847
l ½ 0.0232558
l d 0.0061317
l P 0.0049764
l L 0.0060923
l S 0.0028285
l è 0.0007172
l m 0.0022084
l Ô 0.1250000
l ï 0.0101781
l Y 0.0029326
l y 0.0025961
l B 0.0002758
à u 0.0001661
à 5 0.0024237
à D 0.0001565
à d 0.0005495
à ½ 0.0232558
à û 0.0013727
à 4 0.0029533
à b 0.0000808
à q 0.0000570
à a 0.0012372
à NULL 0.0021887
à v 0.0000223
à é 0.0001300
à e 0.0002558
à s 0.0003315
à n 0.0000835
à M 0.0004593
à c 0.0003477
à x 0.0002127
à t 0.0001318
à à 0.8638390
à ê 0.0007293
à ' 0.0002608
à . 0.0001489
à o 0.0000181
à ô 0.0012158
à l 0.0000835
à r 0.0000924
à p 0.0002304
à i 0.0000279
à K 0.0048544
à â 0.0117509
à ẽ 0.3333333
à h 0.0001279
à , 0.0013556
à C 0.0002999
à S 0.0002571
à è 0.0008197
1 y 0.0004154
1 B 0.0002758
1 S 0.0010285
1 L 0.0013925
1 d 0.0002704
1 P 0.0018334
1 ½ 0.0697674
1 u 0.0001817
1 5 0.0116335
1 b 0.0004847
1 ° 0.0315534
1 - 0.0023622
1 6 0.0157593
1 j 0.0005930
1 3 0.0089202
1 8 0.0066152
1 R 0.0004094
1 NULL 0.0038567
1 ᵉ 0.0263158
1 v 0.0002673
1 A 0.0007484
1 q 0.0000285
1 M 0.0022965
1 c 0.0001009
1 x 0.0007800
1 t 0.0002212
1 7 0.0170940
1 9 0.0091444
1 § 0.0181818
1 H 0.0003660
1 # 0.0000034
1 à 0.0019501
1 1 0.8161493
1 ê 0.0001823
1 ' 0.0001423
1 Z 0.0075758
1 . 0.0005063
1 f 0.0004385
1 p 0.0002789
1 r 0.0002383
1 F 0.0007471
1 I 0.0186328
1 o 0.0000181
1 W 0.0040650
1 l 0.0017233
1 X 0.0038388
1 h 0.0003410
1 , 0.0005458
1 i 0.0000883
1 C 0.0006999
1 D 0.0006259
1 V 0.0008589
1 4 0.0159480
1 T 0.0011161
1 E 0.0002490
1 0 0.0035749
1 e 0.0000772
1 U 0.0005019
1 ! 0.0885790
1 2 0.0140753
1 z 0.0004338
1 O 0.0017052
1 a 0.0000536
1 N 0.0011419
1 ù 0.0016300
1 J 0.0003499
1 n 0.0002690
1 s 0.0000639
ι s 0.0000040
ι z 0.0002169
ι m 0.0000247
ι t 0.0000047
ι e 0.0000022
ι v 0.0000223
ι NULL 0.0000066
Z a 0.0000179
Z A 0.0000935
Z 2 0.0009820
Z é 0.0000325
Z NULL 0.0001319
Z n 0.0000046
Z L 0.0001741
Z t 0.0000141
Z S 0.0003857
Z 5 0.0014542
Z Z 0.8484848
Z # 0.0000011
Z D 0.0003129
Z l 0.0000119
Z E 0.0000830
Z o 0.0000241
Z b 0.0000404
Ù U 0.0005019
Ù é 0.0000487
Ù à 0.0000696
Ù NULL 0.0000132
Ù m 0.0000123
Ù ù 0.0016300
Ù J 0.0003499
Ù p 0.0000121
. K 0.0048544
. i 0.0000883
. h 0.0004262
. , 0.0122179
. X 0.0057582
. C 0.0009998
. ç 0.0005376
. f 0.0003132
. . 0.9319515
. 1 0.0020325
. # 0.0004058
. à 0.0032038
. H 0.0010981
. l 0.0002683
. o 0.0002955
. I 0.0005612
. p 0.0002789
. r 0.0003890
. a 0.0006967
. O 0.0011368
. z 0.0002169
. 2 0.0039280
. U 0.0010038
. é 0.0008125
. ! 0.0033924
. e 0.0008644
. s 0.0008706
. n 0.0002644
. J 0.0024493
. V 0.0017177
. É 0.0020833
. D 0.0018776
. w 0.0072727
. 0 0.0061748
. E 0.0017430
. T 0.0020461
. 4 0.0082693
. m 0.0002961
. L 0.0024369
. S 0.0019285
. B 0.0011031
. y 0.0001038
. q 0.0001709
. A 0.0017774
. NULL 0.0206481
. ᵉ 0.0263158
. R 0.0024563
. 8 0.0038589
. G 0.0025115
. § 0.0363636
. Ç 0.0425532
. 9 0.0058785
. 7 0.0015540
. t 0.0004612
. x 0.0007800
. M 0.0013779
. c 0.0006617
. ~ 0.0285714
. ? 0.0019367
. u 0.0005763
. 5 0.0019389
. ½ 0.0697674
. P 0.0022263
. d 0.0014653
. 3 0.0023474
. 6 0.0021490
. - 0.0019327
ì d 0.0000087
ì b 0.0000404
ì f 0.0000313
k k 0.8631579
k S 0.0002571
k c 0.0000673
k t 0.0000706
k L 0.0001741
k n 0.0000464
k R 0.0002729
k NULL 0.0005340
k A 0.0002806
k h 0.0002131
k é 0.0000325
k v 0.0000223
k e 0.0000044
k i 0.0001301
k a 0.0000313
k r 0.0000049
k 4 0.0017720
k F 0.0007471
k g 0.0001386
k - 0.0001288
k o 0.0000181
k l 0.0001670
k û 0.0006863
k # 0.0000023
k à 0.0020894
k d 0.0000872
• , 0.0000528
• Q 0.0004888
• i 0.0000418
• m 0.0001110
• S 0.0003857
• è 0.0002049
• • 0.8750000
• C 0.0003999
• L 0.0005222
• # 0.0000023
• à 0.0007661
• 1 0.0003695
• . 0.0006254
• B 0.0008274
• p 0.0000728
• r 0.0000535
• o 0.0000362
• l 0.0000298
• NULL 0.0011603
• R 0.0001365
• e 0.0001036
• ! 0.0003769
• é 0.0000975
• 2 0.0003273
• A 0.0001871
• q 0.0002563
• a 0.0000715
• M 0.0002756
• c 0.0000785
• N 0.0001631
• J 0.0010497
• t 0.0000329
• 9 0.0026127
• s 0.0000958
• n 0.0000371
• P 0.0001310
• D 0.0006259
• d 0.0001570
• 5 0.0009695
• u 0.0000312
• ? 0.0006456
• 4 0.0011813
• b 0.0000404
• g 0.0000693
• T 0.0001860
• ° 0.0121359
• E 0.0002490
• - 0.0003865
• 0 0.0003250
τ ? 0.0006456
■ NULL 0.0003560
■ e 0.0000110
■ v 0.0000223
■ h 0.0000852
■ O 0.0001895
■ m 0.0000247
■ a 0.0000357
■ è 0.0001025
■ ■ 0.7142857
■ s 0.0000200
■ n 0.0000093
■ d 0.0000349
■ # 0.0000011
■ V 0.0002863
■ y 0.0001038
■ ½ 0.0232558
■ u 0.0000104
■ r 0.0000097
■ o 0.0000121
C D 0.0004694
C d 0.0003314
C P 0.0007858
C u 0.0000156
C T 0.0005580
C g 0.0001040
C 3 0.0028169
C 6 0.0107450
C û 0.0006863
C 0 0.0035749
C E 0.0003320
C v 0.0003119
C U 0.0030113
C e 0.0000904
C é 0.0001300
C R 0.0013646
C NULL 0.0034611
C 8 0.0005513
C a 0.0001027
C q 0.0003133
C O 0.0015157
C t 0.0000800
C x 0.0004255
C N 0.0011419
C c 0.0015141
C M 0.0008267
C s 0.0003395
C n 0.0000557
C G 0.0159062
C . 0.0000893
C B 0.0019305
C ' 0.0001660
C ê 0.0010939
C 1 0.0016630
C y 0.0006231
C à 0.0002786
C # 0.0000115
C H 0.0003660
C f 0.0003446
C F 0.0011207
C p 0.0007397
C r 0.0000340
C l 0.0000716
C I 0.0001122
C , 0.0006338
C K 0.0048544
C i 0.0000279
C m 0.0002097
C S 0.0007714
C L 0.0018277
C C 0.9235153
î î 0.8408932
î C 0.0001000
î m 0.0000987
î i 0.0009901
î h 0.0002984
î l 0.0004353
î o 0.0000121
î I 0.0005612
î r 0.0000486
î ï 0.0050891
î f 0.0004699
î B 0.0013789
î . 0.0000298
î 1 0.0012934
î à 0.0006965
î # 0.0000046
î H 0.0007321
î s 0.0000559
î n 0.0001716
î J 0.0006998
î t 0.0001224
î N 0.0006525
î x 0.0000709
î M 0.0002756
î a 0.0000581
î 2 0.0003273
î U 0.0002509
î e 0.0000419
î é 0.0000650
î ! 0.0011308
î NULL 0.0008702
î j 0.0001694
î E 0.0001660
î T 0.0003720
î b 0.0000404
î ? 0.0019367
î u 0.0000156
î ī 0.5000000
î d 0.0002006
Ê g 0.0000347
Ê Ê 0.7741935
Ê n 0.0000186
Ê 3 0.0004695
Ê l 0.0000119
Ê W 0.0040650
Ê é 0.0000487
Ê ê 0.0003646
Ê e 0.0000088
Ê 2 0.0003273
Ê d 0.0000087
Ê NULL 0.0001846
Ê É 0.0010417
Ê ç 0.0005376
Ê i 0.0000046
â ê 0.0009116
â à 0.0029948
â d 0.0000785
â u 0.0000156
â 3 0.0004695
â l 0.0000060
â 0 0.0009750
â 6 0.0007163
â û 0.0006863
â ô 0.0012158
â , 0.0000176
â A 0.0001871
â e 0.0000110
â é 0.0004712
â NULL 0.0008241
â â 0.8678026
â a 0.0006432
â i 0.0000697
â t 0.0000047
â è 0.0002049
â S 0.0003857
â c 0.0003140
â s 0.0001198
â n 0.0000139
â 9 0.0006532
X p 0.0000364
X r 0.0000243
X I 0.0008980
X l 0.0000060
X # 0.0000023
X à 0.0002089
X 1 0.0001848
X ' 0.0000474
X Y 0.0087977
X f 0.0000626
X C 0.0002000
X L 0.0005222
X X 0.8157390
X , 0.0000176
X ¡ 0.1428571
X m 0.0000740
X 4 0.0005907
X b 0.0000808
X T 0.0001860
X - 0.0000429
X 6 0.0014327
X d 0.0000174
X P 0.0002619
X D 0.0001565
X M 0.0001837
X N 0.0016313
X x 0.0009219
X J 0.0006998
X t 0.0000047
X s 0.0000120
X § 0.0181818
X NULL 0.0004483
X é 0.0000975
X e 0.0000485
X 2 0.0003273
X a 0.0000089
h u 0.0001506
h ü 0.0327869
h d 0.0004187
h D 0.0007824
h ½ 0.0232558
h - 0.0000859
h E 0.0004150
h 3 0.0004695
h j 0.0000847
h 4 0.0011813
h b 0.0054530
h g 0.0000693
h T 0.0011161
h q 0.0001709
h a 0.0000849
h 8 0.0022051
h NULL 0.0063948
h R 0.0009552
h e 0.0000154
h v 0.0003119
h A 0.0001871
h 9 0.0013063
h s 0.0000639
h n 0.0008070
h c 0.0003253
h M 0.0007349
h t 0.0003012
h f 0.0008771
h H 0.0025622
h # 0.0000034
h à 0.0041789
h 1 0.0001848
h y 0.0005192
h ' 0.0000711
h . 0.0000596
h o 0.0000905
h W 0.0040650
h Ô 0.1250000
h l 0.0009123
h p 0.0006548
h r 0.0001751
h m 0.0002591
h Q 0.0004888
h i 0.0004137
h K 0.0048544
h â 0.0017626
h h 0.9167981
h , 0.0000176
h L 0.0002611
h S 0.0010285
h k 0.0017544
, 7 0.0069930
, 9 0.0013063
, G 0.0008372
, M 0.0014698
, c 0.0009309
, x 0.0046802
, t 0.0014541
, ë 0.0093023
, q 0.0016232
, 8 0.0016538
, NULL 0.0118140
, R 0.0005459
, v 0.0004232
, - 0.0005154
, j 0.0011860
, g 0.0003466
, b 0.0002827
, 5 0.0009695
, u 0.0004102
, ? 0.0006456
, d 0.0038203
, P 0.0014405
, L 0.0013925
, è 0.0007172
, S 0.0005143
, m 0.0003331
, y 0.0011423
, B 0.0046884
, n 0.0007003
, s 0.0024601
, ù 0.0073350
, J 0.0006998
, z 0.0019523
, a 0.0007950
, ! 0.0026385
, é 0.0010725
, e 0.0014841
, 2 0.0019640
, E 0.0025730
, 0 0.0032499
, û 0.0013727
, 4 0.0011813
, T 0.0001860
, D 0.0014082
, V 0.0042943
, C 0.0024995
, i 0.0002371
, Q 0.0029326
, K 0.0145631
, , 0.9163586
, h 0.0002557
, I 0.0001122
, W 0.0040650
, o 0.0000603
, l 0.0013357
, r 0.0006905
, p 0.0010429
, F 0.0026149
, f 0.0007204
, H 0.0010981
, à 0.0090542
, ' 0.0001423
, 1 0.0018477
, . 0.0161410
¡ 9 0.0006532
¡ n 0.0000046
¡ C 0.0002000
¡ J 0.0003499
¡ c 0.0000112
¡ x 0.0000709
¡ a 0.0000045
¡ q 0.0000285
¡ e 0.0000044
¡ 2 0.0003273
¡ ¡ 0.5714286
¡ , 0.0000352
¡ NULL 0.0001450
¡ ᵉ 0.0263158
¡ j 0.0000847
¡ l 0.0000239
¡ I 0.0001122
¡ g 0.0000693
¡ 1 0.0001848
¡ ' 0.0000237
¡ ê 0.0001823
¡ P 0.0001310
i 4 0.0206734
i w 0.0145455
i û 0.0116678
i 0 0.0048749
i E 0.0027390
i É 0.0041667
i ü 0.1639344
i ù 0.0073350
i J 0.0027992
i N 0.0006525
i n 0.0032049
i s 0.0016334
i 2 0.0039280
i ! 0.0018847
i U 0.0017566
i e 0.0010298
i é 0.0032824
i í 0.2500000
i a 0.0014382
i z 0.0030369
i O 0.0011368
i F 0.0026149
i p 0.0008367
i r 0.0024313
i l 0.0044902
i o 0.0007839
i ô 0.0030395
i I 0.0244696
i . 0.0014295
i 1 0.0258684
i ê 0.0105743
i ' 0.0008535
i à 0.0129545
i # 0.0000940
i H 0.0014641
i ç 0.0026882
i ì 1.0000000
i f 0.0017541
i k 0.0052632
i î 0.0837404
i C 0.0009998
i , 0.0010563
i h 0.0051575
i â 0.0117509
i i 0.9445475
i g 0.0015250
i b 0.0025851
i 3 0.0061033
i j 0.0407489
i 6 0.0035817
i - 0.0007301
i ½ 0.0697674
i d 0.0016485
i ? 0.0012912
i u 0.0040496
i 5 0.0014542
i t 0.0030071
i x 0.0021983
i c 0.0007402
i M 0.0016535
i G 0.0041859
i 9 0.0091444
i A 0.0008419
i v 0.0006460
i R 0.0006823
i NULL 0.0622672
i 8 0.0011025
i q 0.0004556
i ë 0.0046512
i ï 0.0763359
i B 0.0044126
i y 0.0043614
i Y 0.0029326
i è 0.0060451
i S 0.0011571
i L 0.0016536
i m 0.0028993
Q NULL 0.0005340
Q R 0.0001365
Q A 0.0001871
Q e 0.0000419
Q q 0.0006265
Q O 0.0022736
Q z 0.0002169
Q a 0.0000581
Q c 0.0000112
Q G 0.0012558
Q s 0.0000040
Q 9 0.0013063
Q d 0.0000349
Q V 0.0002863
Q b 0.0000404
Q E 0.0002490
Q ° 0.0024272
Q 3 0.0004695
Q j 0.0000847
Q 0 0.0029249
Q , 0.0000352
Q h 0.0000852
Q Q 0.9393939
Q i 0.0000046
Q m 0.0001851
Q S 0.0005143
Q L 0.0002611
Q H 0.0003660
Q B 0.0008274
Q ' 0.0000948
Q f 0.0000626
Q o 0.0001568
Q l 0.0000119
K k 0.0070175
K S 0.0002571
K K 0.8592233
K i 0.0000139
K ¡ 0.1428571
K , 0.0000528
K h 0.0001705
K â 0.0005875
K l 0.0000239
K o 0.0000241
K r 0.0000097
K f 0.0001253
K ê 0.0003646
K . 0.0000893
K H 0.0003660
K G 0.0004186
K s 0.0000200
K n 0.0000186
K 7 0.0023310
K ᶱ 0.1666667
K t 0.0000518
K M 0.0004593
K c 0.0000112
K x 0.0001418
K N 0.0024470
K a 0.0000179
K e 0.0000088
K v 0.0000223
K 2 0.0006547
K NULL 0.0004153
K R 0.0021834
K 6 0.0007163
K 3 0.0009390
K E 0.0016600
K - 0.0000859
K b 0.0000808
K g 0.0001386
K ? 0.0006456
K u 0.0000519
K 5 0.0014542
K d 0.0000262
K É 0.0041667
Ó ò 0.1000000
Ó o 0.0000060
Ó ô 0.0006079
Ó Ó 1.0000000
Ó , 0.0000176
T 9 0.0006532
T È 0.0132450
T G 0.0008372
T s 0.0008746
T n 0.0001252
T 7 0.0054390
T J 0.0006998
T t 0.0000706
T M 0.0009186
T c 0.0001458
T x 0.0002836
T N 0.0013051
T q 0.0000285
T e 0.0000198
T ! 0.0003769
T v 0.0005124
T é 0.0000975
T U 0.0007528
T A 0.0005613
T R 0.0015011
T NULL 0.0030919
T 0 0.0003250
T 3 0.0014085
T - 0.0002577
T E 0.0002490
T g 0.0001733
T T 0.9255952
T ? 0.0025823
T u 0.0000571
T 5 0.0009695
T V 0.0037217
T P 0.0019644
T D 0.0029729
T d 0.0001396
T L 0.0003481
T S 0.0010285
T m 0.0000370
T i 0.0000232
T h 0.0001279
T , 0.0000704
T X 0.0019194
T l 0.0005307
T I 0.0020204
T o 0.0000362
T F 0.0011207
T r 0.0003841
T Y 0.0205279
T f 0.0005325
T 1 0.0011086
T ' 0.0017308
T y 0.0006231
T B 0.0011031
T . 0.0004467
T # 0.0000206
0 P 0.0006548
0 d 0.0001396
0 V 0.0008589
0 u 0.0000363
0 5 0.0058168
0 4 0.0035440
0 T 0.0003720
0 ° 0.0509709
0 - 0.0000429
0 E 0.0004980
0 0 0.8196295
0 6 0.0121777
0 3 0.0023474
0 8 0.0033076
0 ᵉ 0.1052632
0 R 0.0002729
0 NULL 0.0019448
0 e 0.0001411
0 U 0.0010038
0 2 0.0026187
0 O 0.0126942
0 a 0.0000625
0 c 0.0001458
0 N 0.0004894
0 x 0.0002836
0 t 0.0000282
0 7 0.0023310
0 9 0.0222077
0 s 0.0000719
0 # 0.0000355
0 y 0.0001038
0 1 0.0016630
0 . 0.0004169
0 B 0.0011031
0 p 0.0000243
0 r 0.0000195
0 I 0.0002245
0 o 0.0003437
0 l 0.0000239
0 , 0.0000352
0 h 0.0004262
0 è 0.0001025
0 S 0.0005143
0 C 0.0004999
0 L 0.0000870
+ NULL 0.0000066
Ú U 0.0002509
Ú ê 0.0001823
Ú NULL 0.0000066
Ú â 0.0005875
É , 0.0000176
É 2 0.0003273
É U 0.0007528
É e 0.0000066
É é 0.0001950
É NULL 0.0006395
É a 0.0000134
É m 0.0000123
É i 0.0000186
É O 0.0009473
É t 0.0000094
É x 0.0002127
É s 0.0000080
É L 0.0000870
É C 0.0002999
É V 0.0005726
É Z 0.0075758
É É 0.8239583
É # 0.0000034
É P 0.0001310
É D 0.0003129
É ~ 0.0285714
É F 0.0003736
É T 0.0001860
É r 0.0000292
É 3 0.0004695
É l 0.0000239
É E 0.0025730
V X 0.0115163
V , 0.0001937
V h 0.0003410
V Q 0.0019550
V m 0.0001480
V S 0.0011571
V C 0.0002000
V L 0.0008703
V # 0.0000080
V ͤ 1.0000000
V . 0.0001489
V ' 0.0019204
V f 0.0000940
V Y 0.0029326
V p 0.0001698
V ï 0.0025445
V r 0.0000924
V F 0.0007471
V o 0.0000965
V I 0.0003367
V l 0.0003399
V R 0.0004094
V í 0.2500000
V NULL 0.0029667
V A 0.0001871
V v 0.0009802
V é 0.0000650
V U 0.0180678
V e 0.0000176
V q 0.0000854
V a 0.0000447
V N 0.0009788
V c 0.0001346
V M 0.0005512
V t 0.0000047
V ò 0.1000000
V 7 0.0007770
V s 0.0000240
V G 0.0012558
V n 0.0000510
V 9 0.0013063
V d 0.0001396
V D 0.0007824
V P 0.0002619
V V 0.8914973
V u 0.0000052
V 4 0.0023627
V T 0.0005580
V - 0.0000859
V 3 0.0014085
² 6 0.0007163
N ° 0.0024272
N - 0.0001718
N E 0.0005810
N 4 0.0017720
N b 0.0000808
N g 0.0000347
N T 0.0007440
N 5 0.0014542
N u 0.0001142
N P 0.0007858
N d 0.0000523
N D 0.0004694
N V 0.0008589
N 9 0.0013063
N ó 0.2000000
N s 0.0000280
N G 0.0004186
N n 0.0002829
N M 0.0022047
N c 0.0002243
N N 0.9241436
N t 0.0000188
N O 0.0005684
N q 0.0001139
N a 0.0000268
N R 0.0013646
N NULL 0.0030787
N U 0.0012547
N v 0.0001114
N é 0.0000812
N e 0.0000419
N A 0.0005613
N I 0.0006735
N o 0.0000482
N l 0.0000477
N r 0.0000438
N p 0.0001213
N F 0.0003736
N f 0.0001566
N H 0.0018302
N à 0.0001393
N # 0.0000310
N 1 0.0001848
N y 0.0002077
N ' 0.0000237
N B 0.0013789
N . 0.0002382
N C 0.0007998
N L 0.0006963
N S 0.0020571
N £ 0.3333333
N i 0.0000093
N m 0.0000987
N , 0.0001232
N h 0.0002557
ù ù 0.8810106
ù t 0.0000565
ù è 0.0002049
ù s 0.0000200
ù G 0.0004186
ù n 0.0000371
ù é 0.0000162
ù v 0.0000668
ù h 0.0001705
ù , 0.0000176
ù NULL 0.0002373
ù a 0.0000268
ù i 0.0000418
ù m 0.0000493
ù r 0.0000146
ù û 0.0109815
ù ô 0.0006079
ù - 0.0000859
ù o 0.0000362
ù ê 0.0003646
ù . 0.0000298
ù d 0.0000611
ù à 0.0018805
ù ü 0.0163934
ù u 0.0003063
J J 0.9030791
J t 0.0000753
J x 0.0000709
J N 0.0009788
J M 0.0015616
J c 0.0000112
J G 0.0004186
J n 0.0000742
J s 0.0004952
J 9 0.0013063
J 7 0.0007770
J A 0.0007484
J 2 0.0019640
J U 0.0037641
J e 0.0000022
J ! 0.0026385
J NULL 0.0014504
J R 0.0001365
J a 0.0000268
J q 0.0002278
J z 0.0002169
J b 0.0002424
J 4 0.0011813
J 3 0.0014085
J j 0.0034734
J E 0.0006640
J ½ 0.2558140
J É 0.0010417
J d 0.0007937
J P 0.0007858
J D 0.0007824
J u 0.0000156
J S 0.0009000
J k 0.0017544
J L 0.0007833
J C 0.0004999
J , 0.0006514
J h 0.0002984
J i 0.0000139
J m 0.0000864
J r 0.0000389
J p 0.0000485
J l 0.0008706
J o 0.0000121
J I 0.0012347
J B 0.0013789
J . 0.0004765
J ' 0.0001897
J Z 0.0075758
J 1 0.0020325
J y 0.0002077
J à 0.0001393
J # 0.0000046
J H 0.0029283
J f 0.0005638
J Y 0.0087977
ā V 0.0002863
ā NULL 0.0000066
ò ô 0.0006079
ò é 0.0000162
© 6 0.0007163
© s 0.0000240
© o 0.0000181
© e 0.0000397
© NULL 0.0000066
e ° 0.0121359
e - 0.0009878
e 6 0.0100287
e j 0.0000847
e b 0.0004847
e g 0.0011091
e 5 0.0063015
e u 0.0019106
e d 0.0002704
e 7 0.0101010
e 9 0.0078380
e È 0.0198675
e G 0.0008372
e M 0.0009186
e c 0.0049797
e x 0.0022692
e ᶱ 0.1666667
e t 0.0009506
e ë 0.1395349
e q 0.0015378
e ᵉ 0.2105263
e NULL 0.0781554
e R 0.0006823
e v 0.0002228
e A 0.0018709
e Y 0.0117302
e y 0.0024922
e B 0.0002758
e è 0.0161885
e S 0.0001286
e m 0.0001851
e E 0.0102092
e û 0.0123542
e 0 0.0103997
e 4 0.0017720
e T 0.0011161
e ć 1.0000000
e D 0.0009388
e n 0.0005983
e s 0.0022684
e N 0.0008157
e ù 0.0154849
e ā 1.0000000
e z 0.0002169
e O 0.0009473
e a 0.0054176
e é 0.0218878
e U 0.0020075
e e 0.9513645
e ô 0.0036474
e o 0.0057287
e l 0.0002803
e p 0.0007518
e r 0.0004425
e F 0.0003736
e ç 0.0032258
e f 0.0004385
e H 0.0007321
e # 0.0000608
e à 0.0091935
e 1 0.0001848
e ' 0.0015174
e ê 0.0151322
e . 0.0015486
e C 0.0002999
e î 0.0006978
e k 0.0070175
e ę 1.0000000
e Q 0.0004888
e i 0.0028121
e h 0.0008099
e , 0.0085032
¿ e 0.0000066
¿ NULL 0.0000066
¿ à 0.0000696
2 , 0.0000704
2 h 0.0002131
2 L 0.0000870
2 ■ 0.1428571
2 ç 0.0005376
2 Y 0.0029326
2 . 0.0001489
2 B 0.0008274
2 ê 0.0009116
2 1 0.0020325
2 à 0.0000696
2 # 0.0000069
2 l 0.0001252
2 W 0.0040650
2 z 0.0013015
2 2 0.8481178
2 A 0.0005613
2 v 0.0000223
2 ! 0.0007539
2 e 0.0000662
2 NULL 0.0015361
2 s 0.0000160
2 t 0.0000047
2 N 0.0001631
2 x 0.0005673
2 c 0.0002467
2 M 0.0000919
2 5 0.0004847
2 É 0.0020833
2 d 0.0000959
2 3 0.0065728
2 j 0.0000847
2 6 0.0014327
2 0 0.0022749
2 - 0.0013314
2 ° 0.0097087
2 T 0.0016741
2 4 0.0017720
Û G 0.0004186
Û s 0.0000040
Û 0 0.0029249
Û N 0.0001631
Û 4 0.0005907
Û c 0.0000112
Û S 0.0001286
Û u 0.0000156
Û O 0.0007579
Û NULL 0.0000264
Û D 0.0001565
Û h 0.0000852
Û e 0.0000022
Û v 0.0000446
a J 0.0003499
a N 0.0006525
a s 0.0021566
a n 0.0012940
a 2 0.0098200
a U 0.0007528
a é 0.0028599
a e 0.0030762
a a 0.9452474
a z 0.0021692
a O 0.0028420
a 4 0.0047253
a w 0.0036364
a 0 0.0029249
a û 0.0054907
a E 0.0015770
a V 0.0017177
a É 0.0010417
a C 0.0009998
a h 0.0003836
a , 0.0012852
a â 0.0458284
a i 0.0006786
a Q 0.0004888
a r 0.0002820
a p 0.0006306
a l 0.0003280
a ô 0.0006079
a W 0.0040650
a o 0.0061930
a . 0.0003871
a ' 0.0004742
a Z 0.0075758
a ê 0.0009116
a # 0.0000413
a à 0.0282769
a H 0.0007321
a f 0.0005638
a t 0.0002776
a x 0.0004964
a M 0.0004593
a c 0.0008412
a G 0.0004186
a 9 0.0013063
a 7 0.0007770
a ã 0.7500000
a A 0.0090739
a v 0.0006460
a ᵉ 0.0263158
a R 0.0005459
a NULL 0.0490688
a 8 0.0027563
a q 0.0030756
a g 0.0005546
a b 0.0006059
a 3 0.0014085
a 6 0.0050143
a - 0.0006872
a d 0.0008461
a ? 0.0006456
a u 0.0031981
a 5 0.0101794
a S 0.0003857
a è 0.0010246
a L 0.0002611
a m 0.0003331
a á 1.0000000
a y 0.0001038
